<?xml version="1.0"?>
<opencv_storage>
<boost type_id="opencv-ml-boost-tree">
  <boosting_type>RealAdaboost</boosting_type>
  <splitting_criteria>Gini</splitting_criteria>
  <ntrees>100</ntrees>
  <weight_trimming_rate>9.4999999999999996e-001</weight_trimming_rate>
  <is_classifier>1</is_classifier>
  <var_all>200</var_all>
  <var_count>200</var_count>
  <ord_var_count>200</ord_var_count>
  <cat_var_count>0</cat_var_count>
  <training_params>
    <use_surrogates>1</use_surrogates>
    <max_categories>10</max_categories>
    <max_depth>1</max_depth>
    <min_sample_count>10</min_sample_count>
    <cross_validation_folds>0</cross_validation_folds>
    <priors type_id="opencv-matrix">
      <rows>1</rows>
      <cols>2</cols>
      <dt>d</dt>
      <data>
        1. 1.</data></priors></training_params>
  <var_type>
    0 0 0 0 0 0 0 0 0 0 0 0 0 0 0 0 0 0 0 0 0 0 0 0 0 0 0 0 0 0 0 0 0 0
    0 0 0 0 0 0 0 0 0 0 0 0 0 0 0 0 0 0 0 0 0 0 0 0 0 0 0 0 0 0 0 0 0 0
    0 0 0 0 0 0 0 0 0 0 0 0 0 0 0 0 0 0 0 0 0 0 0 0 0 0 0 0 0 0 0 0 0 0
    0 0 0 0 0 0 0 0 0 0 0 0 0 0 0 0 0 0 0 0 0 0 0 0 0 0 0 0 0 0 0 0 0 0
    0 0 0 0 0 0 0 0 0 0 0 0 0 0 0 0 0 0 0 0 0 0 0 0 0 0 0 0 0 0 0 0 0 0
    0 0 0 0 0 0 0 0 0 0 0 0 0 0 0 0 0 0 0 0 0 0 0 0 0 0 0 0 0 0</var_type>
  <cat_count type_id="opencv-matrix">
    <rows>1</rows>
    <cols>1</cols>
    <dt>i</dt>
    <data>
      2</data></cat_count>
  <cat_map type_id="opencv-matrix">
    <rows>1</rows>
    <cols>2</cols>
    <dt>i</dt>
    <data>
      -1 1</data></cat_map>
  <trees>
    <_>
      <best_tree_idx>-1</best_tree_idx>
      <nodes>
        <_>
          <depth>0</depth>
          <sample_count>2280</sample_count>
          <value>-1.5104424867845143e+000</value>
          <norm_class_idx>0</norm_class_idx>
          <Tn>0</Tn>
          <complexity>0</complexity>
          <alpha>0.</alpha>
          <node_risk>0.</node_risk>
          <tree_risk>0.</tree_risk>
          <tree_error>0.</tree_error>
          <splits>
            <_><var>111</var>
              <quality>9.2576026916503906e-001</quality>
              <le>1.4667865820229053e-002</le></_>
            <_><var>182</var>
              <quality>9.0911281108856201e-001</quality>
              <le>3.2877388596534729e-001</le></_>
            <_><var>133</var>
              <quality>9.0748870372772217e-001</quality>
              <le>1.8829414248466492e-001</le></_>
            <_><var>191</var>
              <quality>9.0667665004730225e-001</quality>
              <le>1.1583371460437775e-001</le></_>
            <_><var>97</var>
              <quality>9.0667665004730225e-001</quality>
              <le>5.4247593879699707e-001</le></_>
            <_><var>197</var>
              <quality>9.0627056360244751e-001</quality>
              <le>5.2267372608184814e-001</le></_>
            <_><var>188</var>
              <quality>9.0627056360244751e-001</quality>
              <le>3.0781811475753784e-001</le></_>
            <_><var>77</var>
              <quality>9.0627056360244751e-001</quality>
              <le>4.3867409229278564e-001</le></_>
            <_><var>166</var>
              <quality>9.0586453676223755e-001</quality>
              <le>2.2450663149356842e-002</le></_>
            <_><var>102</var>
              <quality>9.0586453676223755e-001</quality>
              <le>1.4676068723201752e-001</le></_>
            <_><var>6</var>
              <quality>9.0586453676223755e-001</quality>
              <le>2.9838421940803528e-001</le></_>
            <_><var>164</var>
              <quality>9.0545850992202759e-001</quality>
              <le>3.0824905633926392e-001</le></_>
            <_><var>142</var>
              <quality>9.0545850992202759e-001</quality>
              <le>8.0799236893653870e-002</le></_>
            <_><var>126</var>
              <quality>9.0545850992202759e-001</quality>
              <le>6.9917726516723633e-001</le></_>
            <_><var>122</var>
              <quality>9.0545850992202759e-001</quality>
              <le>4.5207914710044861e-001</le></_>
            <_><var>104</var>
              <quality>9.0545850992202759e-001</quality>
              <le>5.9052872657775879e-001</le></_>
            <_><var>68</var>
              <quality>9.0545850992202759e-001</quality>
              <le>1.8281809985637665e-001</le></_>
            <_><var>20</var>
              <quality>9.0545850992202759e-001</quality>
              <le>4.1182580590248108e-001</le></_></splits></_>
        <_>
          <depth>1</depth>
          <sample_count>2229</sample_count>
          <value>-1.6787968720899829e+000</value>
          <norm_class_idx>0</norm_class_idx>
          <Tn>0</Tn>
          <complexity>0</complexity>
          <alpha>0.</alpha>
          <node_risk>0.</node_risk>
          <tree_risk>0.</tree_risk>
          <tree_error>0.</tree_error></_>
        <_>
          <depth>1</depth>
          <sample_count>51</sample_count>
          <value>2.1912746546557779e-001</value>
          <norm_class_idx>1</norm_class_idx>
          <Tn>0</Tn>
          <complexity>0</complexity>
          <alpha>0.</alpha>
          <node_risk>0.</node_risk>
          <tree_risk>0.</tree_risk>
          <tree_error>0.</tree_error></_></nodes></_>
    <_>
      <best_tree_idx>-1</best_tree_idx>
      <nodes>
        <_>
          <depth>0</depth>
          <sample_count>2280</sample_count>
          <value>-1.1768364061026798e-014</value>
          <norm_class_idx>0</norm_class_idx>
          <Tn>0</Tn>
          <complexity>0</complexity>
          <alpha>0.</alpha>
          <node_risk>0.</node_risk>
          <tree_risk>0.</tree_risk>
          <tree_error>0.</tree_error>
          <splits>
            <_><var>42</var>
              <quality>5.6970369815826416e-001</quality>
              <le>1.7995392903685570e-002</le></_>
            <_><var>51</var>
              <quality>5.3567028045654297e-001</quality>
              <le>2.3440361022949219e-002</le></_>
            <_><var>151</var>
              <quality>5.3449195623397827e-001</quality>
              <le>2.6028960943222046e-002</le></_>
            <_><var>15</var>
              <quality>5.2783715724945068e-001</quality>
              <le>1.9873216748237610e-002</le></_>
            <_><var>115</var>
              <quality>5.2611047029495239e-001</quality>
              <le>1.5843106433749199e-002</le></_>
            <_><var>137</var>
              <quality>5.2192956209182739e-001</quality>
              <le>1.9873216748237610e-002</le></_>
            <_><var>104</var>
              <quality>5.1609820127487183e-001</quality>
              <le>2.0887799561023712e-002</le></_>
            <_><var>2</var>
              <quality>5.1279306411743164e-001</quality>
              <le>5.8325231075286865e-002</le></_>
            <_><var>171</var>
              <quality>5.1204890012741089e-001</quality>
              <le>7.3130384087562561e-002</le></_>
            <_><var>128</var>
              <quality>5.0863373279571533e-001</quality>
              <le>1.8528565764427185e-001</le></_>
            <_><var>64</var>
              <quality>5.0700104236602783e-001</quality>
              <le>1.5843106433749199e-002</le></_>
            <_><var>155</var>
              <quality>5.0369155406951904e-001</quality>
              <le>7.4306190013885498e-002</le></_>
            <_><var>144</var>
              <quality>5.0163835287094116e-001</quality>
              <le>3.8263935595750809e-002</le></_>
            <_><var>82</var>
              <quality>4.9959906935691833e-001</quality>
              <le>2.1014557778835297e-001</le></_>
            <_><var>13</var>
              <quality>4.9735754728317261e-001</quality>
              <le>2.7647307515144348e-001</le></_>
            <_><var>46</var>
              <quality>4.9649474024772644e-001</quality>
              <le>5.7119607925415039e-002</le></_>
            <_><var>35</var>
              <quality>4.9030196666717529e-001</quality>
              <le>3.6760732531547546e-002</le></_>
            <_><var>75</var>
              <quality>4.8911875486373901e-001</quality>
              <le>2.5169435143470764e-001</le></_>
            <_><var>153</var>
              <quality>4.8824703693389893e-001</quality>
              <le>7.3145663738250732e-001</le></_>
            <_><var>120</var>
              <quality>4.8541772365570068e-001</quality>
              <le>1.1720180511474609e-001</le></_>
            <_><var>131</var>
              <quality>4.8529320955276489e-001</quality>
              <le>1.4704293012619019e-001</le></_>
            <_><var>20</var>
              <quality>4.8471140861511230e-001</quality>
              <le>1.5640661120414734e-001</le></_>
            <_><var>40</var>
              <quality>4.8451700806617737e-001</quality>
              <le>2.8235512971878052e-001</le></_>
            <_><var>168</var>
              <quality>4.8451119661331177e-001</quality>
              <le>4.7559157013893127e-001</le></_>
            <_><var>84</var>
              <quality>4.8379886150360107e-001</quality>
              <le>6.9317877292633057e-001</le></_>
            <_><var>6</var>
              <quality>4.8289999365806580e-001</quality>
              <le>1.2609547376632690e-001</le></_>
            <_><var>57</var>
              <quality>4.8209032416343689e-001</quality>
              <le>5.8526885509490967e-001</le></_></splits></_>
        <_>
          <depth>1</depth>
          <sample_count>2213</sample_count>
          <value>-1.6067311334156123e-001</value>
          <norm_class_idx>0</norm_class_idx>
          <Tn>0</Tn>
          <complexity>0</complexity>
          <alpha>0.</alpha>
          <node_risk>0.</node_risk>
          <tree_risk>0.</tree_risk>
          <tree_error>0.</tree_error></_>
        <_>
          <depth>1</depth>
          <sample_count>67</sample_count>
          <value>1.3544491630954261e+000</value>
          <norm_class_idx>1</norm_class_idx>
          <Tn>0</Tn>
          <complexity>0</complexity>
          <alpha>0.</alpha>
          <node_risk>0.</node_risk>
          <tree_risk>0.</tree_risk>
          <tree_error>0.</tree_error></_></nodes></_>
    <_>
      <best_tree_idx>-1</best_tree_idx>
      <nodes>
        <_>
          <depth>0</depth>
          <sample_count>2280</sample_count>
          <value>-2.5313084961454210e-014</value>
          <norm_class_idx>0</norm_class_idx>
          <Tn>0</Tn>
          <complexity>0</complexity>
          <alpha>0.</alpha>
          <node_risk>0.</node_risk>
          <tree_risk>0.</tree_risk>
          <tree_error>0.</tree_error>
          <splits>
            <_><var>135</var>
              <quality>5.8325183391571045e-001</quality>
              <le>1.4667865820229053e-002</le></_>
            <_><var>177</var>
              <quality>5.0408142805099487e-001</quality>
              <le>1.2519577518105507e-002</le></_>
            <_><var>11</var>
              <quality>5.0356370210647583e-001</quality>
              <le>1.6771492362022400e-001</le></_>
            <_><var>184</var>
              <quality>5.0321239233016968e-001</quality>
              <le>1.4667865820229053e-002</le></_>
            <_><var>40</var>
              <quality>4.9950456619262695e-001</quality>
              <le>1.4667865820229053e-002</le></_>
            <_><var>182</var>
              <quality>4.9938616156578064e-001</quality>
              <le>5.3619079291820526e-002</le></_>
            <_><var>26</var>
              <quality>4.9635761976242065e-001</quality>
              <le>8.0716319382190704e-002</le></_>
            <_><var>8</var>
              <quality>4.9156558513641357e-001</quality>
              <le>1.2519577518105507e-002</le></_>
            <_><var>93</var>
              <quality>4.8580262064933777e-001</quality>
              <le>2.3312620818614960e-002</le></_>
            <_><var>22</var>
              <quality>4.8394197225570679e-001</quality>
              <le>1.3728985190391541e-001</le></_>
            <_><var>88</var>
              <quality>4.8383334279060364e-001</quality>
              <le>4.7513701021671295e-002</le></_>
            <_><var>157</var>
              <quality>4.7791418433189392e-001</quality>
              <le>2.1517664194107056e-001</le></_>
            <_><var>122</var>
              <quality>4.7773018479347229e-001</quality>
              <le>2.2499006986618042e-001</le></_>
            <_><var>102</var>
              <quality>4.7714877128601074e-001</quality>
              <le>5.8820310980081558e-002</le></_>
            <_><var>128</var>
              <quality>4.7692930698394775e-001</quality>
              <le>4.3609224259853363e-002</le></_>
            <_><var>126</var>
              <quality>4.7507894039154053e-001</quality>
              <le>5.0439983606338501e-002</le></_>
            <_><var>160</var>
              <quality>4.7392454743385315e-001</quality>
              <le>1.8221013247966766e-002</le></_>
            <_><var>124</var>
              <quality>4.7304743528366089e-001</quality>
              <le>1.7766727134585381e-002</le></_>
            <_><var>133</var>
              <quality>4.7205668687820435e-001</quality>
              <le>9.2268787324428558e-002</le></_>
            <_><var>57</var>
              <quality>4.7199401259422302e-001</quality>
              <le>1.5780720114707947e-001</le></_>
            <_><var>188</var>
              <quality>4.6879947185516357e-001</quality>
              <le>2.1677749231457710e-002</le></_>
            <_><var>100</var>
              <quality>4.6308344602584839e-001</quality>
              <le>9.0640261769294739e-002</le></_>
            <_><var>46</var>
              <quality>4.6254232525825500e-001</quality>
              <le>5.5773243308067322e-002</le></_>
            <_><var>28</var>
              <quality>4.6237280964851379e-001</quality>
              <le>2.5582225993275642e-002</le></_>
            <_><var>164</var>
              <quality>4.6190312504768372e-001</quality>
              <le>2.1339321136474609e-001</le></_>
            <_><var>142</var>
              <quality>4.6190312504768372e-001</quality>
              <le>1.2164800614118576e-001</le></_>
            <_><var>62</var>
              <quality>4.6190312504768372e-001</quality>
              <le>1.4745736122131348e-001</le></_>
            <_><var>104</var>
              <quality>4.6154507994651794e-001</quality>
              <le>3.9220565557479858e-001</le></_>
            <_><var>6</var>
              <quality>4.6133315563201904e-001</quality>
              <le>2.3312620818614960e-002</le></_>
            <_><var>0</var>
              <quality>4.6094837784767151e-001</quality>
              <le>1.4542791247367859e-001</le></_>
            <_><var>86</var>
              <quality>4.6074882149696350e-001</quality>
              <le>2.8861510753631592e-001</le></_>
            <_><var>97</var>
              <quality>4.6047866344451904e-001</quality>
              <le>2.2869467735290527e-002</le></_>
            <_><var>111</var>
              <quality>4.5930185914039612e-001</quality>
              <le>2.3761716485023499e-001</le></_>
            <_><var>197</var>
              <quality>4.5883542299270630e-001</quality>
              <le>4.0486179292201996e-002</le></_>
            <_><var>140</var>
              <quality>4.5853877067565918e-001</quality>
              <le>2.7156272903084755e-002</le></_>
            <_><var>51</var>
              <quality>4.5750707387924194e-001</quality>
              <le>5.3644442558288574e-001</le></_>
            <_><var>2</var>
              <quality>4.5738771557807922e-001</quality>
              <le>7.0651918649673462e-001</le></_>
            <_><var>166</var>
              <quality>4.5717671513557434e-001</quality>
              <le>2.1197208762168884e-001</le></_>
            <_><var>77</var>
              <quality>4.5717671513557434e-001</quality>
              <le>5.0734066963195801e-001</le></_>
            <_><var>186</var>
              <quality>4.5711064338684082e-001</quality>
              <le>2.4177998304367065e-001</le></_>
            <_><var>55</var>
              <quality>4.5705735683441162e-001</quality>
              <le>4.9088068306446075e-002</le></_>
            <_><var>108</var>
              <quality>4.5700159668922424e-001</quality>
              <le>4.6625241637229919e-002</le></_>
            <_><var>148</var>
              <quality>4.5693802833557129e-001</quality>
              <le>2.3984894156455994e-001</le></_>
            <_><var>31</var>
              <quality>4.5658767223358154e-001</quality>
              <le>7.3653304576873779e-001</le></_></splits></_>
        <_>
          <depth>1</depth>
          <sample_count>2149</sample_count>
          <value>-2.1845950998871336e-001</value>
          <norm_class_idx>0</norm_class_idx>
          <Tn>0</Tn>
          <complexity>0</complexity>
          <alpha>0.</alpha>
          <node_risk>0.</node_risk>
          <tree_risk>0.</tree_risk>
          <tree_error>0.</tree_error></_>
        <_>
          <depth>1</depth>
          <sample_count>131</sample_count>
          <value>1.0308729060107487e+000</value>
          <norm_class_idx>1</norm_class_idx>
          <Tn>0</Tn>
          <complexity>0</complexity>
          <alpha>0.</alpha>
          <node_risk>0.</node_risk>
          <tree_risk>0.</tree_risk>
          <tree_error>0.</tree_error></_></nodes></_>
    <_>
      <best_tree_idx>-1</best_tree_idx>
      <nodes>
        <_>
          <depth>0</depth>
          <sample_count>2280</sample_count>
          <value>2.3758772726977785e-014</value>
          <norm_class_idx>1</norm_class_idx>
          <Tn>0</Tn>
          <complexity>0</complexity>
          <alpha>0.</alpha>
          <node_risk>0.</node_risk>
          <tree_risk>0.</tree_risk>
          <tree_error>0.</tree_error>
          <splits>
            <_><var>180</var>
              <quality>5.4914361238479614e-001</quality>
              <le>1.0902794450521469e-001</le></_>
            <_><var>95</var>
              <quality>4.8822051286697388e-001</quality>
              <le>2.8544569015502930e-001</le></_>
            <_><var>117</var>
              <quality>4.8812621831893921e-001</quality>
              <le>1.1911849677562714e-001</le></_>
            <_><var>113</var>
              <quality>4.8483708500862122e-001</quality>
              <le>2.8396528959274292e-001</le></_>
            <_><var>53</var>
              <quality>4.8197576403617859e-001</quality>
              <le>3.7629938125610352e-001</le></_>
            <_><var>155</var>
              <quality>4.8087292909622192e-001</quality>
              <le>4.8085913062095642e-001</le></_>
            <_><var>184</var>
              <quality>4.8063358664512634e-001</quality>
              <le>4.4115182757377625e-001</le></_>
            <_><var>91</var>
              <quality>4.8038223385810852e-001</quality>
              <le>4.6819752454757690e-001</le></_>
            <_><var>73</var>
              <quality>4.8027208447456360e-001</quality>
              <le>4.4182467460632324e-001</le></_>
            <_><var>171</var>
              <quality>4.8007181286811829e-001</quality>
              <le>4.4868314266204834e-001</le></_>
            <_><var>193</var>
              <quality>4.7991660237312317e-001</quality>
              <le>5.0480568408966064e-001</le></_>
            <_><var>186</var>
              <quality>4.7991660237312317e-001</quality>
              <le>6.1111164093017578e-001</le></_>
            <_><var>140</var>
              <quality>4.7981646656990051e-001</quality>
              <le>5.2216553688049316e-001</le></_>
            <_><var>120</var>
              <quality>4.7971630096435547e-001</quality>
              <le>3.8522994518280029e-001</le></_>
            <_><var>100</var>
              <quality>4.7971630096435547e-001</quality>
              <le>3.1647279858589172e-001</le></_>
            <_><var>35</var>
              <quality>4.7971630096435547e-001</quality>
              <le>4.0684989094734192e-001</le></_>
            <_><var>22</var>
              <quality>4.7971630096435547e-001</quality>
              <le>6.2583798170089722e-001</le></_>
            <_><var>17</var>
              <quality>4.7971630096435547e-001</quality>
              <le>5.8940708637237549e-001</le></_>
            <_><var>2</var>
              <quality>4.7971630096435547e-001</quality>
              <le>7.1757447719573975e-001</le></_></splits></_>
        <_>
          <depth>1</depth>
          <sample_count>1783</sample_count>
          <value>1.1993751640347268e-001</value>
          <norm_class_idx>1</norm_class_idx>
          <Tn>0</Tn>
          <complexity>0</complexity>
          <alpha>0.</alpha>
          <node_risk>0.</node_risk>
          <tree_risk>0.</tree_risk>
          <tree_error>0.</tree_error></_>
        <_>
          <depth>1</depth>
          <sample_count>497</sample_count>
          <value>-1.1673232610823554e+000</value>
          <norm_class_idx>0</norm_class_idx>
          <Tn>0</Tn>
          <complexity>0</complexity>
          <alpha>0.</alpha>
          <node_risk>0.</node_risk>
          <tree_risk>0.</tree_risk>
          <tree_error>0.</tree_error></_></nodes></_>
    <_>
      <best_tree_idx>-1</best_tree_idx>
      <nodes>
        <_>
          <depth>0</depth>
          <sample_count>1807</sample_count>
          <value>3.1993279951537466e-002</value>
          <norm_class_idx>1</norm_class_idx>
          <Tn>0</Tn>
          <complexity>0</complexity>
          <alpha>0.</alpha>
          <node_risk>0.</node_risk>
          <tree_risk>0.</tree_risk>
          <tree_error>0.</tree_error>
          <splits>
            <_><var>37</var>
              <quality>5.3879117965698242e-001</quality>
              <le>4.5698318630456924e-002</le></_>
            <_><var>13</var>
              <quality>5.0060850381851196e-001</quality>
              <le>4.0507148951292038e-002</le></_>
            <_><var>80</var>
              <quality>5.0000393390655518e-001</quality>
              <le>9.5454975962638855e-002</le></_>
            <_><var>24</var>
              <quality>4.9969640374183655e-001</quality>
              <le>6.6165804862976074e-002</le></_>
            <_><var>180</var>
              <quality>4.9069562554359436e-001</quality>
              <le>4.5528039336204529e-002</le></_>
            <_><var>44</var>
              <quality>4.8407039046287537e-001</quality>
              <le>1.7542716860771179e-001</le></_>
            <_><var>48</var>
              <quality>4.8096212744712830e-001</quality>
              <le>3.4668761491775513e-001</le></_>
            <_><var>193</var>
              <quality>4.8015150427818298e-001</quality>
              <le>1.9005480408668518e-001</le></_>
            <_><var>82</var>
              <quality>4.7685223817825317e-001</quality>
              <le>5.2331015467643738e-002</le></_>
            <_><var>168</var>
              <quality>4.7227665781974792e-001</quality>
              <le>5.5524714291095734e-002</le></_>
            <_><var>175</var>
              <quality>4.7088178992271423e-001</quality>
              <le>1.8387474119663239e-001</le></_>
            <_><var>117</var>
              <quality>4.6909493207931519e-001</quality>
              <le>5.4461133480072021e-001</le></_>
            <_><var>0</var>
              <quality>4.6867650747299194e-001</quality>
              <le>6.2994450330734253e-002</le></_>
            <_><var>77</var>
              <quality>4.6660599112510681e-001</quality>
              <le>6.7354783415794373e-002</le></_>
            <_><var>55</var>
              <quality>4.6568396687507629e-001</quality>
              <le>2.1055969595909119e-001</le></_>
            <_><var>2</var>
              <quality>4.6417263150215149e-001</quality>
              <le>1.8773066997528076e-001</le></_>
            <_><var>186</var>
              <quality>4.6395257115364075e-001</quality>
              <le>4.5272338390350342e-001</le></_>
            <_><var>115</var>
              <quality>4.6374005079269409e-001</quality>
              <le>3.4691017866134644e-001</le></_>
            <_><var>153</var>
              <quality>4.6266928315162659e-001</quality>
              <le>2.1741217374801636e-001</le></_>
            <_><var>188</var>
              <quality>4.6237385272979736e-001</quality>
              <le>6.3345730304718018e-002</le></_>
            <_><var>71</var>
              <quality>4.6228739619255066e-001</quality>
              <le>3.8045233488082886e-001</le></_>
            <_><var>100</var>
              <quality>4.6219909191131592e-001</quality>
              <le>1.3675750792026520e-001</le></_>
            <_><var>137</var>
              <quality>4.6098122000694275e-001</quality>
              <le>4.2595112323760986e-001</le></_>
            <_><var>68</var>
              <quality>4.6057078242301941e-001</quality>
              <le>1.8281809985637665e-001</le></_>
            <_><var>42</var>
              <quality>4.6024468541145325e-001</quality>
              <le>6.7504388093948364e-001</le></_>
            <_><var>20</var>
              <quality>4.6016898751258850e-001</quality>
              <le>1.5640661120414734e-001</le></_>
            <_><var>140</var>
              <quality>4.5996892452239990e-001</quality>
              <le>2.8631442785263062e-001</le></_>
            <_><var>86</var>
              <quality>4.5980241894721985e-001</quality>
              <le>6.7854925990104675e-002</le></_>
            <_><var>106</var>
              <quality>4.5975020527839661e-001</quality>
              <le>2.9177951812744141e-001</le></_></splits></_>
        <_>
          <depth>1</depth>
          <sample_count>1767</sample_count>
          <value>-1.0663755190884827e-001</value>
          <norm_class_idx>0</norm_class_idx>
          <Tn>0</Tn>
          <complexity>0</complexity>
          <alpha>0.</alpha>
          <node_risk>0.</node_risk>
          <tree_risk>0.</tree_risk>
          <tree_error>0.</tree_error></_>
        <_>
          <depth>1</depth>
          <sample_count>40</sample_count>
          <value>1.2051920404761010e+000</value>
          <norm_class_idx>1</norm_class_idx>
          <Tn>0</Tn>
          <complexity>0</complexity>
          <alpha>0.</alpha>
          <node_risk>0.</node_risk>
          <tree_risk>0.</tree_risk>
          <tree_error>0.</tree_error></_></nodes></_>
    <_>
      <best_tree_idx>-1</best_tree_idx>
      <nodes>
        <_>
          <depth>0</depth>
          <sample_count>1812</sample_count>
          <value>-1.6747279102913713e-003</value>
          <norm_class_idx>0</norm_class_idx>
          <Tn>0</Tn>
          <complexity>0</complexity>
          <alpha>0.</alpha>
          <node_risk>0.</node_risk>
          <tree_risk>0.</tree_risk>
          <tree_error>0.</tree_error>
          <splits>
            <_><var>17</var>
              <quality>5.2703726291656494e-001</quality>
              <le>7.3130384087562561e-002</le></_>
            <_><var>71</var>
              <quality>5.1290047168731689e-001</quality>
              <le>3.1372789293527603e-002</le></_>
            <_><var>162</var>
              <quality>5.1003271341323853e-001</quality>
              <le>1.1454564332962036e-001</le></_>
            <_><var>60</var>
              <quality>5.0653904676437378e-001</quality>
              <le>7.3130384087562561e-002</le></_>
            <_><var>173</var>
              <quality>5.0319290161132813e-001</quality>
              <le>2.1028417348861694e-001</le></_>
            <_><var>73</var>
              <quality>5.0016367435455322e-001</quality>
              <le>3.4020692110061646e-002</le></_>
            <_><var>160</var>
              <quality>4.8525524139404297e-001</quality>
              <le>5.8764916658401489e-001</le></_>
            <_><var>106</var>
              <quality>4.8318275809288025e-001</quality>
              <le>1.5266834199428558e-001</le></_>
            <_><var>26</var>
              <quality>4.8086088895797729e-001</quality>
              <le>3.0094352364540100e-001</le></_>
            <_><var>186</var>
              <quality>4.8055809736251831e-001</quality>
              <le>2.1972888708114624e-001</le></_>
            <_><var>195</var>
              <quality>4.7855779528617859e-001</quality>
              <le>5.2380090951919556e-001</le></_>
            <_><var>6</var>
              <quality>4.7433403134346008e-001</quality>
              <le>4.4467127323150635e-001</le></_>
            <_><var>22</var>
              <quality>4.7427502274513245e-001</quality>
              <le>4.1843020915985107e-001</le></_>
            <_><var>191</var>
              <quality>4.7356665134429932e-001</quality>
              <le>2.8274816274642944e-001</le></_>
            <_><var>28</var>
              <quality>4.7353500127792358e-001</quality>
              <le>3.5020375251770020e-001</le></_></splits></_>
        <_>
          <depth>1</depth>
          <sample_count>1771</sample_count>
          <value>-1.0091452414823728e-001</value>
          <norm_class_idx>0</norm_class_idx>
          <Tn>0</Tn>
          <complexity>0</complexity>
          <alpha>0.</alpha>
          <node_risk>0.</node_risk>
          <tree_risk>0.</tree_risk>
          <tree_error>0.</tree_error></_>
        <_>
          <depth>1</depth>
          <sample_count>41</sample_count>
          <value>1.3309504767546774e+000</value>
          <norm_class_idx>1</norm_class_idx>
          <Tn>0</Tn>
          <complexity>0</complexity>
          <alpha>0.</alpha>
          <node_risk>0.</node_risk>
          <tree_risk>0.</tree_risk>
          <tree_error>0.</tree_error></_></nodes></_>
    <_>
      <best_tree_idx>-1</best_tree_idx>
      <nodes>
        <_>
          <depth>0</depth>
          <sample_count>1816</sample_count>
          <value>-1.3534400015324625e-003</value>
          <norm_class_idx>0</norm_class_idx>
          <Tn>0</Tn>
          <complexity>0</complexity>
          <alpha>0.</alpha>
          <node_risk>0.</node_risk>
          <tree_risk>0.</tree_risk>
          <tree_error>0.</tree_error>
          <splits>
            <_><var>33</var>
              <quality>5.2981710433959961e-001</quality>
              <le>9.7267019748687744e-001</le></_></splits></_>
        <_>
          <depth>1</depth>
          <sample_count>1681</sample_count>
          <value>-1.3508707449412877e-001</value>
          <norm_class_idx>0</norm_class_idx>
          <Tn>0</Tn>
          <complexity>0</complexity>
          <alpha>0.</alpha>
          <node_risk>0.</node_risk>
          <tree_risk>0.</tree_risk>
          <tree_error>0.</tree_error></_>
        <_>
          <depth>1</depth>
          <sample_count>135</sample_count>
          <value>8.2601539026624193e-001</value>
          <norm_class_idx>1</norm_class_idx>
          <Tn>0</Tn>
          <complexity>0</complexity>
          <alpha>0.</alpha>
          <node_risk>0.</node_risk>
          <tree_risk>0.</tree_risk>
          <tree_error>0.</tree_error></_></nodes></_>
    <_>
      <best_tree_idx>-1</best_tree_idx>
      <nodes>
        <_>
          <depth>0</depth>
          <sample_count>1816</sample_count>
          <value>-2.2148949341272362e-014</value>
          <norm_class_idx>0</norm_class_idx>
          <Tn>0</Tn>
          <complexity>0</complexity>
          <alpha>0.</alpha>
          <node_risk>0.</node_risk>
          <tree_risk>0.</tree_risk>
          <tree_error>0.</tree_error>
          <splits>
            <_><var>171</var>
              <quality>5.2429801225662231e-001</quality>
              <le>1.5843106433749199e-002</le></_>
            <_><var>46</var>
              <quality>4.7913786768913269e-001</quality>
              <le>4.3764140456914902e-002</le></_>
            <_><var>51</var>
              <quality>4.7534462809562683e-001</quality>
              <le>5.9063885360956192e-002</le></_>
            <_><var>2</var>
              <quality>4.7200530767440796e-001</quality>
              <le>5.0752729177474976e-002</le></_>
            <_><var>144</var>
              <quality>4.6696162223815918e-001</quality>
              <le>3.8263935595750809e-002</le></_>
            <_><var>104</var>
              <quality>4.6516120433807373e-001</quality>
              <le>8.1827633082866669e-002</le></_>
            <_><var>115</var>
              <quality>4.6366116404533386e-001</quality>
              <le>3.5735547542572021e-001</le></_>
            <_><var>44</var>
              <quality>4.6188804507255554e-001</quality>
              <le>3.4913820028305054e-001</le></_>
            <_><var>137</var>
              <quality>4.6184092760086060e-001</quality>
              <le>7.7743262052536011e-002</le></_>
            <_><var>175</var>
              <quality>4.6175393462181091e-001</quality>
              <le>4.8403984308242798e-001</le></_>
            <_><var>151</var>
              <quality>4.6139168739318848e-001</quality>
              <le>2.6028960943222046e-002</le></_>
            <_><var>24</var>
              <quality>4.6062269806861877e-001</quality>
              <le>3.1029969453811646e-001</le></_>
            <_><var>15</var>
              <quality>4.6046110987663269e-001</quality>
              <le>1.1684584617614746e-001</le></_>
            <_><var>82</var>
              <quality>4.5946496725082397e-001</quality>
              <le>1.3398778438568115e-001</le></_>
            <_><var>42</var>
              <quality>4.5868894457817078e-001</quality>
              <le>1.0260280221700668e-001</le></_>
            <_><var>193</var>
              <quality>4.5855110883712769e-001</quality>
              <le>2.7978318929672241e-001</le></_>
            <_><var>40</var>
              <quality>4.5826733112335205e-001</quality>
              <le>2.6702725887298584e-001</le></_>
            <_><var>128</var>
              <quality>4.5769938826560974e-001</quality>
              <le>1.8528565764427185e-001</le></_>
            <_><var>153</var>
              <quality>4.5495998859405518e-001</quality>
              <le>3.6484494805335999e-001</le></_>
            <_><var>164</var>
              <quality>4.5369929075241089e-001</quality>
              <le>2.1339321136474609e-001</le></_>
            <_><var>113</var>
              <quality>4.5350697636604309e-001</quality>
              <le>7.8065872192382813e-002</le></_>
            <_><var>35</var>
              <quality>4.5325699448585510e-001</quality>
              <le>1.5182138979434967e-001</le></_>
            <_><var>168</var>
              <quality>4.5283296704292297e-001</quality>
              <le>4.4458199292421341e-002</le></_>
            <_><var>131</var>
              <quality>4.5243796706199646e-001</quality>
              <le>1.4704293012619019e-001</le></_>
            <_><var>155</var>
              <quality>4.5221063494682312e-001</quality>
              <le>4.6675592660903931e-001</le></_>
            <_><var>13</var>
              <quality>4.5220687985420227e-001</quality>
              <le>2.7960038185119629e-001</le></_>
            <_><var>157</var>
              <quality>4.5182707905769348e-001</quality>
              <le>5.1968705654144287e-001</le></_>
            <_><var>37</var>
              <quality>4.5126819610595703e-001</quality>
              <le>6.6413539648056030e-001</le></_>
            <_><var>64</var>
              <quality>4.5109075307846069e-001</quality>
              <le>1.5843106433749199e-002</le></_>
            <_><var>22</var>
              <quality>4.5097839832305908e-001</quality>
              <le>5.8920001983642578e-001</le></_>
            <_><var>140</var>
              <quality>4.5087760686874390e-001</quality>
              <le>4.4879829883575439e-001</le></_>
            <_><var>180</var>
              <quality>4.5068505406379700e-001</quality>
              <le>4.9642235040664673e-002</le></_>
            <_><var>0</var>
              <quality>4.5062062144279480e-001</quality>
              <le>6.0355341434478760e-001</le></_></splits></_>
        <_>
          <depth>1</depth>
          <sample_count>1750</sample_count>
          <value>-1.1248423153148333e-001</value>
          <norm_class_idx>0</norm_class_idx>
          <Tn>0</Tn>
          <complexity>0</complexity>
          <alpha>0.</alpha>
          <node_risk>0.</node_risk>
          <tree_risk>0.</tree_risk>
          <tree_error>0.</tree_error></_>
        <_>
          <depth>1</depth>
          <sample_count>66</sample_count>
          <value>8.3657902826451491e-001</value>
          <norm_class_idx>1</norm_class_idx>
          <Tn>0</Tn>
          <complexity>0</complexity>
          <alpha>0.</alpha>
          <node_risk>0.</node_risk>
          <tree_risk>0.</tree_risk>
          <tree_error>0.</tree_error></_></nodes></_>
    <_>
      <best_tree_idx>-1</best_tree_idx>
      <nodes>
        <_>
          <depth>0</depth>
          <sample_count>1818</sample_count>
          <value>-2.3893992983232694e-004</value>
          <norm_class_idx>0</norm_class_idx>
          <Tn>0</Tn>
          <complexity>0</complexity>
          <alpha>0.</alpha>
          <node_risk>0.</node_risk>
          <tree_risk>0.</tree_risk>
          <tree_error>0.</tree_error>
          <splits>
            <_><var>122</var>
              <quality>5.2209174633026123e-001</quality>
              <le>1.8505830317735672e-002</le></_>
            <_><var>22</var>
              <quality>4.9768468737602234e-001</quality>
              <le>4.2675778269767761e-002</le></_>
            <_><var>102</var>
              <quality>4.8379993438720703e-001</quality>
              <le>2.2450663149356842e-002</le></_>
            <_><var>124</var>
              <quality>4.8195308446884155e-001</quality>
              <le>4.6209048479795456e-002</le></_>
            <_><var>57</var>
              <quality>4.7999486327171326e-001</quality>
              <le>1.7699807882308960e-002</le></_>
            <_><var>188</var>
              <quality>4.7931411862373352e-001</quality>
              <le>2.1677749231457710e-002</le></_>
            <_><var>108</var>
              <quality>4.7669625282287598e-001</quality>
              <le>4.6625241637229919e-002</le></_>
            <_><var>155</var>
              <quality>4.7442823648452759e-001</quality>
              <le>4.6191102266311646e-001</le></_>
            <_><var>31</var>
              <quality>4.7344231605529785e-001</quality>
              <le>4.2614445090293884e-001</le></_>
            <_><var>133</var>
              <quality>4.7343125939369202e-001</quality>
              <le>7.9277187585830688e-002</le></_>
            <_><var>6</var>
              <quality>4.7332561016082764e-001</quality>
              <le>2.3312620818614960e-002</le></_>
            <_><var>126</var>
              <quality>4.7144120931625366e-001</quality>
              <le>9.9728748202323914e-002</le></_>
            <_><var>197</var>
              <quality>4.6997109055519104e-001</quality>
              <le>4.0486179292201996e-002</le></_>
            <_><var>97</var>
              <quality>4.6993246674537659e-001</quality>
              <le>2.2869467735290527e-002</le></_>
            <_><var>100</var>
              <quality>4.6973556280136108e-001</quality>
              <le>4.4901326298713684e-002</le></_>
            <_><var>128</var>
              <quality>4.6959179639816284e-001</quality>
              <le>8.2723796367645264e-002</le></_>
            <_><var>142</var>
              <quality>4.6834263205528259e-001</quality>
              <le>5.9551037847995758e-002</le></_>
            <_><var>140</var>
              <quality>4.6804547309875488e-001</quality>
              <le>6.8047933280467987e-002</le></_>
            <_><var>62</var>
              <quality>4.6724349260330200e-001</quality>
              <le>4.4901326298713684e-002</le></_>
            <_><var>184</var>
              <quality>4.6723228693008423e-001</quality>
              <le>2.0954918861389160e-001</le></_>
            <_><var>173</var>
              <quality>4.6693968772888184e-001</quality>
              <le>4.5672580599784851e-001</le></_>
            <_><var>11</var>
              <quality>4.6601921319961548e-001</quality>
              <le>6.2694990634918213e-001</le></_>
            <_><var>28</var>
              <quality>4.6574735641479492e-001</quality>
              <le>2.5582225993275642e-002</le></_>
            <_><var>111</var>
              <quality>4.6545782685279846e-001</quality>
              <le>2.5546482205390930e-001</le></_>
            <_><var>35</var>
              <quality>4.6528559923171997e-001</quality>
              <le>1.6444404423236847e-001</le></_>
            <_><var>15</var>
              <quality>4.6513685584068298e-001</quality>
              <le>1.1551972478628159e-001</le></_>
            <_><var>115</var>
              <quality>4.6455404162406921e-001</quality>
              <le>5.9997057914733887e-001</le></_>
            <_><var>191</var>
              <quality>4.6410325169563293e-001</quality>
              <le>1.8289917707443237e-001</le></_>
            <_><var>60</var>
              <quality>4.6385121345520020e-001</quality>
              <le>2.2836290299892426e-001</le></_>
            <_><var>166</var>
              <quality>4.6312594413757324e-001</quality>
              <le>2.1197208762168884e-001</le></_>
            <_><var>164</var>
              <quality>4.6283024549484253e-001</quality>
              <le>3.0824905633926392e-001</le></_>
            <_><var>104</var>
              <quality>4.6283024549484253e-001</quality>
              <le>5.9052872657775879e-001</le></_>
            <_><var>137</var>
              <quality>4.6279755234718323e-001</quality>
              <le>2.4011860787868500e-001</le></_>
            <_><var>148</var>
              <quality>4.6273717284202576e-001</quality>
              <le>5.6407505273818970e-001</le></_>
            <_><var>40</var>
              <quality>4.6264347434043884e-001</quality>
              <le>6.8896353244781494e-001</le></_></splits></_>
        <_>
          <depth>1</depth>
          <sample_count>1761</sample_count>
          <value>-9.7556122268683862e-002</value>
          <norm_class_idx>0</norm_class_idx>
          <Tn>0</Tn>
          <complexity>0</complexity>
          <alpha>0.</alpha>
          <node_risk>0.</node_risk>
          <tree_risk>0.</tree_risk>
          <tree_error>0.</tree_error></_>
        <_>
          <depth>1</depth>
          <sample_count>57</sample_count>
          <value>9.8381320895663982e-001</value>
          <norm_class_idx>1</norm_class_idx>
          <Tn>0</Tn>
          <complexity>0</complexity>
          <alpha>0.</alpha>
          <node_risk>0.</node_risk>
          <tree_risk>0.</tree_risk>
          <tree_error>0.</tree_error></_></nodes></_>
    <_>
      <best_tree_idx>-1</best_tree_idx>
      <nodes>
        <_>
          <depth>0</depth>
          <sample_count>1819</sample_count>
          <value>-1.6679050730337057e-003</value>
          <norm_class_idx>0</norm_class_idx>
          <Tn>0</Tn>
          <complexity>0</complexity>
          <alpha>0.</alpha>
          <node_risk>0.</node_risk>
          <tree_risk>0.</tree_risk>
          <tree_error>0.</tree_error>
          <splits>
            <_><var>84</var>
              <quality>5.2197754383087158e-001</quality>
              <le>3.6023542284965515e-002</le></_>
            <_><var>4</var>
              <quality>4.0548452734947205e-001</quality>
              <le>2.1457053720951080e-002</le></_>
            <_><var>146</var>
              <quality>3.9375218749046326e-001</quality>
              <le>5.5503480136394501e-002</le></_>
            <_><var>157</var>
              <quality>3.7190830707550049e-001</quality>
              <le>5.8687642216682434e-002</le></_>
            <_><var>66</var>
              <quality>3.6485269665718079e-001</quality>
              <le>2.7650063857436180e-002</le></_>
            <_><var>75</var>
              <quality>3.6474531888961792e-001</quality>
              <le>6.7890681326389313e-002</le></_>
            <_><var>20</var>
              <quality>3.6211687326431274e-001</quality>
              <le>2.7650063857436180e-002</le></_>
            <_><var>0</var>
              <quality>3.6163416504859924e-001</quality>
              <le>6.4245745539665222e-002</le></_>
            <_><var>77</var>
              <quality>3.5984572768211365e-001</quality>
              <le>3.6501221358776093e-002</le></_>
            <_><var>88</var>
              <quality>3.5847383737564087e-001</quality>
              <le>4.8582074046134949e-001</le></_>
            <_><var>33</var>
              <quality>3.5655927658081055e-001</quality>
              <le>3.1699959188699722e-002</le></_>
            <_><var>177</var>
              <quality>3.5554721951484680e-001</quality>
              <le>7.0633339881896973e-001</le></_>
            <_><var>135</var>
              <quality>3.5378798842430115e-001</quality>
              <le>4.3758302927017212e-001</le></_>
            <_><var>124</var>
              <quality>3.5245928168296814e-001</quality>
              <le>2.0734992623329163e-001</le></_>
            <_><var>97</var>
              <quality>3.5233008861541748e-001</quality>
              <le>8.9369542896747589e-002</le></_>
            <_><var>71</var>
              <quality>3.5195961594581604e-001</quality>
              <le>2.6847058534622192e-001</le></_>
            <_><var>166</var>
              <quality>3.5182163119316101e-001</quality>
              <le>5.5491592735052109e-002</le></_>
            <_><var>128</var>
              <quality>3.5179731249809265e-001</quality>
              <le>2.0616018772125244e-001</le></_>
            <_><var>186</var>
              <quality>3.5134753584861755e-001</quality>
              <le>2.6393941044807434e-001</le></_>
            <_><var>8</var>
              <quality>3.5131138563156128e-001</quality>
              <le>3.8826519250869751e-001</le></_>
            <_><var>182</var>
              <quality>3.5130143165588379e-001</quality>
              <le>3.7299081683158875e-001</le></_>
            <_><var>148</var>
              <quality>3.5127660632133484e-001</quality>
              <le>9.7643174231052399e-002</le></_>
            <_><var>191</var>
              <quality>3.5119622945785522e-001</quality>
              <le>3.9043441414833069e-002</le></_>
            <_><var>111</var>
              <quality>3.5088309645652771e-001</quality>
              <le>1.1947571486234665e-001</le></_>
            <_><var>31</var>
              <quality>3.5085040330886841e-001</quality>
              <le>5.0400024652481079e-001</le></_>
            <_><var>28</var>
              <quality>3.5082623362541199e-001</quality>
              <le>2.1070154011249542e-001</le></_>
            <_><var>142</var>
              <quality>3.5051876306533813e-001</quality>
              <le>5.9551037847995758e-002</le></_>
            <_><var>86</var>
              <quality>3.5051685571670532e-001</quality>
              <le>4.7559869289398193e-001</le></_>
            <_><var>93</var>
              <quality>3.5049232840538025e-001</quality>
              <le>5.9573626518249512e-001</le></_>
            <_><var>35</var>
              <quality>3.5046100616455078e-001</quality>
              <le>2.1486872434616089e-001</le></_>
            <_><var>155</var>
              <quality>3.5017225146293640e-001</quality>
              <le>6.4736080169677734e-001</le></_>
            <_><var>44</var>
              <quality>3.5017225146293640e-001</quality>
              <le>6.5830016136169434e-001</le></_>
            <_><var>160</var>
              <quality>3.5012683272361755e-001</quality>
              <le>7.5137937068939209e-001</le></_>
            <_><var>6</var>
              <quality>3.5010972619056702e-001</quality>
              <le>3.3504283428192139e-001</le></_>
            <_><var>60</var>
              <quality>3.5008352994918823e-001</quality>
              <le>7.5355339050292969e-001</le></_></splits></_>
        <_>
          <depth>1</depth>
          <sample_count>1533</sample_count>
          <value>-1.9102985755688021e-001</value>
          <norm_class_idx>0</norm_class_idx>
          <Tn>0</Tn>
          <complexity>0</complexity>
          <alpha>0.</alpha>
          <node_risk>0.</node_risk>
          <tree_risk>0.</tree_risk>
          <tree_error>0.</tree_error></_>
        <_>
          <depth>1</depth>
          <sample_count>286</sample_count>
          <value>3.9927313253072694e-001</value>
          <norm_class_idx>1</norm_class_idx>
          <Tn>0</Tn>
          <complexity>0</complexity>
          <alpha>0.</alpha>
          <node_risk>0.</node_risk>
          <tree_risk>0.</tree_risk>
          <tree_error>0.</tree_error></_></nodes></_>
    <_>
      <best_tree_idx>-1</best_tree_idx>
      <nodes>
        <_>
          <depth>0</depth>
          <sample_count>1824</sample_count>
          <value>-7.7073056348143801e-004</value>
          <norm_class_idx>0</norm_class_idx>
          <Tn>0</Tn>
          <complexity>0</complexity>
          <alpha>0.</alpha>
          <node_risk>0.</node_risk>
          <tree_risk>0.</tree_risk>
          <tree_error>0.</tree_error>
          <splits>
            <_><var>13</var>
              <quality>5.2412319183349609e-001</quality>
              <le>2.0145574584603310e-002</le></_>
            <_><var>82</var>
              <quality>4.8728659749031067e-001</quality>
              <le>4.5982077717781067e-002</le></_>
            <_><var>151</var>
              <quality>4.8421838879585266e-001</quality>
              <le>9.0682193636894226e-002</le></_>
            <_><var>37</var>
              <quality>4.8237055540084839e-001</quality>
              <le>1.0321225225925446e-001</le></_>
            <_><var>80</var>
              <quality>4.8191878199577332e-001</quality>
              <le>8.1683710217475891e-002</le></_>
            <_><var>24</var>
              <quality>4.8139697313308716e-001</quality>
              <le>1.1744613945484161e-001</le></_>
            <_><var>64</var>
              <quality>4.8074743151664734e-001</quality>
              <le>3.7419699132442474e-002</le></_>
            <_><var>180</var>
              <quality>4.7963330149650574e-001</quality>
              <le>2.7351501584053040e-001</le></_>
            <_><var>168</var>
              <quality>4.7725436091423035e-001</quality>
              <le>2.0747134089469910e-001</le></_>
            <_><var>117</var>
              <quality>4.7579345107078552e-001</quality>
              <le>5.4461133480072021e-001</le></_>
            <_><var>42</var>
              <quality>4.7424387931823730e-001</quality>
              <le>2.2431218624114990e-001</le></_>
            <_><var>55</var>
              <quality>4.7096866369247437e-001</quality>
              <le>2.1055969595909119e-001</le></_>
            <_><var>137</var>
              <quality>4.6889123320579529e-001</quality>
              <le>1.9873216748237610e-002</le></_>
            <_><var>115</var>
              <quality>4.6836993098258972e-001</quality>
              <le>1.7205566167831421e-001</le></_>
            <_><var>144</var>
              <quality>4.6825149655342102e-001</quality>
              <le>7.8314602375030518e-001</le></_>
            <_><var>15</var>
              <quality>4.6776703000068665e-001</quality>
              <le>1.6248956322669983e-001</le></_>
            <_><var>46</var>
              <quality>4.6718385815620422e-001</quality>
              <le>8.0121219158172607e-001</le></_>
            <_><var>153</var>
              <quality>4.6716520190238953e-001</quality>
              <le>7.6811635494232178e-001</le></_></splits></_>
        <_>
          <depth>1</depth>
          <sample_count>1776</sample_count>
          <value>-9.4970207432359025e-002</value>
          <norm_class_idx>0</norm_class_idx>
          <Tn>0</Tn>
          <complexity>0</complexity>
          <alpha>0.</alpha>
          <node_risk>0.</node_risk>
          <tree_risk>0.</tree_risk>
          <tree_error>0.</tree_error></_>
        <_>
          <depth>1</depth>
          <sample_count>48</sample_count>
          <value>1.0081525574922270e+000</value>
          <norm_class_idx>1</norm_class_idx>
          <Tn>0</Tn>
          <complexity>0</complexity>
          <alpha>0.</alpha>
          <node_risk>0.</node_risk>
          <tree_risk>0.</tree_risk>
          <tree_error>0.</tree_error></_></nodes></_>
    <_>
      <best_tree_idx>-1</best_tree_idx>
      <nodes>
        <_>
          <depth>0</depth>
          <sample_count>1825</sample_count>
          <value>-2.9711279811719103e-004</value>
          <norm_class_idx>0</norm_class_idx>
          <Tn>0</Tn>
          <complexity>0</complexity>
          <alpha>0.</alpha>
          <node_risk>0.</node_risk>
          <tree_risk>0.</tree_risk>
          <tree_error>0.</tree_error>
          <splits>
            <_><var>173</var>
              <quality>5.1583182811737061e-001</quality>
              <le>2.8892123699188232e-001</le></_>
            <_><var>71</var>
              <quality>4.9016550183296204e-001</quality>
              <le>2.1737842261791229e-001</le></_>
            <_><var>60</var>
              <quality>4.8957735300064087e-001</quality>
              <le>1.4506292343139648e-001</le></_>
            <_><var>26</var>
              <quality>4.8937237262725830e-001</quality>
              <le>3.4251940250396729e-001</le></_>
            <_><var>160</var>
              <quality>4.8904037475585938e-001</quality>
              <le>5.8764916658401489e-001</le></_>
            <_><var>17</var>
              <quality>4.8893699049949646e-001</quality>
              <le>1.4566385746002197e-001</le></_>
            <_><var>162</var>
              <quality>4.8871085047721863e-001</quality>
              <le>3.6415961384773254e-001</le></_>
            <_><var>108</var>
              <quality>4.8703297972679138e-001</quality>
              <le>3.3659285306930542e-001</le></_>
            <_><var>155</var>
              <quality>4.8689362406730652e-001</quality>
              <le>4.6191102266311646e-001</le></_>
            <_><var>73</var>
              <quality>4.8630136251449585e-001</quality>
              <le>2.4858264625072479e-001</le></_>
            <_><var>186</var>
              <quality>4.8441386222839355e-001</quality>
              <le>2.1972888708114624e-001</le></_>
            <_><var>31</var>
              <quality>4.8421245813369751e-001</quality>
              <le>4.2614445090293884e-001</le></_>
            <_><var>6</var>
              <quality>4.8194667696952820e-001</quality>
              <le>4.4467127323150635e-001</le></_></splits></_>
        <_>
          <depth>1</depth>
          <sample_count>1793</sample_count>
          <value>-6.2364662386679752e-002</value>
          <norm_class_idx>0</norm_class_idx>
          <Tn>0</Tn>
          <complexity>0</complexity>
          <alpha>0.</alpha>
          <node_risk>0.</node_risk>
          <tree_risk>0.</tree_risk>
          <tree_error>0.</tree_error></_>
        <_>
          <depth>1</depth>
          <sample_count>32</sample_count>
          <value>1.3546900800277737e+000</value>
          <norm_class_idx>1</norm_class_idx>
          <Tn>0</Tn>
          <complexity>0</complexity>
          <alpha>0.</alpha>
          <node_risk>0.</node_risk>
          <tree_risk>0.</tree_risk>
          <tree_error>0.</tree_error></_></nodes></_>
    <_>
      <best_tree_idx>-1</best_tree_idx>
      <nodes>
        <_>
          <depth>0</depth>
          <sample_count>1834</sample_count>
          <value>-1.7709374763500408e-003</value>
          <norm_class_idx>0</norm_class_idx>
          <Tn>0</Tn>
          <complexity>0</complexity>
          <alpha>0.</alpha>
          <node_risk>0.</node_risk>
          <tree_risk>0.</tree_risk>
          <tree_error>0.</tree_error>
          <splits>
            <_><var>117</var>
              <quality>5.0803327560424805e-001</quality>
              <le>1.1704938113689423e-001</le></_>
            <_><var>42</var>
              <quality>4.7096261382102966e-001</quality>
              <le>6.7504388093948364e-001</le></_>
            <_><var>180</var>
              <quality>4.7040474414825439e-001</quality>
              <le>1.1471531540155411e-001</le></_>
            <_><var>113</var>
              <quality>4.6963912248611450e-001</quality>
              <le>3.0001124739646912e-001</le></_>
            <_><var>95</var>
              <quality>4.6817249059677124e-001</quality>
              <le>3.8054749369621277e-001</le></_>
            <_><var>115</var>
              <quality>4.6722012758255005e-001</quality>
              <le>3.7876740097999573e-001</le></_>
            <_><var>37</var>
              <quality>4.6613153815269470e-001</quality>
              <le>1.0321225225925446e-001</le></_>
            <_><var>137</var>
              <quality>4.6596759557723999e-001</quality>
              <le>9.9533915519714355e-002</le></_>
            <_><var>80</var>
              <quality>4.6590480208396912e-001</quality>
              <le>2.7676123380661011e-001</le></_>
            <_><var>46</var>
              <quality>4.6486335992813110e-001</quality>
              <le>6.0490286350250244e-001</le></_>
            <_><var>13</var>
              <quality>4.6469312906265259e-001</quality>
              <le>7.9941362142562866e-002</le></_>
            <_><var>91</var>
              <quality>4.6467259526252747e-001</quality>
              <le>4.7268748283386230e-001</le></_>
            <_><var>108</var>
              <quality>4.6418887376785278e-001</quality>
              <le>4.3530383706092834e-001</le></_>
            <_><var>57</var>
              <quality>4.6411231160163879e-001</quality>
              <le>5.8526885509490967e-001</le></_>
            <_><var>186</var>
              <quality>4.6401229500770569e-001</quality>
              <le>5.6113791465759277e-001</le></_>
            <_><var>73</var>
              <quality>4.6391439437866211e-001</quality>
              <le>3.8223156332969666e-001</le></_>
            <_><var>100</var>
              <quality>4.6386611461639404e-001</quality>
              <le>2.7244195342063904e-001</le></_>
            <_><var>60</var>
              <quality>4.6374681591987610e-001</quality>
              <le>7.5355339050292969e-001</le></_>
            <_><var>173</var>
              <quality>4.6369183063507080e-001</quality>
              <le>8.0454528331756592e-001</le></_></splits></_>
        <_>
          <depth>1</depth>
          <sample_count>1618</sample_count>
          <value>5.8138172696543831e-002</value>
          <norm_class_idx>1</norm_class_idx>
          <Tn>0</Tn>
          <complexity>0</complexity>
          <alpha>0.</alpha>
          <node_risk>0.</node_risk>
          <tree_risk>0.</tree_risk>
          <tree_error>0.</tree_error></_>
        <_>
          <depth>1</depth>
          <sample_count>216</sample_count>
          <value>-7.3740455325380527e-001</value>
          <norm_class_idx>0</norm_class_idx>
          <Tn>0</Tn>
          <complexity>0</complexity>
          <alpha>0.</alpha>
          <node_risk>0.</node_risk>
          <tree_risk>0.</tree_risk>
          <tree_error>0.</tree_error></_></nodes></_>
    <_>
      <best_tree_idx>-1</best_tree_idx>
      <nodes>
        <_>
          <depth>0</depth>
          <sample_count>1666</sample_count>
          <value>1.1589308565273772e-002</value>
          <norm_class_idx>1</norm_class_idx>
          <Tn>0</Tn>
          <complexity>0</complexity>
          <alpha>0.</alpha>
          <node_risk>0.</node_risk>
          <tree_risk>0.</tree_risk>
          <tree_error>0.</tree_error>
          <splits>
            <_><var>117</var>
              <quality>5.0236099958419800e-001</quality>
              <le>1.7995392903685570e-002</le></_>
            <_><var>24</var>
              <quality>4.6101918816566467e-001</quality>
              <le>8.8903374969959259e-002</le></_>
            <_><var>48</var>
              <quality>4.5767632126808167e-001</quality>
              <le>3.4668761491775513e-001</le></_>
            <_><var>80</var>
              <quality>4.5623132586479187e-001</quality>
              <le>2.6847058534622192e-001</le></_>
            <_><var>180</var>
              <quality>4.5608830451965332e-001</quality>
              <le>2.4600479006767273e-001</le></_>
            <_><var>13</var>
              <quality>4.5552250742912292e-001</quality>
              <le>7.9941362142562866e-002</le></_>
            <_><var>37</var>
              <quality>4.5373785495758057e-001</quality>
              <le>1.0321225225925446e-001</le></_>
            <_><var>153</var>
              <quality>4.5215556025505066e-001</quality>
              <le>3.6484494805335999e-001</le></_>
            <_><var>175</var>
              <quality>4.5186245441436768e-001</quality>
              <le>4.2006886005401611e-001</le></_>
            <_><var>193</var>
              <quality>4.4911578297615051e-001</quality>
              <le>3.1210196018218994e-001</le></_>
            <_><var>155</var>
              <quality>4.4756335020065308e-001</quality>
              <le>3.7960547208786011e-001</le></_>
            <_><var>42</var>
              <quality>4.4740980863571167e-001</quality>
              <le>6.7504388093948364e-001</le></_>
            <_><var>137</var>
              <quality>4.4622886180877686e-001</quality>
              <le>8.7695397436618805e-002</le></_>
            <_><var>44</var>
              <quality>4.4560763239860535e-001</quality>
              <le>2.0747134089469910e-001</le></_>
            <_><var>113</var>
              <quality>4.4536054134368896e-001</quality>
              <le>3.9657425880432129e-001</le></_>
            <_><var>108</var>
              <quality>4.4531244039535522e-001</quality>
              <le>3.3659285306930542e-001</le></_>
            <_><var>151</var>
              <quality>4.4526159763336182e-001</quality>
              <le>5.8677339553833008e-001</le></_>
            <_><var>115</var>
              <quality>4.4466263055801392e-001</quality>
              <le>5.1143586635589600e-001</le></_>
            <_><var>51</var>
              <quality>4.4445726275444031e-001</quality>
              <le>3.9427101612091064e-001</le></_>
            <_><var>46</var>
              <quality>4.4430756568908691e-001</quality>
              <le>4.4350695610046387e-001</le></_>
            <_><var>95</var>
              <quality>4.4402527809143066e-001</quality>
              <le>4.1494268178939819e-001</le></_>
            <_><var>57</var>
              <quality>4.4400864839553833e-001</quality>
              <le>7.1167635917663574e-001</le></_>
            <_><var>186</var>
              <quality>4.4393464922904968e-001</quality>
              <le>5.6429183483123779e-001</le></_>
            <_><var>91</var>
              <quality>4.4393464922904968e-001</quality>
              <le>7.3767292499542236e-001</le></_>
            <_><var>100</var>
              <quality>4.4386062026023865e-001</quality>
              <le>2.7244195342063904e-001</le></_></splits></_>
        <_>
          <depth>1</depth>
          <sample_count>1597</sample_count>
          <value>-5.4689885829816688e-002</value>
          <norm_class_idx>0</norm_class_idx>
          <Tn>0</Tn>
          <complexity>0</complexity>
          <alpha>0.</alpha>
          <node_risk>0.</node_risk>
          <tree_risk>0.</tree_risk>
          <tree_error>0.</tree_error></_>
        <_>
          <depth>1</depth>
          <sample_count>69</sample_count>
          <value>5.6816998922176087e-001</value>
          <norm_class_idx>1</norm_class_idx>
          <Tn>0</Tn>
          <complexity>0</complexity>
          <alpha>0.</alpha>
          <node_risk>0.</node_risk>
          <tree_risk>0.</tree_risk>
          <tree_error>0.</tree_error></_></nodes></_>
    <_>
      <best_tree_idx>-1</best_tree_idx>
      <nodes>
        <_>
          <depth>0</depth>
          <sample_count>1681</sample_count>
          <value>-2.4828487372177211e-003</value>
          <norm_class_idx>0</norm_class_idx>
          <Tn>0</Tn>
          <complexity>0</complexity>
          <alpha>0.</alpha>
          <node_risk>0.</node_risk>
          <tree_risk>0.</tree_risk>
          <tree_error>0.</tree_error>
          <splits>
            <_><var>135</var>
              <quality>4.9670803546905518e-001</quality>
              <le>1.8609815835952759e-001</le></_>
            <_><var>126</var>
              <quality>4.5561945438385010e-001</quality>
              <le>5.0439983606338501e-002</le></_>
            <_><var>40</var>
              <quality>4.5554646849632263e-001</quality>
              <le>3.7435084581375122e-001</le></_>
            <_><var>133</var>
              <quality>4.5490771532058716e-001</quality>
              <le>3.5307988524436951e-001</le></_>
            <_><var>26</var>
              <quality>4.5447608828544617e-001</quality>
              <le>1.0263623297214508e-001</le></_>
            <_><var>102</var>
              <quality>4.5436665415763855e-001</quality>
              <le>1.5493959188461304e-001</le></_>
            <_><var>11</var>
              <quality>4.5370978116989136e-001</quality>
              <le>2.9248526692390442e-001</le></_>
            <_><var>122</var>
              <quality>4.5315644145011902e-001</quality>
              <le>3.0888438224792480e-001</le></_>
            <_><var>177</var>
              <quality>4.5076400041580200e-001</quality>
              <le>8.1540548801422119e-001</le></_>
            <_><var>124</var>
              <quality>4.5039939880371094e-001</quality>
              <le>2.5258404016494751e-001</le></_>
            <_><var>8</var>
              <quality>4.5034131407737732e-001</quality>
              <le>3.9193123579025269e-001</le></_>
            <_><var>164</var>
              <quality>4.5004138350486755e-001</quality>
              <le>2.1339321136474609e-001</le></_>
            <_><var>57</var>
              <quality>4.4980037212371826e-001</quality>
              <le>1.6331019997596741e-001</le></_>
            <_><var>142</var>
              <quality>4.4964507222175598e-001</quality>
              <le>1.5493959188461304e-001</le></_>
            <_><var>62</var>
              <quality>4.4964507222175598e-001</quality>
              <le>1.5493959188461304e-001</le></_>
            <_><var>184</var>
              <quality>4.4911834597587585e-001</quality>
              <le>4.1914248466491699e-001</le></_>
            <_><var>55</var>
              <quality>4.4881728291511536e-001</quality>
              <le>1.4019313454627991e-001</le></_>
            <_><var>28</var>
              <quality>4.4869709014892578e-001</quality>
              <le>5.1646526902914047e-002</le></_>
            <_><var>148</var>
              <quality>4.4833531975746155e-001</quality>
              <le>3.1309932470321655e-001</le></_>
            <_><var>182</var>
              <quality>4.4790381193161011e-001</quality>
              <le>7.8621280193328857e-001</le></_>
            <_><var>86</var>
              <quality>4.4790381193161011e-001</quality>
              <le>5.8284270763397217e-001</le></_>
            <_><var>31</var>
              <quality>4.4790381193161011e-001</quality>
              <le>7.3653304576873779e-001</le></_>
            <_><var>106</var>
              <quality>4.4778317213058472e-001</quality>
              <le>3.3494195342063904e-001</le></_>
            <_><var>22</var>
              <quality>4.4778051972389221e-001</quality>
              <le>2.4795830249786377e-001</le></_>
            <_><var>104</var>
              <quality>4.4777363538742065e-001</quality>
              <le>5.9052872657775879e-001</le></_></splits></_>
        <_>
          <depth>1</depth>
          <sample_count>1633</sample_count>
          <value>-6.2035643549319376e-002</value>
          <norm_class_idx>0</norm_class_idx>
          <Tn>0</Tn>
          <complexity>0</complexity>
          <alpha>0.</alpha>
          <node_risk>0.</node_risk>
          <tree_risk>0.</tree_risk>
          <tree_error>0.</tree_error></_>
        <_>
          <depth>1</depth>
          <sample_count>48</sample_count>
          <value>6.0459143242046243e-001</value>
          <norm_class_idx>1</norm_class_idx>
          <Tn>0</Tn>
          <complexity>0</complexity>
          <alpha>0.</alpha>
          <node_risk>0.</node_risk>
          <tree_risk>0.</tree_risk>
          <tree_error>0.</tree_error></_></nodes></_>
    <_>
      <best_tree_idx>-1</best_tree_idx>
      <nodes>
        <_>
          <depth>0</depth>
          <sample_count>1685</sample_count>
          <value>-9.1826494115776610e-004</value>
          <norm_class_idx>0</norm_class_idx>
          <Tn>0</Tn>
          <complexity>0</complexity>
          <alpha>0.</alpha>
          <node_risk>0.</node_risk>
          <tree_risk>0.</tree_risk>
          <tree_error>0.</tree_error>
          <splits>
            <_><var>146</var>
              <quality>5.0048643350601196e-001</quality>
              <le>4.3954543769359589e-002</le></_>
            <_><var>4</var>
              <quality>3.9431679248809814e-001</quality>
              <le>2.8002864122390747e-001</le></_>
            <_><var>84</var>
              <quality>3.8713613152503967e-001</quality>
              <le>1.6813962161540985e-001</le></_>
            <_><var>195</var>
              <quality>3.6446863412857056e-001</quality>
              <le>5.5187053978443146e-002</le></_>
            <_><var>75</var>
              <quality>3.5569283366203308e-001</quality>
              <le>6.7890681326389313e-002</le></_>
            <_><var>157</var>
              <quality>3.5215497016906738e-001</quality>
              <le>1.7548665404319763e-001</le></_>
            <_><var>71</var>
              <quality>3.5204035043716431e-001</quality>
              <le>1.5211774408817291e-001</le></_>
            <_><var>17</var>
              <quality>3.5058942437171936e-001</quality>
              <le>1.2991997599601746e-001</le></_>
            <_><var>162</var>
              <quality>3.4981057047843933e-001</quality>
              <le>2.3845566809177399e-001</le></_>
            <_><var>73</var>
              <quality>3.4855267405509949e-001</quality>
              <le>1.5213622152805328e-001</le></_>
            <_><var>88</var>
              <quality>3.4801220893859863e-001</quality>
              <le>5.0851821899414063e-001</le></_>
            <_><var>111</var>
              <quality>3.4519237279891968e-001</quality>
              <le>1.8972921371459961e-001</le></_>
            <_><var>173</var>
              <quality>3.4510532021522522e-001</quality>
              <le>2.1028417348861694e-001</le></_>
            <_><var>106</var>
              <quality>3.4495791792869568e-001</quality>
              <le>1.5266834199428558e-001</le></_>
            <_><var>177</var>
              <quality>3.4473827481269836e-001</quality>
              <le>6.4067059755325317e-001</le></_>
            <_><var>0</var>
              <quality>3.4423190355300903e-001</quality>
              <le>2.7822917699813843e-001</le></_>
            <_><var>197</var>
              <quality>3.4389477968215942e-001</quality>
              <le>3.5963591188192368e-002</le></_>
            <_><var>60</var>
              <quality>3.4384447336196899e-001</quality>
              <le>7.3130384087562561e-002</le></_>
            <_><var>86</var>
              <quality>3.4360644221305847e-001</quality>
              <le>2.2925719618797302e-001</le></_>
            <_><var>31</var>
              <quality>3.4346556663513184e-001</quality>
              <le>5.0400024652481079e-001</le></_>
            <_><var>171</var>
              <quality>3.4320688247680664e-001</quality>
              <le>4.1181135177612305e-001</le></_>
            <_><var>66</var>
              <quality>3.4318384528160095e-001</quality>
              <le>1.7127130925655365e-001</le></_>
            <_><var>8</var>
              <quality>3.4283709526062012e-001</quality>
              <le>3.5670474171638489e-001</le></_>
            <_><var>133</var>
              <quality>3.4278371930122375e-001</quality>
              <le>3.5307988524436951e-001</le></_>
            <_><var>160</var>
              <quality>3.4276410937309265e-001</quality>
              <le>5.8764916658401489e-001</le></_>
            <_><var>68</var>
              <quality>3.4216523170471191e-001</quality>
              <le>1.8281809985637665e-001</le></_>
            <_><var>108</var>
              <quality>3.4174868464469910e-001</quality>
              <le>2.5200012326240540e-001</le></_>
            <_><var>135</var>
              <quality>3.4172645211219788e-001</quality>
              <le>6.7865216732025146e-001</le></_>
            <_><var>57</var>
              <quality>3.4152552485466003e-001</quality>
              <le>7.1167635917663574e-001</le></_>
            <_><var>6</var>
              <quality>3.4145343303680420e-001</quality>
              <le>3.3504283428192139e-001</le></_>
            <_><var>155</var>
              <quality>3.4138840436935425e-001</quality>
              <le>6.4736080169677734e-001</le></_>
            <_><var>124</var>
              <quality>3.4138840436935425e-001</quality>
              <le>3.2716786861419678e-001</le></_>
            <_><var>44</var>
              <quality>3.4138840436935425e-001</quality>
              <le>6.5830016136169434e-001</le></_>
            <_><var>140</var>
              <quality>3.4133389592170715e-001</quality>
              <le>4.9333211779594421e-001</le></_>
            <_><var>175</var>
              <quality>3.4130743145942688e-001</quality>
              <le>5.6475055217742920e-001</le></_>
            <_><var>11</var>
              <quality>3.4129923582077026e-001</quality>
              <le>7.0903611183166504e-001</le></_>
            <_><var>131</var>
              <quality>3.4126615524291992e-001</quality>
              <le>3.1607377529144287e-001</le></_>
            <_><var>100</var>
              <quality>3.4126615524291992e-001</quality>
              <le>3.1647279858589172e-001</le></_></splits></_>
        <_>
          <depth>1</depth>
          <sample_count>1307</sample_count>
          <value>-1.3476405722720539e-001</value>
          <norm_class_idx>0</norm_class_idx>
          <Tn>0</Tn>
          <complexity>0</complexity>
          <alpha>0.</alpha>
          <node_risk>0.</node_risk>
          <tree_risk>0.</tree_risk>
          <tree_error>0.</tree_error></_>
        <_>
          <depth>1</depth>
          <sample_count>378</sample_count>
          <value>2.9227268723084243e-001</value>
          <norm_class_idx>1</norm_class_idx>
          <Tn>0</Tn>
          <complexity>0</complexity>
          <alpha>0.</alpha>
          <node_risk>0.</node_risk>
          <tree_risk>0.</tree_risk>
          <tree_error>0.</tree_error></_></nodes></_>
    <_>
      <best_tree_idx>-1</best_tree_idx>
      <nodes>
        <_>
          <depth>0</depth>
          <sample_count>1702</sample_count>
          <value>-2.6756433919768053e-003</value>
          <norm_class_idx>0</norm_class_idx>
          <Tn>0</Tn>
          <complexity>0</complexity>
          <alpha>0.</alpha>
          <node_risk>0.</node_risk>
          <tree_risk>0.</tree_risk>
          <tree_error>0.</tree_error>
          <splits>
            <_><var>33</var>
              <quality>5.1147991418838501e-001</quality>
              <le>8.2299923896789551e-001</le></_>
            <_><var>20</var>
              <quality>4.0922427177429199e-001</quality>
              <le>2.7650063857436180e-002</le></_>
            <_><var>66</var>
              <quality>4.0830668807029724e-001</quality>
              <le>2.7650063857436180e-002</le></_></splits></_>
        <_>
          <depth>1</depth>
          <sample_count>1486</sample_count>
          <value>-1.3140039948810764e-001</value>
          <norm_class_idx>0</norm_class_idx>
          <Tn>0</Tn>
          <complexity>0</complexity>
          <alpha>0.</alpha>
          <node_risk>0.</node_risk>
          <tree_risk>0.</tree_risk>
          <tree_error>0.</tree_error></_>
        <_>
          <depth>1</depth>
          <sample_count>216</sample_count>
          <value>4.6244163199963240e-001</value>
          <norm_class_idx>1</norm_class_idx>
          <Tn>0</Tn>
          <complexity>0</complexity>
          <alpha>0.</alpha>
          <node_risk>0.</node_risk>
          <tree_risk>0.</tree_risk>
          <tree_error>0.</tree_error></_></nodes></_>
    <_>
      <best_tree_idx>-1</best_tree_idx>
      <nodes>
        <_>
          <depth>0</depth>
          <sample_count>1704</sample_count>
          <value>2.4645571732084462e-004</value>
          <norm_class_idx>1</norm_class_idx>
          <Tn>0</Tn>
          <complexity>0</complexity>
          <alpha>0.</alpha>
          <node_risk>0.</node_risk>
          <tree_risk>0.</tree_risk>
          <tree_error>0.</tree_error>
          <splits>
            <_><var>33</var>
              <quality>5.0812923908233643e-001</quality>
              <le>1.4427746646106243e-002</le></_>
            <_><var>84</var>
              <quality>3.4928703308105469e-001</quality>
              <le>2.5298827886581421e-001</le></_>
            <_><var>20</var>
              <quality>3.4594213962554932e-001</quality>
              <le>2.7650063857436180e-002</le></_>
            <_><var>66</var>
              <quality>3.4421935677528381e-001</quality>
              <le>2.7650063857436180e-002</le></_>
            <_><var>77</var>
              <quality>3.4037670493125916e-001</quality>
              <le>1.8238401412963867e-001</le></_>
            <_><var>171</var>
              <quality>3.3894959092140198e-001</quality>
              <le>4.1181135177612305e-001</le></_>
            <_><var>75</var>
              <quality>3.3881029486656189e-001</quality>
              <le>4.2436629533767700e-001</le></_>
            <_><var>186</var>
              <quality>3.3878168463706970e-001</quality>
              <le>1.3024505972862244e-001</le></_>
            <_><var>148</var>
              <quality>3.3874529600143433e-001</quality>
              <le>9.7643174231052399e-002</le></_>
            <_><var>182</var>
              <quality>3.3866629004478455e-001</quality>
              <le>7.0895850658416748e-001</le></_>
            <_><var>124</var>
              <quality>3.3853766322135925e-001</quality>
              <le>2.0734992623329163e-001</le></_>
            <_><var>97</var>
              <quality>3.3834353089332581e-001</quality>
              <le>8.9369542896747589e-002</le></_>
            <_><var>157</var>
              <quality>3.3782929182052612e-001</quality>
              <le>5.0125944614410400e-001</le></_>
            <_><var>184</var>
              <quality>3.3779031038284302e-001</quality>
              <le>1.8432554602622986e-001</le></_>
            <_><var>191</var>
              <quality>3.3707922697067261e-001</quality>
              <le>2.8274816274642944e-001</le></_>
            <_><var>71</var>
              <quality>3.3663618564605713e-001</quality>
              <le>7.1053004264831543e-001</le></_>
            <_><var>0</var>
              <quality>3.3661273121833801e-001</quality>
              <le>6.0355341434478760e-001</le></_>
            <_><var>6</var>
              <quality>3.3660361170768738e-001</quality>
              <le>3.3504283428192139e-001</le></_>
            <_><var>60</var>
              <quality>3.3658018708229065e-001</quality>
              <le>6.5093415975570679e-001</le></_>
            <_><var>166</var>
              <quality>3.3656972646713257e-001</quality>
              <le>1.6051334142684937e-001</le></_>
            <_><var>55</var>
              <quality>3.3656036853790283e-001</quality>
              <le>4.0812975168228149e-001</le></_>
            <_><var>11</var>
              <quality>3.3648493885993958e-001</quality>
              <le>7.0903611183166504e-001</le></_>
            <_><var>180</var>
              <quality>3.3641833066940308e-001</quality>
              <le>6.9695478677749634e-001</le></_></splits></_>
        <_>
          <depth>1</depth>
          <sample_count>1229</sample_count>
          <value>1.5386046550019694e-001</value>
          <norm_class_idx>1</norm_class_idx>
          <Tn>0</Tn>
          <complexity>0</complexity>
          <alpha>0.</alpha>
          <node_risk>0.</node_risk>
          <tree_risk>0.</tree_risk>
          <tree_error>0.</tree_error></_>
        <_>
          <depth>1</depth>
          <sample_count>475</sample_count>
          <value>-3.0753699722244299e-001</value>
          <norm_class_idx>0</norm_class_idx>
          <Tn>0</Tn>
          <complexity>0</complexity>
          <alpha>0.</alpha>
          <node_risk>0.</node_risk>
          <tree_risk>0.</tree_risk>
          <tree_error>0.</tree_error></_></nodes></_>
    <_>
      <best_tree_idx>-1</best_tree_idx>
      <nodes>
        <_>
          <depth>0</depth>
          <sample_count>1601</sample_count>
          <value>9.8125696744148193e-003</value>
          <norm_class_idx>1</norm_class_idx>
          <Tn>0</Tn>
          <complexity>0</complexity>
          <alpha>0.</alpha>
          <node_risk>0.</node_risk>
          <tree_risk>0.</tree_risk>
          <tree_error>0.</tree_error>
          <splits>
            <_><var>93</var>
              <quality>4.9522101879119873e-001</quality>
              <le>7.8814601898193359e-001</le></_>
            <_><var>160</var>
              <quality>4.8310136795043945e-001</quality>
              <le>2.5678417086601257e-001</le></_></splits></_>
        <_>
          <depth>1</depth>
          <sample_count>1596</sample_count>
          <value>-2.5803485835728727e-002</value>
          <norm_class_idx>0</norm_class_idx>
          <Tn>0</Tn>
          <complexity>0</complexity>
          <alpha>0.</alpha>
          <node_risk>0.</node_risk>
          <tree_risk>0.</tree_risk>
          <tree_error>0.</tree_error></_>
        <_>
          <depth>1</depth>
          <sample_count>5</sample_count>
          <value>2.0231825126624083e+000</value>
          <norm_class_idx>1</norm_class_idx>
          <Tn>0</Tn>
          <complexity>0</complexity>
          <alpha>0.</alpha>
          <node_risk>0.</node_risk>
          <tree_risk>0.</tree_risk>
          <tree_error>0.</tree_error></_></nodes></_>
    <_>
      <best_tree_idx>-1</best_tree_idx>
      <nodes>
        <_>
          <depth>0</depth>
          <sample_count>1602</sample_count>
          <value>-8.5567555611716563e-004</value>
          <norm_class_idx>0</norm_class_idx>
          <Tn>0</Tn>
          <complexity>0</complexity>
          <alpha>0.</alpha>
          <node_risk>0.</node_risk>
          <tree_risk>0.</tree_risk>
          <tree_error>0.</tree_error>
          <splits>
            <_><var>33</var>
              <quality>4.9434915184974670e-001</quality>
              <le>8.2299923896789551e-001</le></_>
            <_><var>20</var>
              <quality>3.9045584201812744e-001</quality>
              <le>2.7650063857436180e-002</le></_>
            <_><var>66</var>
              <quality>3.8942053914070129e-001</quality>
              <le>2.7650063857436180e-002</le></_></splits></_>
        <_>
          <depth>1</depth>
          <sample_count>1386</sample_count>
          <value>-1.0119264222826158e-001</value>
          <norm_class_idx>0</norm_class_idx>
          <Tn>0</Tn>
          <complexity>0</complexity>
          <alpha>0.</alpha>
          <node_risk>0.</node_risk>
          <tree_risk>0.</tree_risk>
          <tree_error>0.</tree_error></_>
        <_>
          <depth>1</depth>
          <sample_count>216</sample_count>
          <value>3.3334048305817060e-001</value>
          <norm_class_idx>1</norm_class_idx>
          <Tn>0</Tn>
          <complexity>0</complexity>
          <alpha>0.</alpha>
          <node_risk>0.</node_risk>
          <tree_risk>0.</tree_risk>
          <tree_error>0.</tree_error></_></nodes></_>
    <_>
      <best_tree_idx>-1</best_tree_idx>
      <nodes>
        <_>
          <depth>0</depth>
          <sample_count>1603</sample_count>
          <value>1.3627568794351863e-004</value>
          <norm_class_idx>1</norm_class_idx>
          <Tn>0</Tn>
          <complexity>0</complexity>
          <alpha>0.</alpha>
          <node_risk>0.</node_risk>
          <tree_risk>0.</tree_risk>
          <tree_error>0.</tree_error>
          <splits>
            <_><var>24</var>
              <quality>5.0087314844131470e-001</quality>
              <le>1.2826308608055115e-001</le></_>
            <_><var>37</var>
              <quality>4.6890830993652344e-001</quality>
              <le>1.3335597515106201e-001</le></_>
            <_><var>117</var>
              <quality>4.6791759133338928e-001</quality>
              <le>5.3996300697326660e-001</le></_>
            <_><var>175</var>
              <quality>4.6656915545463562e-001</quality>
              <le>4.4445657730102539e-001</le></_>
            <_><var>180</var>
              <quality>4.6509432792663574e-001</quality>
              <le>2.7351501584053040e-001</le></_>
            <_><var>44</var>
              <quality>4.6420544385910034e-001</quality>
              <le>3.2194966077804565e-001</le></_>
            <_><var>193</var>
              <quality>4.6194031834602356e-001</quality>
              <le>3.1210196018218994e-001</le></_>
            <_><var>80</var>
              <quality>4.6060886979103088e-001</quality>
              <le>2.7676123380661011e-001</le></_>
            <_><var>75</var>
              <quality>4.6015188097953796e-001</quality>
              <le>4.2436629533767700e-001</le></_>
            <_><var>55</var>
              <quality>4.5883718132972717e-001</quality>
              <le>2.1055969595909119e-001</le></_>
            <_><var>13</var>
              <quality>4.5853400230407715e-001</quality>
              <le>1.2826308608055115e-001</le></_>
            <_><var>91</var>
              <quality>4.5795080065727234e-001</quality>
              <le>2.9211947321891785e-001</le></_>
            <_><var>153</var>
              <quality>4.5753949880599976e-001</quality>
              <le>3.6484494805335999e-001</le></_>
            <_><var>35</var>
              <quality>4.5694589614868164e-001</quality>
              <le>2.1486872434616089e-001</le></_>
            <_><var>157</var>
              <quality>4.5668500661849976e-001</quality>
              <le>5.1968705654144287e-001</le></_>
            <_><var>20</var>
              <quality>4.5637264847755432e-001</quality>
              <le>4.1182580590248108e-001</le></_></splits></_>
        <_>
          <depth>1</depth>
          <sample_count>1570</sample_count>
          <value>-6.4340677047067474e-002</value>
          <norm_class_idx>0</norm_class_idx>
          <Tn>0</Tn>
          <complexity>0</complexity>
          <alpha>0.</alpha>
          <node_risk>0.</node_risk>
          <tree_risk>0.</tree_risk>
          <tree_error>0.</tree_error></_>
        <_>
          <depth>1</depth>
          <sample_count>33</sample_count>
          <value>7.8639116370105144e-001</value>
          <norm_class_idx>1</norm_class_idx>
          <Tn>0</Tn>
          <complexity>0</complexity>
          <alpha>0.</alpha>
          <node_risk>0.</node_risk>
          <tree_risk>0.</tree_risk>
          <tree_error>0.</tree_error></_></nodes></_>
    <_>
      <best_tree_idx>-1</best_tree_idx>
      <nodes>
        <_>
          <depth>0</depth>
          <sample_count>1607</sample_count>
          <value>-1.1096064918424190e-003</value>
          <norm_class_idx>0</norm_class_idx>
          <Tn>0</Tn>
          <complexity>0</complexity>
          <alpha>0.</alpha>
          <node_risk>0.</node_risk>
          <tree_risk>0.</tree_risk>
          <tree_error>0.</tree_error>
          <splits>
            <_><var>2</var>
              <quality>4.9954724311828613e-001</quality>
              <le>2.2450663149356842e-002</le></_>
            <_><var>104</var>
              <quality>4.7408336400985718e-001</quality>
              <le>8.9804843068122864e-002</le></_>
            <_><var>51</var>
              <quality>4.7105613350868225e-001</quality>
              <le>1.6553282737731934e-001</le></_>
            <_><var>15</var>
              <quality>4.6245732903480530e-001</quality>
              <le>1.0224647819995880e-001</le></_>
            <_><var>144</var>
              <quality>4.6107187867164612e-001</quality>
              <le>3.8263935595750809e-002</le></_>
            <_><var>128</var>
              <quality>4.6102952957153320e-001</quality>
              <le>2.1693637967109680e-001</le></_>
            <_><var>137</var>
              <quality>4.6045014262199402e-001</quality>
              <le>1.2607479095458984e-001</le></_>
            <_><var>155</var>
              <quality>4.6019729971885681e-001</quality>
              <le>7.2933271527290344e-002</le></_>
            <_><var>171</var>
              <quality>4.5997926592826843e-001</quality>
              <le>1.4946037530899048e-001</le></_>
            <_><var>40</var>
              <quality>4.5971855521202087e-001</quality>
              <le>4.9097502231597900e-001</le></_>
            <_><var>46</var>
              <quality>4.5832806825637817e-001</quality>
              <le>5.5773243308067322e-002</le></_>
            <_><var>115</var>
              <quality>4.5781311392784119e-001</quality>
              <le>3.6872297525405884e-001</le></_>
            <_><var>44</var>
              <quality>4.5707824826240540e-001</quality>
              <le>4.4369465112686157e-001</le></_>
            <_><var>188</var>
              <quality>4.5704796910285950e-001</quality>
              <le>3.9518624544143677e-001</le></_>
            <_><var>164</var>
              <quality>4.5665392279624939e-001</quality>
              <le>2.1339321136474609e-001</le></_>
            <_><var>75</var>
              <quality>4.5664528012275696e-001</quality>
              <le>4.2436629533767700e-001</le></_>
            <_><var>35</var>
              <quality>4.5576545596122742e-001</quality>
              <le>1.5182138979434967e-001</le></_>
            <_><var>22</var>
              <quality>4.5544874668121338e-001</quality>
              <le>5.8920001983642578e-001</le></_>
            <_><var>140</var>
              <quality>4.5536026358604431e-001</quality>
              <le>4.4879829883575439e-001</le></_>
            <_><var>6</var>
              <quality>4.5517173409461975e-001</quality>
              <le>3.8386672735214233e-001</le></_>
            <_><var>184</var>
              <quality>4.5500415563583374e-001</quality>
              <le>1.2934345006942749e-001</le></_>
            <_><var>11</var>
              <quality>4.5480486750602722e-001</quality>
              <le>5.2750897407531738e-001</le></_></splits></_>
        <_>
          <depth>1</depth>
          <sample_count>1563</sample_count>
          <value>-6.2028720070128496e-002</value>
          <norm_class_idx>0</norm_class_idx>
          <Tn>0</Tn>
          <complexity>0</complexity>
          <alpha>0.</alpha>
          <node_risk>0.</node_risk>
          <tree_risk>0.</tree_risk>
          <tree_error>0.</tree_error></_>
        <_>
          <depth>1</depth>
          <sample_count>44</sample_count>
          <value>7.1982338997987017e-001</value>
          <norm_class_idx>1</norm_class_idx>
          <Tn>0</Tn>
          <complexity>0</complexity>
          <alpha>0.</alpha>
          <node_risk>0.</node_risk>
          <tree_risk>0.</tree_risk>
          <tree_error>0.</tree_error></_></nodes></_>
    <_>
      <best_tree_idx>-1</best_tree_idx>
      <nodes>
        <_>
          <depth>0</depth>
          <sample_count>1615</sample_count>
          <value>-1.4528869810931854e-003</value>
          <norm_class_idx>0</norm_class_idx>
          <Tn>0</Tn>
          <complexity>0</complexity>
          <alpha>0.</alpha>
          <node_risk>0.</node_risk>
          <tree_risk>0.</tree_risk>
          <tree_error>0.</tree_error>
          <splits>
            <_><var>75</var>
              <quality>4.9814370274543762e-001</quality>
              <le>6.7890681326389313e-002</le></_>
            <_><var>84</var>
              <quality>4.9007421731948853e-001</quality>
              <le>5.5730640888214111e-001</le></_>
            <_><var>131</var>
              <quality>4.8345169425010681e-001</quality>
              <le>1.4704293012619019e-001</le></_>
            <_><var>82</var>
              <quality>4.8330491781234741e-001</quality>
              <le>4.0791511535644531e-001</le></_></splits></_>
        <_>
          <depth>1</depth>
          <sample_count>1612</sample_count>
          <value>-3.3875983617439584e-002</value>
          <norm_class_idx>0</norm_class_idx>
          <Tn>0</Tn>
          <complexity>0</complexity>
          <alpha>0.</alpha>
          <node_risk>0.</node_risk>
          <tree_risk>0.</tree_risk>
          <tree_error>0.</tree_error></_>
        <_>
          <depth>1</depth>
          <sample_count>3</sample_count>
          <value>5.7564577324623896e+000</value>
          <norm_class_idx>1</norm_class_idx>
          <Tn>0</Tn>
          <complexity>0</complexity>
          <alpha>0.</alpha>
          <node_risk>0.</node_risk>
          <tree_risk>0.</tree_risk>
          <tree_error>0.</tree_error></_></nodes></_>
    <_>
      <best_tree_idx>-1</best_tree_idx>
      <nodes>
        <_>
          <depth>0</depth>
          <sample_count>1612</sample_count>
          <value>1.6653345369377070e-014</value>
          <norm_class_idx>1</norm_class_idx>
          <Tn>0</Tn>
          <complexity>0</complexity>
          <alpha>0.</alpha>
          <node_risk>0.</node_risk>
          <tree_risk>0.</tree_risk>
          <tree_error>0.</tree_error>
          <splits>
            <_><var>111</var>
              <quality>4.9805244803428650e-001</quality>
              <le>1.1900588124990463e-001</le></_>
            <_><var>0</var>
              <quality>4.8224213719367981e-001</quality>
              <le>2.2774118185043335e-001</le></_>
            <_><var>97</var>
              <quality>4.7880095243453979e-001</quality>
              <le>5.4247593879699707e-001</le></_>
            <_><var>177</var>
              <quality>4.7743266820907593e-001</quality>
              <le>6.5198636054992676e-001</le></_>
            <_><var>191</var>
              <quality>4.7729536890983582e-001</quality>
              <le>1.8289917707443237e-001</le></_>
            <_><var>182</var>
              <quality>4.7719734907150269e-001</quality>
              <le>5.7264745235443115e-001</le></_>
            <_><var>66</var>
              <quality>4.7689005732536316e-001</quality>
              <le>1.7127130925655365e-001</le></_>
            <_><var>22</var>
              <quality>4.7666069865226746e-001</quality>
              <le>3.8293400406837463e-001</le></_>
            <_><var>77</var>
              <quality>4.7643834352493286e-001</quality>
              <le>5.0734066963195801e-001</le></_>
            <_><var>6</var>
              <quality>4.7620692849159241e-001</quality>
              <le>2.9838421940803528e-001</le></_>
            <_><var>197</var>
              <quality>4.7597169876098633e-001</quality>
              <le>5.2451908588409424e-001</le></_>
            <_><var>166</var>
              <quality>4.7571316361427307e-001</quality>
              <le>1.6051334142684937e-001</le></_>
            <_><var>186</var>
              <quality>4.7477972507476807e-001</quality>
              <le>5.1940798759460449e-001</le></_></splits></_>
        <_>
          <depth>1</depth>
          <sample_count>1589</sample_count>
          <value>-3.9888929467835441e-002</value>
          <norm_class_idx>0</norm_class_idx>
          <Tn>0</Tn>
          <complexity>0</complexity>
          <alpha>0.</alpha>
          <node_risk>0.</node_risk>
          <tree_risk>0.</tree_risk>
          <tree_error>0.</tree_error></_>
        <_>
          <depth>1</depth>
          <sample_count>23</sample_count>
          <value>1.1291483133224813e+000</value>
          <norm_class_idx>1</norm_class_idx>
          <Tn>0</Tn>
          <complexity>0</complexity>
          <alpha>0.</alpha>
          <node_risk>0.</node_risk>
          <tree_risk>0.</tree_risk>
          <tree_error>0.</tree_error></_></nodes></_>
    <_>
      <best_tree_idx>-1</best_tree_idx>
      <nodes>
        <_>
          <depth>0</depth>
          <sample_count>1611</sample_count>
          <value>-8.1253522091817291e-005</value>
          <norm_class_idx>0</norm_class_idx>
          <Tn>0</Tn>
          <complexity>0</complexity>
          <alpha>0.</alpha>
          <node_risk>0.</node_risk>
          <tree_risk>0.</tree_risk>
          <tree_error>0.</tree_error>
          <splits>
            <_><var>146</var>
