<?xml version="1.0"?>
<opencv_storage>
<boost type_id="opencv-ml-boost-tree">
  <boosting_type>RealAdaboost</boosting_type>
  <splitting_criteria>Gini</splitting_criteria>
  <ntrees>100</ntrees>
  <weight_trimming_rate>9.4999999999999996e-001</weight_trimming_rate>
  <is_classifier>1</is_classifier>
  <var_all>200</var_all>
  <var_count>200</var_count>
  <ord_var_count>200</ord_var_count>
  <cat_var_count>0</cat_var_count>
  <training_params>
    <use_surrogates>1</use_surrogates>
    <max_categories>10</max_categories>
    <max_depth>1</max_depth>
    <min_sample_count>10</min_sample_count>
    <cross_validation_folds>0</cross_validation_folds>
    <priors type_id="opencv-matrix">
      <rows>1</rows>
      <cols>2</cols>
      <dt>d</dt>
      <data>
        1. 1.</data></priors></training_params>
  <var_type>
    0 0 0 0 0 0 0 0 0 0 0 0 0 0 0 0 0 0 0 0 0 0 0 0 0 0 0 0 0 0 0 0 0 0
    0 0 0 0 0 0 0 0 0 0 0 0 0 0 0 0 0 0 0 0 0 0 0 0 0 0 0 0 0 0 0 0 0 0
    0 0 0 0 0 0 0 0 0 0 0 0 0 0 0 0 0 0 0 0 0 0 0 0 0 0 0 0 0 0 0 0 0 0
    0 0 0 0 0 0 0 0 0 0 0 0 0 0 0 0 0 0 0 0 0 0 0 0 0 0 0 0 0 0 0 0 0 0
    0 0 0 0 0 0 0 0 0 0 0 0 0 0 0 0 0 0 0 0 0 0 0 0 0 0 0 0 0 0 0 0 0 0
    0 0 0 0 0 0 0 0 0 0 0 0 0 0 0 0 0 0 0 0 0 0 0 0 0 0 0 0 0 0</var_type>
  <cat_count type_id="opencv-matrix">
    <rows>1</rows>
    <cols>1</cols>
    <dt>i</dt>
    <data>
      2</data></cat_count>
  <cat_map type_id="opencv-matrix">
    <rows>1</rows>
    <cols>2</cols>
    <dt>i</dt>
    <data>
      -1 1</data></cat_map>
  <trees>
    <_>
      <best_tree_idx>-1</best_tree_idx>
      <nodes>
        <_>
          <depth>0</depth>
          <sample_count>3453</sample_count>
          <value>-1.4772723575736735e+000</value>
          <norm_class_idx>0</norm_class_idx>
          <Tn>0</Tn>
          <complexity>0</complexity>
          <alpha>0.</alpha>
          <node_risk>0.</node_risk>
          <tree_risk>0.</tree_risk>
          <tree_error>0.</tree_error>
          <splits>
            <_><var>166</var>
              <quality>9.2171430587768555e-001</quality>
              <le>3.0206104740500450e-002</le></_>
            <_><var>146</var>
              <quality>9.0596538782119751e-001</quality>
              <le>2.1887320280075073e-001</le></_>
            <_><var>10</var>
              <quality>9.0516453981399536e-001</quality>
              <le>4.0719538927078247e-001</le></_>
            <_><var>190</var>
              <quality>9.0463072061538696e-001</quality>
              <le>7.9374629259109497e-001</le></_>
            <_><var>183</var>
              <quality>9.0463072061538696e-001</quality>
              <le>2.4301372468471527e-001</le></_>
            <_><var>153</var>
              <quality>9.0463072061538696e-001</quality>
              <le>1.9655320048332214e-001</le></_>
            <_><var>103</var>
              <quality>9.0463072061538696e-001</quality>
              <le>2.7441066503524780e-001</le></_>
            <_><var>93</var>
              <quality>9.0463072061538696e-001</quality>
              <le>2.2475469112396240e-001</le></_>
            <_><var>43</var>
              <quality>9.0463072061538696e-001</quality>
              <le>5.2032142877578735e-001</le></_>
            <_><var>0</var>
              <quality>9.0463072061538696e-001</quality>
              <le>3.0384880304336548e-001</le></_></splits></_>
        <_>
          <depth>1</depth>
          <sample_count>3388</sample_count>
          <value>-1.6269069381147259e+000</value>
          <norm_class_idx>0</norm_class_idx>
          <Tn>0</Tn>
          <complexity>0</complexity>
          <alpha>0.</alpha>
          <node_risk>0.</node_risk>
          <tree_risk>0.</tree_risk>
          <tree_error>0.</tree_error></_>
        <_>
          <depth>1</depth>
          <sample_count>65</sample_count>
          <value>4.0546510810816411e-001</value>
          <norm_class_idx>1</norm_class_idx>
          <Tn>0</Tn>
          <complexity>0</complexity>
          <alpha>0.</alpha>
          <node_risk>0.</node_risk>
          <tree_risk>0.</tree_risk>
          <tree_error>0.</tree_error></_></nodes></_>
    <_>
      <best_tree_idx>-1</best_tree_idx>
      <nodes>
        <_>
          <depth>0</depth>
          <sample_count>3453</sample_count>
          <value>-1.6209256159527547e-014</value>
          <norm_class_idx>0</norm_class_idx>
          <Tn>0</Tn>
          <complexity>0</complexity>
          <alpha>0.</alpha>
          <node_risk>0.</node_risk>
          <tree_risk>0.</tree_risk>
          <tree_error>0.</tree_error>
          <splits>
            <_><var>63</var>
              <quality>5.6057804822921753e-001</quality>
              <le>5.2414242178201675e-002</le></_>
            <_><var>76</var>
              <quality>5.2970749139785767e-001</quality>
              <le>3.4752402454614639e-002</le></_>
            <_><var>23</var>
              <quality>5.2410519123077393e-001</quality>
              <le>2.9111124575138092e-002</le></_>
            <_><var>173</var>
              <quality>5.1355278491973877e-001</quality>
              <le>1.4232216775417328e-001</le></_>
            <_><var>156</var>
              <quality>5.1023513078689575e-001</quality>
              <le>3.2826609909534454e-002</le></_>
            <_><var>3</var>
              <quality>5.1020556688308716e-001</quality>
              <le>1.4232216775417328e-001</le></_>
            <_><var>70</var>
              <quality>5.0068944692611694e-001</quality>
              <le>3.5623524338006973e-002</le></_>
            <_><var>193</var>
              <quality>4.9730667471885681e-001</quality>
              <le>2.8607422113418579e-001</le></_>
            <_><var>123</var>
              <quality>4.9451833963394165e-001</quality>
              <le>4.1027253866195679e-001</le></_>
            <_><var>20</var>
              <quality>4.9197372794151306e-001</quality>
              <le>2.6367503404617310e-001</le></_>
            <_><var>53</var>
              <quality>4.9088680744171143e-001</quality>
              <le>1.3335597515106201e-001</le></_>
            <_><var>196</var>
              <quality>4.8847144842147827e-001</quality>
              <le>5.3554898500442505e-001</le></_>
            <_><var>180</var>
              <quality>4.8847144842147827e-001</quality>
              <le>1.7376200854778290e-001</le></_>
            <_><var>30</var>
              <quality>4.8847144842147827e-001</quality>
              <le>3.0101129412651062e-001</le></_>
            <_><var>133</var>
              <quality>4.8720797896385193e-001</quality>
              <le>9.1562283039093018e-001</le></_>
            <_><var>10</var>
              <quality>4.8683300614356995e-001</quality>
              <le>2.1654486656188965e-001</le></_></splits></_>
        <_>
          <depth>1</depth>
          <sample_count>3371</sample_count>
          <value>-1.3674538987624224e-001</value>
          <norm_class_idx>0</norm_class_idx>
          <Tn>0</Tn>
          <complexity>0</complexity>
          <alpha>0.</alpha>
          <node_risk>0.</node_risk>
          <tree_risk>0.</tree_risk>
          <tree_error>0.</tree_error></_>
        <_>
          <depth>1</depth>
          <sample_count>82</sample_count>
          <value>1.4292505697926519e+000</value>
          <norm_class_idx>1</norm_class_idx>
          <Tn>0</Tn>
          <complexity>0</complexity>
          <alpha>0.</alpha>
          <node_risk>0.</node_risk>
          <tree_risk>0.</tree_risk>
          <tree_error>0.</tree_error></_></nodes></_>
    <_>
      <best_tree_idx>-1</best_tree_idx>
      <nodes>
        <_>
          <depth>0</depth>
          <sample_count>3453</sample_count>
          <value>1.0436096431476363e-014</value>
          <norm_class_idx>1</norm_class_idx>
          <Tn>0</Tn>
          <complexity>0</complexity>
          <alpha>0.</alpha>
          <node_risk>0.</node_risk>
          <tree_risk>0.</tree_risk>
          <tree_error>0.</tree_error>
          <splits>
            <_><var>133</var>
              <quality>5.6126224994659424e-001</quality>
              <le>4.0864601731300354e-002</le></_>
            <_><var>33</var>
              <quality>4.5838183164596558e-001</quality>
              <le>2.3017790913581848e-001</le></_>
            <_><var>40</var>
              <quality>4.5824182033538818e-001</quality>
              <le>1.2439157813787460e-001</le></_>
            <_><var>13</var>
              <quality>4.5485311746597290e-001</quality>
              <le>3.8667708635330200e-002</le></_>
            <_><var>16</var>
              <quality>4.4720092415809631e-001</quality>
              <le>5.0120562314987183e-001</le></_>
            <_><var>0</var>
              <quality>4.4639363884925842e-001</quality>
              <le>1.2731133401393890e-001</le></_>
            <_><var>116</var>
              <quality>4.4474351406097412e-001</quality>
              <le>1.9521720707416534e-002</le></_>
            <_><var>166</var>
              <quality>4.4215244054794312e-001</quality>
              <le>1.3805538415908813e-001</le></_>
            <_><var>86</var>
              <quality>4.4139656424522400e-001</quality>
              <le>3.5623524338006973e-002</le></_>
            <_><var>60</var>
              <quality>4.3978258967399597e-001</quality>
              <le>6.3604289293289185e-001</le></_>
            <_><var>20</var>
              <quality>4.3891707062721252e-001</quality>
              <le>4.9806946516036987e-001</le></_>
            <_><var>106</var>
              <quality>4.3879795074462891e-001</quality>
              <le>5.2470934391021729e-001</le></_>
            <_><var>123</var>
              <quality>4.3869596719741821e-001</quality>
              <le>1.0180654376745224e-001</le></_>
            <_><var>10</var>
              <quality>4.3825694918632507e-001</quality>
              <le>2.8121328353881836e-001</le></_>
            <_><var>193</var>
              <quality>4.3810287117958069e-001</quality>
              <le>7.6613917946815491e-002</le></_>
            <_><var>36</var>
              <quality>4.3775346875190735e-001</quality>
              <le>7.1264576911926270e-001</le></_>
            <_><var>183</var>
              <quality>4.3761849403381348e-001</quality>
              <le>2.4937734007835388e-002</le></_>
            <_><var>150</var>
              <quality>4.3759742379188538e-001</quality>
              <le>1.6039004921913147e-001</le></_>
            <_><var>186</var>
              <quality>4.3758407235145569e-001</quality>
              <le>2.3606768250465393e-001</le></_>
            <_><var>146</var>
              <quality>4.3595176935195923e-001</quality>
              <le>4.1959069669246674e-002</le></_>
            <_><var>190</var>
              <quality>4.3537035584449768e-001</quality>
              <le>8.3197009563446045e-001</le></_>
            <_><var>100</var>
              <quality>4.3537035584449768e-001</quality>
              <le>2.3927637934684753e-001</le></_>
            <_><var>156</var>
              <quality>4.3517869710922241e-001</quality>
              <le>7.9102516174316406e-001</le></_>
            <_><var>160</var>
              <quality>4.3510070443153381e-001</quality>
              <le>5.7025629281997681e-001</le></_></splits></_>
        <_>
          <depth>1</depth>
          <sample_count>3167</sample_count>
          <value>-1.9076738900871504e-001</value>
          <norm_class_idx>0</norm_class_idx>
          <Tn>0</Tn>
          <complexity>0</complexity>
          <alpha>0.</alpha>
          <node_risk>0.</node_risk>
          <tree_risk>0.</tree_risk>
          <tree_error>0.</tree_error></_>
        <_>
          <depth>1</depth>
          <sample_count>286</sample_count>
          <value>7.7537545715718115e-001</value>
          <norm_class_idx>1</norm_class_idx>
          <Tn>0</Tn>
          <complexity>0</complexity>
          <alpha>0.</alpha>
          <node_risk>0.</node_risk>
          <tree_risk>0.</tree_risk>
          <tree_error>0.</tree_error></_></nodes></_>
    <_>
      <best_tree_idx>-1</best_tree_idx>
      <nodes>
        <_>
          <depth>0</depth>
          <sample_count>3453</sample_count>
          <value>-1.5543122344752215e-015</value>
          <norm_class_idx>0</norm_class_idx>
          <Tn>0</Tn>
          <complexity>0</complexity>
          <alpha>0.</alpha>
          <node_risk>0.</node_risk>
          <tree_risk>0.</tree_risk>
          <tree_error>0.</tree_error>
          <splits>
            <_><var>16</var>
              <quality>5.4127889871597290e-001</quality>
              <le>3.0656967312097549e-002</le></_>
            <_><var>60</var>
              <quality>4.7897094488143921e-001</quality>
              <le>5.9753265231847763e-002</le></_>
            <_><var>140</var>
              <quality>4.7752961516380310e-001</quality>
              <le>3.0096463859081268e-002</le></_>
            <_><var>183</var>
              <quality>4.6958124637603760e-001</quality>
              <le>4.9937732517719269e-002</le></_>
            <_><var>153</var>
              <quality>4.6571186184883118e-001</quality>
              <le>1.0135495662689209e-001</le></_>
            <_><var>190</var>
              <quality>4.6524488925933838e-001</quality>
              <le>3.0656967312097549e-002</le></_>
            <_><var>33</var>
              <quality>4.6347904205322266e-001</quality>
              <le>1.1831674724817276e-001</le></_>
            <_><var>186</var>
              <quality>4.5866173505783081e-001</quality>
              <le>1.1995436251163483e-001</le></_>
            <_><var>46</var>
              <quality>4.5457011461257935e-001</quality>
              <le>4.1959069669246674e-002</le></_>
            <_><var>26</var>
              <quality>4.5444345474243164e-001</quality>
              <le>7.5921094417572021e-001</le></_>
            <_><var>163</var>
              <quality>4.5351403951644897e-001</quality>
              <le>7.4535600841045380e-002</le></_>
            <_><var>86</var>
              <quality>4.5345541834831238e-001</quality>
              <le>2.9340875148773193e-001</le></_>
            <_><var>146</var>
              <quality>4.5322704315185547e-001</quality>
              <le>1.0459122061729431e-001</le></_>
            <_><var>43</var>
              <quality>4.5219236612319946e-001</quality>
              <le>5.1031038165092468e-002</le></_>
            <_><var>93</var>
              <quality>4.5169049501419067e-001</quality>
              <le>2.9451447725296021e-001</le></_>
            <_><var>156</var>
              <quality>4.5097175240516663e-001</quality>
              <le>6.7308926582336426e-001</le></_>
            <_><var>10</var>
              <quality>4.5092388987541199e-001</quality>
              <le>3.0096463859081268e-002</le></_>
            <_><var>160</var>
              <quality>4.5070517063140869e-001</quality>
              <le>4.2063051462173462e-001</le></_>
            <_><var>150</var>
              <quality>4.5045024156570435e-001</quality>
              <le>1.2404297292232513e-001</le></_>
            <_><var>193</var>
              <quality>4.4928109645843506e-001</quality>
              <le>7.6166674494743347e-002</le></_>
            <_><var>126</var>
              <quality>4.4846647977828979e-001</quality>
              <le>8.0503702163696289e-001</le></_>
            <_><var>103</var>
              <quality>4.4836911559104919e-001</quality>
              <le>2.7441066503524780e-001</le></_>
            <_><var>100</var>
              <quality>4.4803291559219360e-001</quality>
              <le>2.3927637934684753e-001</le></_>
            <_><var>53</var>
              <quality>4.4800058007240295e-001</quality>
              <le>5.7734429836273193e-001</le></_>
            <_><var>23</var>
              <quality>4.4793394207954407e-001</quality>
              <le>6.8318808078765869e-001</le></_></splits></_>
        <_>
          <depth>1</depth>
          <sample_count>3292</sample_count>
          <value>-1.3192489009762504e-001</value>
          <norm_class_idx>0</norm_class_idx>
          <Tn>0</Tn>
          <complexity>0</complexity>
          <alpha>0.</alpha>
          <node_risk>0.</node_risk>
          <tree_risk>0.</tree_risk>
          <tree_error>0.</tree_error></_>
        <_>
          <depth>1</depth>
          <sample_count>161</sample_count>
          <value>7.4045491442996614e-001</value>
          <norm_class_idx>1</norm_class_idx>
          <Tn>0</Tn>
          <complexity>0</complexity>
          <alpha>0.</alpha>
          <node_risk>0.</node_risk>
          <tree_risk>0.</tree_risk>
          <tree_error>0.</tree_error></_></nodes></_>
    <_>
      <best_tree_idx>-1</best_tree_idx>
      <nodes>
        <_>
          <depth>0</depth>
          <sample_count>3453</sample_count>
          <value>3.6415315207703809e-014</value>
          <norm_class_idx>1</norm_class_idx>
          <Tn>0</Tn>
          <complexity>0</complexity>
          <alpha>0.</alpha>
          <node_risk>0.</node_risk>
          <tree_risk>0.</tree_risk>
          <tree_error>0.</tree_error>
          <splits>
            <_><var>56</var>
              <quality>5.3279399871826172e-001</quality>
              <le>4.3033149093389511e-002</le></_>
            <_><var>66</var>
              <quality>5.1000672578811646e-001</quality>
              <le>3.8232952356338501e-001</le></_>
            <_><var>36</var>
              <quality>5.0183755159378052e-001</quality>
              <le>2.4626781046390533e-001</le></_>
            <_><var>116</var>
              <quality>4.9550181627273560e-001</quality>
              <le>6.7078948020935059e-002</le></_>
            <_><var>20</var>
              <quality>4.9172270298004150e-001</quality>
              <le>7.8838892281055450e-002</le></_>
            <_><var>120</var>
              <quality>4.9108281731605530e-001</quality>
              <le>4.1016498208045959e-001</le></_>
            <_><var>0</var>
              <quality>4.9026486277580261e-001</quality>
              <le>6.5211124718189240e-002</le></_>
            <_><var>83</var>
              <quality>4.8975172638893127e-001</quality>
              <le>3.2091414928436279e-001</le></_>
            <_><var>123</var>
              <quality>4.8863410949707031e-001</quality>
              <le>9.6536353230476379e-002</le></_>
            <_><var>30</var>
              <quality>4.8653909564018250e-001</quality>
              <le>3.0101129412651062e-001</le></_>
            <_><var>136</var>
              <quality>4.8645380139350891e-001</quality>
              <le>3.8766208291053772e-001</le></_>
            <_><var>96</var>
              <quality>4.8578292131423950e-001</quality>
              <le>5.7671821117401123e-001</le></_>
            <_><var>63</var>
              <quality>4.8578292131423950e-001</quality>
              <le>8.0964398384094238e-001</le></_></splits></_>
        <_>
          <depth>1</depth>
          <sample_count>3401</sample_count>
          <value>-7.9838544907780487e-002</value>
          <norm_class_idx>0</norm_class_idx>
          <Tn>0</Tn>
          <complexity>0</complexity>
          <alpha>0.</alpha>
          <node_risk>0.</node_risk>
          <tree_risk>0.</tree_risk>
          <tree_error>0.</tree_error></_>
        <_>
          <depth>1</depth>
          <sample_count>52</sample_count>
          <value>1.1668276284621701e+000</value>
          <norm_class_idx>1</norm_class_idx>
          <Tn>0</Tn>
          <complexity>0</complexity>
          <alpha>0.</alpha>
          <node_risk>0.</node_risk>
          <tree_risk>0.</tree_risk>
          <tree_error>0.</tree_error></_></nodes></_>
    <_>
      <best_tree_idx>-1</best_tree_idx>
      <nodes>
        <_>
          <depth>0</depth>
          <sample_count>3453</sample_count>
          <value>-6.4614980033188288e-014</value>
          <norm_class_idx>0</norm_class_idx>
          <Tn>0</Tn>
          <complexity>0</complexity>
          <alpha>0.</alpha>
          <node_risk>0.</node_risk>
          <tree_risk>0.</tree_risk>
          <tree_error>0.</tree_error>
          <splits>
            <_><var>26</var>
              <quality>5.3313291072845459e-001</quality>
              <le>1.1457557976245880e-001</le></_>
            <_><var>106</var>
              <quality>5.2043187618255615e-001</quality>
              <le>1.1688829958438873e-001</le></_>
            <_><var>110</var>
              <quality>5.1083141565322876e-001</quality>
              <le>3.8691163063049316e-002</le></_>
            <_><var>90</var>
              <quality>5.1079595088958740e-001</quality>
              <le>1.4097388088703156e-001</le></_>
            <_><var>160</var>
              <quality>4.9736481904983521e-001</quality>
              <le>3.4856837987899780e-001</le></_>
            <_><var>40</var>
              <quality>4.9595642089843750e-001</quality>
              <le>4.8471486568450928e-001</le></_></splits></_>
        <_>
          <depth>1</depth>
          <sample_count>3405</sample_count>
          <value>-7.4766516744005806e-002</value>
          <norm_class_idx>0</norm_class_idx>
          <Tn>0</Tn>
          <complexity>0</complexity>
          <alpha>0.</alpha>
          <node_risk>0.</node_risk>
          <tree_risk>0.</tree_risk>
          <tree_error>0.</tree_error></_>
        <_>
          <depth>1</depth>
          <sample_count>48</sample_count>
          <value>1.4121701649481948e+000</value>
          <norm_class_idx>1</norm_class_idx>
          <Tn>0</Tn>
          <complexity>0</complexity>
          <alpha>0.</alpha>
          <node_risk>0.</node_risk>
          <tree_risk>0.</tree_risk>
          <tree_error>0.</tree_error></_></nodes></_>
    <_>
      <best_tree_idx>-1</best_tree_idx>
      <nodes>
        <_>
          <depth>0</depth>
          <sample_count>3450</sample_count>
          <value>-3.1608375371461436e-004</value>
          <norm_class_idx>0</norm_class_idx>
          <Tn>0</Tn>
          <complexity>0</complexity>
          <alpha>0.</alpha>
          <node_risk>0.</node_risk>
          <tree_risk>0.</tree_risk>
          <tree_error>0.</tree_error>
          <splits>
            <_><var>50</var>
              <quality>5.3375494480133057e-001</quality>
              <le>8.5952132940292358e-001</le></_>
            <_><var>100</var>
              <quality>4.4428643584251404e-001</quality>
              <le>4.9751859158277512e-002</le></_>
            <_><var>30</var>
              <quality>4.4409078359603882e-001</quality>
              <le>4.9751859158277512e-002</le></_></splits></_>
        <_>
          <depth>1</depth>
          <sample_count>3150</sample_count>
          <value>-1.2156973033263738e-001</value>
          <norm_class_idx>0</norm_class_idx>
          <Tn>0</Tn>
          <complexity>0</complexity>
          <alpha>0.</alpha>
          <node_risk>0.</node_risk>
          <tree_risk>0.</tree_risk>
          <tree_error>0.</tree_error></_>
        <_>
          <depth>1</depth>
          <sample_count>300</sample_count>
          <value>6.3574083416021443e-001</value>
          <norm_class_idx>1</norm_class_idx>
          <Tn>0</Tn>
          <complexity>0</complexity>
          <alpha>0.</alpha>
          <node_risk>0.</node_risk>
          <tree_risk>0.</tree_risk>
          <tree_error>0.</tree_error></_></nodes></_>
    <_>
      <best_tree_idx>-1</best_tree_idx>
      <nodes>
        <_>
          <depth>0</depth>
          <sample_count>3453</sample_count>
          <value>3.7036085192981746e-004</value>
          <norm_class_idx>1</norm_class_idx>
          <Tn>0</Tn>
          <complexity>0</complexity>
          <alpha>0.</alpha>
          <node_risk>0.</node_risk>
          <tree_risk>0.</tree_risk>
          <tree_error>0.</tree_error>
          <splits>
            <_><var>3</var>
              <quality>5.2945601940155029e-001</quality>
              <le>3.9163023233413696e-002</le></_>
            <_><var>156</var>
              <quality>5.0719916820526123e-001</quality>
              <le>3.2826609909534454e-002</le></_>
            <_><var>76</var>
              <quality>4.9468788504600525e-001</quality>
              <le>2.9919314384460449e-001</le></_>
            <_><var>193</var>
              <quality>4.8840373754501343e-001</quality>
              <le>1.5180785953998566e-001</le></_>
            <_><var>113</var>
              <quality>4.8566672205924988e-001</quality>
              <le>6.2994021177291870e-001</le></_>
            <_><var>60</var>
              <quality>4.8418444395065308e-001</quality>
              <le>5.1040768623352051e-001</le></_>
            <_><var>70</var>
              <quality>4.8250520229339600e-001</quality>
              <le>3.6956101655960083e-001</le></_>
            <_><var>53</var>
              <quality>4.8213860392570496e-001</quality>
              <le>1.8944272398948669e-001</le></_>
            <_><var>23</var>
              <quality>4.8120871186256409e-001</quality>
              <le>4.2808115482330322e-001</le></_>
            <_><var>173</var>
              <quality>4.8115172982215881e-001</quality>
              <le>5.8127796649932861e-001</le></_>
            <_><var>123</var>
              <quality>4.8087340593338013e-001</quality>
              <le>4.9317583441734314e-001</le></_>
            <_><var>10</var>
              <quality>4.8062765598297119e-001</quality>
              <le>4.4739252328872681e-001</le></_>
            <_><var>63</var>
              <quality>4.8031082749366760e-001</quality>
              <le>6.4445281028747559e-001</le></_>
            <_><var>126</var>
              <quality>4.7988170385360718e-001</quality>
              <le>8.0503702163696289e-001</le></_></splits></_>
        <_>
          <depth>1</depth>
          <sample_count>3390</sample_count>
          <value>-7.7810525912380704e-002</value>
          <norm_class_idx>0</norm_class_idx>
          <Tn>0</Tn>
          <complexity>0</complexity>
          <alpha>0.</alpha>
          <node_risk>0.</node_risk>
          <tree_risk>0.</tree_risk>
          <tree_error>0.</tree_error></_>
        <_>
          <depth>1</depth>
          <sample_count>63</sample_count>
          <value>9.8545191065963855e-001</value>
          <norm_class_idx>1</norm_class_idx>
          <Tn>0</Tn>
          <complexity>0</complexity>
          <alpha>0.</alpha>
          <node_risk>0.</node_risk>
          <tree_risk>0.</tree_risk>
          <tree_error>0.</tree_error></_></nodes></_>
    <_>
      <best_tree_idx>-1</best_tree_idx>
      <nodes>
        <_>
          <depth>0</depth>
          <sample_count>3453</sample_count>
          <value>-2.8033131371785988e-014</value>
          <norm_class_idx>0</norm_class_idx>
          <Tn>0</Tn>
          <complexity>0</complexity>
          <alpha>0.</alpha>
          <node_risk>0.</node_risk>
          <tree_risk>0.</tree_risk>
          <tree_error>0.</tree_error>
          <splits>
            <_><var>126</var>
              <quality>5.2089571952819824e-001</quality>
              <le>4.3486647307872772e-002</le></_>
            <_><var>6</var>
              <quality>4.1064107418060303e-001</quality>
              <le>1.6620561480522156e-002</le></_>
            <_><var>100</var>
              <quality>3.8723927736282349e-001</quality>
              <le>4.9751859158277512e-002</le></_>
            <_><var>116</var>
              <quality>3.8707768917083740e-001</quality>
              <le>1.9521720707416534e-002</le></_>
            <_><var>30</var>
              <quality>3.8672235608100891e-001</quality>
              <le>4.9751859158277512e-002</le></_>
            <_><var>0</var>
              <quality>3.8670805096626282e-001</quality>
              <le>1.5912100672721863e-001</le></_>
            <_><var>133</var>
              <quality>3.8653969764709473e-001</quality>
              <le>9.0729999542236328e-001</le></_>
            <_><var>113</var>
              <quality>3.8636475801467896e-001</quality>
              <le>1.1837843060493469e-001</le></_>
            <_><var>13</var>
              <quality>3.8547804951667786e-001</quality>
              <le>7.9918241500854492e-001</le></_>
            <_><var>106</var>
              <quality>3.8518959283828735e-001</quality>
              <le>5.2470934391021729e-001</le></_>
            <_><var>83</var>
              <quality>3.8482305407524109e-001</quality>
              <le>2.8365311026573181e-001</le></_>
            <_><var>43</var>
              <quality>3.8453605771064758e-001</quality>
              <le>2.6289170980453491e-001</le></_></splits></_>
        <_>
          <depth>1</depth>
          <sample_count>3095</sample_count>
          <value>-1.2257467481051895e-001</value>
          <norm_class_idx>0</norm_class_idx>
          <Tn>0</Tn>
          <complexity>0</complexity>
          <alpha>0.</alpha>
          <node_risk>0.</node_risk>
          <tree_risk>0.</tree_risk>
          <tree_error>0.</tree_error></_>
        <_>
          <depth>1</depth>
          <sample_count>358</sample_count>
          <value>3.5709529660941713e-001</value>
          <norm_class_idx>1</norm_class_idx>
          <Tn>0</Tn>
          <complexity>0</complexity>
          <alpha>0.</alpha>
          <node_risk>0.</node_risk>
          <tree_risk>0.</tree_risk>
          <tree_error>0.</tree_error></_></nodes></_>
    <_>
      <best_tree_idx>-1</best_tree_idx>
      <nodes>
        <_>
          <depth>0</depth>
          <sample_count>3453</sample_count>
          <value>-5.8286708792821058e-015</value>
          <norm_class_idx>0</norm_class_idx>
          <Tn>0</Tn>
          <complexity>0</complexity>
          <alpha>0.</alpha>
          <node_risk>0.</node_risk>
          <tree_risk>0.</tree_risk>
          <tree_error>0.</tree_error>
          <splits>
            <_><var>183</var>
              <quality>5.2228862047195435e-001</quality>
              <le>1.0163597762584686e-001</le></_>
            <_><var>153</var>
              <quality>5.0664484500885010e-001</quality>
              <le>8.9687824249267578e-002</le></_>
            <_><var>190</var>
              <quality>5.0086236000061035e-001</quality>
              <le>3.0656967312097549e-002</le></_>
            <_><var>186</var>
              <quality>4.9976843595504761e-001</quality>
              <le>3.3864274621009827e-002</le></_>
            <_><var>10</var>
              <quality>4.9387162923812866e-001</quality>
              <le>3.0096463859081268e-002</le></_>
            <_><var>33</var>
              <quality>4.9189001321792603e-001</quality>
              <le>2.0989485085010529e-001</le></_>
            <_><var>93</var>
              <quality>4.9063682556152344e-001</quality>
              <le>2.2475469112396240e-001</le></_>
            <_><var>86</var>
              <quality>4.9016499519348145e-001</quality>
              <le>3.5623524338006973e-002</le></_>
            <_><var>146</var>
              <quality>4.8998489975929260e-001</quality>
              <le>8.4216780960559845e-002</le></_>
            <_><var>43</var>
              <quality>4.8974329233169556e-001</quality>
              <le>5.1031038165092468e-002</le></_>
            <_><var>166</var>
              <quality>4.8914462327957153e-001</quality>
              <le>3.1336876749992371e-001</le></_>
            <_><var>150</var>
              <quality>4.8889756202697754e-001</quality>
              <le>1.2404297292232513e-001</le></_>
            <_><var>53</var>
              <quality>4.8713639378547668e-001</quality>
              <le>1.4745716750621796e-001</le></_>
            <_><var>160</var>
              <quality>4.8704570531845093e-001</quality>
              <le>4.2063051462173462e-001</le></_>
            <_><var>60</var>
              <quality>4.8701050877571106e-001</quality>
              <le>7.7828478813171387e-001</le></_></splits></_>
        <_>
          <depth>1</depth>
          <sample_count>3394</sample_count>
          <value>-5.6886402424113032e-002</value>
          <norm_class_idx>0</norm_class_idx>
          <Tn>0</Tn>
          <complexity>0</complexity>
          <alpha>0.</alpha>
          <node_risk>0.</node_risk>
          <tree_risk>0.</tree_risk>
          <tree_error>0.</tree_error></_>
        <_>
          <depth>1</depth>
          <sample_count>59</sample_count>
          <value>1.0568736666570753e+000</value>
          <norm_class_idx>1</norm_class_idx>
          <Tn>0</Tn>
          <complexity>0</complexity>
          <alpha>0.</alpha>
          <node_risk>0.</node_risk>
          <tree_risk>0.</tree_risk>
          <tree_error>0.</tree_error></_></nodes></_>
    <_>
      <best_tree_idx>-1</best_tree_idx>
      <nodes>
        <_>
          <depth>0</depth>
          <sample_count>3452</sample_count>
          <value>-5.7068694508975716e-005</value>
          <norm_class_idx>0</norm_class_idx>
          <Tn>0</Tn>
          <complexity>0</complexity>
          <alpha>0.</alpha>
          <node_risk>0.</node_risk>
          <tree_risk>0.</tree_risk>
          <tree_error>0.</tree_error>
          <splits>
            <_><var>20</var>
              <quality>5.2277785539627075e-001</quality>
              <le>3.5805743187665939e-002</le></_>
            <_><var>123</var>
              <quality>4.9559438228607178e-001</quality>
              <le>3.4752402454614639e-002</le></_>
            <_><var>196</var>
              <quality>4.8801311850547791e-001</quality>
              <le>2.3904572427272797e-001</le></_>
            <_><var>96</var>
              <quality>4.8638075590133667e-001</quality>
              <le>7.9694926738739014e-002</le></_>
            <_><var>113</var>
              <quality>4.8469153046607971e-001</quality>
              <le>4.1718557476997375e-001</le></_>
            <_><var>53</var>
              <quality>4.8343902826309204e-001</quality>
              <le>9.4941303133964539e-002</le></_>
            <_><var>120</var>
              <quality>4.8210811614990234e-001</quality>
              <le>1.9289869070053101e-001</le></_>
            <_><var>63</var>
              <quality>4.8174762725830078e-001</quality>
              <le>4.8506695032119751e-001</le></_>
            <_><var>23</var>
              <quality>4.8108121752738953e-001</quality>
              <le>2.5338292121887207e-001</le></_>
            <_><var>56</var>
              <quality>4.8037308454513550e-001</quality>
              <le>7.6805102825164795e-001</le></_>
            <_><var>173</var>
              <quality>4.7999426722526550e-001</quality>
              <le>8.5722166299819946e-001</le></_>
            <_><var>36</var>
              <quality>4.7923496365547180e-001</quality>
              <le>7.1264576911926270e-001</le></_></splits></_>
        <_>
          <depth>1</depth>
          <sample_count>3380</sample_count>
          <value>-6.5236431530886874e-002</value>
          <norm_class_idx>0</norm_class_idx>
          <Tn>0</Tn>
          <complexity>0</complexity>
          <alpha>0.</alpha>
          <node_risk>0.</node_risk>
          <tree_risk>0.</tree_risk>
          <tree_error>0.</tree_error></_>
        <_>
          <depth>1</depth>
          <sample_count>72</sample_count>
          <value>8.6883332061899998e-001</value>
          <norm_class_idx>1</norm_class_idx>
          <Tn>0</Tn>
          <complexity>0</complexity>
          <alpha>0.</alpha>
          <node_risk>0.</node_risk>
          <tree_risk>0.</tree_risk>
          <tree_error>0.</tree_error></_></nodes></_>
    <_>
      <best_tree_idx>-1</best_tree_idx>
      <nodes>
        <_>
          <depth>0</depth>
          <sample_count>3452</sample_count>
          <value>-9.7699626167014738e-015</value>
          <norm_class_idx>0</norm_class_idx>
          <Tn>0</Tn>
          <complexity>0</complexity>
          <alpha>0.</alpha>
          <node_risk>0.</node_risk>
          <tree_risk>0.</tree_risk>
          <tree_error>0.</tree_error>
          <splits>
            <_><var>140</var>
              <quality>5.2186661958694458e-001</quality>
              <le>8.2144522666931152e-001</le></_></splits></_>
        <_>
          <depth>1</depth>
          <sample_count>3439</sample_count>
          <value>-4.5434118096218730e-002</value>
          <norm_class_idx>0</norm_class_idx>
          <Tn>0</Tn>
          <complexity>0</complexity>
          <alpha>0.</alpha>
          <node_risk>0.</node_risk>
          <tree_risk>0.</tree_risk>
          <tree_error>0.</tree_error></_>
        <_>
          <depth>1</depth>
          <sample_count>13</sample_count>
          <value>2.0091093030710216e+000</value>
          <norm_class_idx>1</norm_class_idx>
          <Tn>0</Tn>
          <complexity>0</complexity>
          <alpha>0.</alpha>
          <node_risk>0.</node_risk>
          <tree_risk>0.</tree_risk>
          <tree_error>0.</tree_error></_></nodes></_>
    <_>
      <best_tree_idx>-1</best_tree_idx>
      <nodes>
        <_>
          <depth>0</depth>
          <sample_count>3452</sample_count>
          <value>-7.6050277186823807e-015</value>
          <norm_class_idx>0</norm_class_idx>
          <Tn>0</Tn>
          <complexity>0</complexity>
          <alpha>0.</alpha>
          <node_risk>0.</node_risk>
          <tree_risk>0.</tree_risk>
          <tree_error>0.</tree_error>
          <splits>
            <_><var>176</var>
              <quality>5.1899719238281250e-001</quality>
              <le>3.7383949756622314e-001</le></_>
            <_><var>136</var>
              <quality>4.9253243207931519e-001</quality>
              <le>6.1719238758087158e-001</le></_>
            <_><var>193</var>
              <quality>4.9247533082962036e-001</quality>
              <le>6.8107366561889648e-001</le></_></splits></_>
        <_>
          <depth>1</depth>
          <sample_count>2982</sample_count>
          <value>4.5412664686980596e-002</value>
          <norm_class_idx>1</norm_class_idx>
          <Tn>0</Tn>
          <complexity>0</complexity>
          <alpha>0.</alpha>
          <node_risk>0.</node_risk>
          <tree_risk>0.</tree_risk>
          <tree_error>0.</tree_error></_>
        <_>
          <depth>1</depth>
          <sample_count>470</sample_count>
          <value>-1.2170227536138210e+000</value>
          <norm_class_idx>0</norm_class_idx>
          <Tn>0</Tn>
          <complexity>0</complexity>
          <alpha>0.</alpha>
          <node_risk>0.</node_risk>
          <tree_risk>0.</tree_risk>
          <tree_error>0.</tree_error></_></nodes></_>
    <_>
      <best_tree_idx>-1</best_tree_idx>
      <nodes>
        <_>
          <depth>0</depth>
          <sample_count>3005</sample_count>
          <value>1.2026740251883853e-002</value>
          <norm_class_idx>1</norm_class_idx>
          <Tn>0</Tn>
          <complexity>0</complexity>
          <alpha>0.</alpha>
          <node_risk>0.</node_risk>
          <tree_risk>0.</tree_risk>
          <tree_error>0.</tree_error>
          <splits>
            <_><var>176</var>
              <quality>5.1141655445098877e-001</quality>
              <le>3.4752402454614639e-002</le></_>
            <_><var>163</var>
              <quality>4.6809515357017517e-001</quality>
              <le>5.5593633651733398e-001</le></_>
            <_><var>46</var>
              <quality>4.6714293956756592e-001</quality>
              <le>5.4979163408279419e-001</le></_>
            <_><var>73</var>
              <quality>4.6476247906684875e-001</quality>
              <le>4.6423834562301636e-001</le></_>
            <_><var>23</var>
              <quality>4.5667985081672668e-001</quality>
              <le>1.7056141793727875e-001</le></_>
            <_><var>156</var>
              <quality>4.5623889565467834e-001</quality>
              <le>7.3337817192077637e-001</le></_>
            <_><var>70</var>
              <quality>4.5588392019271851e-001</quality>
              <le>4.4851639866828918e-001</le></_>
            <_><var>136</var>
              <quality>4.5582973957061768e-001</quality>
              <le>7.2855341434478760e-001</le></_>
            <_><var>173</var>
              <quality>4.5581856369972229e-001</quality>
              <le>6.2731790542602539e-001</le></_>
            <_><var>56</var>
              <quality>4.5577853918075562e-001</quality>
              <le>8.0372345447540283e-001</le></_>
            <_><var>86</var>
              <quality>4.5576202869415283e-001</quality>
              <le>6.9350343942642212e-001</le></_>
            <_><var>76</var>
              <quality>4.5573395490646362e-001</quality>
              <le>5.6598180532455444e-001</le></_>
            <_><var>96</var>
              <quality>4.5555359125137329e-001</quality>
              <le>4.6910309791564941e-001</le></_></splits></_>
        <_>
          <depth>1</depth>
          <sample_count>2873</sample_count>
          <value>-5.3642112521005529e-002</value>
          <norm_class_idx>0</norm_class_idx>
          <Tn>0</Tn>
          <complexity>0</complexity>
          <alpha>0.</alpha>
          <node_risk>0.</node_risk>
          <tree_risk>0.</tree_risk>
          <tree_error>0.</tree_error></_>
        <_>
          <depth>1</depth>
          <sample_count>132</sample_count>
          <value>6.1310485872789178e-001</value>
          <norm_class_idx>1</norm_class_idx>
          <Tn>0</Tn>
          <complexity>0</complexity>
          <alpha>0.</alpha>
          <node_risk>0.</node_risk>
          <tree_risk>0.</tree_risk>
          <tree_error>0.</tree_error></_></nodes></_>
    <_>
      <best_tree_idx>-1</best_tree_idx>
      <nodes>
        <_>
          <depth>0</depth>
          <sample_count>3039</sample_count>
          <value>-3.9528683982769418e-003</value>
          <norm_class_idx>0</norm_class_idx>
          <Tn>0</Tn>
          <complexity>0</complexity>
          <alpha>0.</alpha>
          <node_risk>0.</node_risk>
          <tree_risk>0.</tree_risk>
          <tree_error>0.</tree_error>
          <splits>
            <_><var>36</var>
              <quality>5.0528353452682495e-001</quality>
              <le>2.3255899548530579e-001</le></_>
            <_><var>66</var>
              <quality>4.7989222407341003e-001</quality>
              <le>5.6515693664550781e-001</le></_>
            <_><var>176</var>
              <quality>4.7716718912124634e-001</quality>
              <le>7.2855341434478760e-001</le></_>
            <_><var>56</var>
              <quality>4.7678446769714355e-001</quality>
              <le>1.8952897191047668e-001</le></_>
            <_><var>136</var>
              <quality>4.7669327259063721e-001</quality>
              <le>3.8766208291053772e-001</le></_>
            <_><var>113</var>
              <quality>4.7643470764160156e-001</quality>
              <le>6.2994021177291870e-001</le></_>
            <_><var>150</var>
              <quality>4.7529301047325134e-001</quality>
              <le>4.3982642889022827e-001</le></_>
            <_><var>116</var>
              <quality>4.7480913996696472e-001</quality>
              <le>5.5010396242141724e-001</le></_></splits></_>
        <_>
          <depth>1</depth>
          <sample_count>2996</sample_count>
          <value>-4.7796195125744054e-002</value>
          <norm_class_idx>0</norm_class_idx>
          <Tn>0</Tn>
          <complexity>0</complexity>
          <alpha>0.</alpha>
          <node_risk>0.</node_risk>
          <tree_risk>0.</tree_risk>
          <tree_error>0.</tree_error></_>
        <_>
          <depth>1</depth>
          <sample_count>43</sample_count>
          <value>8.0610387058029365e-001</value>
          <norm_class_idx>1</norm_class_idx>
          <Tn>0</Tn>
          <complexity>0</complexity>
          <alpha>0.</alpha>
          <node_risk>0.</node_risk>
          <tree_risk>0.</tree_risk>
          <tree_error>0.</tree_error></_></nodes></_>
    <_>
      <best_tree_idx>-1</best_tree_idx>
      <nodes>
        <_>
          <depth>0</depth>
          <sample_count>3039</sample_count>
          <value>2.9753977059953312e-014</value>
          <norm_class_idx>1</norm_class_idx>
          <Tn>0</Tn>
          <complexity>0</complexity>
          <alpha>0.</alpha>
          <node_risk>0.</node_risk>
          <tree_risk>0.</tree_risk>
          <tree_error>0.</tree_error>
          <splits>
            <_><var>33</var>
              <quality>5.0534421205520630e-001</quality>
              <le>2.0989485085010529e-001</le></_>
            <_><var>186</var>
              <quality>4.9017840623855591e-001</quality>
              <le>1.2452156096696854e-001</le></_>
            <_><var>150</var>
              <quality>4.8645383119583130e-001</quality>
              <le>4.3852899223566055e-002</le></_>
            <_><var>153</var>
              <quality>4.8565983772277832e-001</quality>
              <le>4.3428203463554382e-001</le></_>
            <_><var>130</var>
              <quality>4.8446193337440491e-001</quality>
              <le>6.8159639835357666e-001</le></_>
            <_><var>166</var>
              <quality>4.8386225104331970e-001</quality>
              <le>7.6493477821350098e-001</le></_>
            <_><var>183</var>
              <quality>4.8366069793701172e-001</quality>
              <le>5.8681750297546387e-001</le></_>
            <_><var>16</var>
              <quality>4.8351868987083435e-001</quality>
              <le>8.7136971950531006e-001</le></_>
            <_><var>53</var>
              <quality>4.8317807912826538e-001</quality>
              <le>3.8234713673591614e-001</le></_></splits></_>
        <_>
          <depth>1</depth>
          <sample_count>2992</sample_count>
          <value>-3.6488990955463194e-002</value>
          <norm_class_idx>0</norm_class_idx>
          <Tn>0</Tn>
          <complexity>0</complexity>
          <alpha>0.</alpha>
          <node_risk>0.</node_risk>
          <tree_risk>0.</tree_risk>
          <tree_error>0.</tree_error></_>
        <_>
          <depth>1</depth>
          <sample_count>47</sample_count>
          <value>1.0839246579405488e+000</value>
          <norm_class_idx>1</norm_class_idx>
          <Tn>0</Tn>
          <complexity>0</complexity>
          <alpha>0.</alpha>
          <node_risk>0.</node_risk>
          <tree_risk>0.</tree_risk>
          <tree_error>0.</tree_error></_></nodes></_>
    <_>
      <best_tree_idx>-1</best_tree_idx>
      <nodes>
        <_>
          <depth>0</depth>
          <sample_count>3034</sample_count>
          <value>-2.2736062320521651e-004</value>
          <norm_class_idx>0</norm_class_idx>
          <Tn>0</Tn>
          <complexity>0</complexity>
          <alpha>0.</alpha>
          <node_risk>0.</node_risk>
          <tree_risk>0.</tree_risk>
          <tree_error>0.</tree_error>
          <splits>
            <_><var>13</var>
              <quality>5.0513392686843872e-001</quality>
              <le>4.6342837810516357e-001</le></_>
            <_><var>130</var>
              <quality>4.7379148006439209e-001</quality>
              <le>5.4496854543685913e-001</le></_>
            <_><var>160</var>
              <quality>4.6493303775787354e-001</quality>
              <le>3.4001559019088745e-001</le></_>
            <_><var>186</var>
              <quality>4.6386858820915222e-001</quality>
              <le>4.7920331358909607e-001</le></_></splits></_>
        <_>
          <depth>1</depth>
          <sample_count>2938</sample_count>
          <value>-5.0666582408125840e-002</value>
          <norm_class_idx>0</norm_class_idx>
          <Tn>0</Tn>
          <complexity>0</complexity>
          <alpha>0.</alpha>
          <node_risk>0.</node_risk>
          <tree_risk>0.</tree_risk>
          <tree_error>0.</tree_error></_>
        <_>
          <depth>1</depth>
          <sample_count>96</sample_count>
          <value>6.3941945253238397e-001</value>
          <norm_class_idx>1</norm_class_idx>
          <Tn>0</Tn>
          <complexity>0</complexity>
          <alpha>0.</alpha>
          <node_risk>0.</node_risk>
          <tree_risk>0.</tree_risk>
          <tree_error>0.</tree_error></_></nodes></_>
    <_>
      <best_tree_idx>-1</best_tree_idx>
      <nodes>
        <_>
          <depth>0</depth>
          <sample_count>3037</sample_count>
          <value>-8.6856976634255004e-005</value>
          <norm_class_idx>0</norm_class_idx>
          <Tn>0</Tn>
          <complexity>0</complexity>
          <alpha>0.</alpha>
          <node_risk>0.</node_risk>
          <tree_risk>0.</tree_risk>
          <tree_error>0.</tree_error>
          <splits>
            <_><var>50</var>
              <quality>5.0756621360778809e-001</quality>
              <le>9.5428264141082764e-001</le></_></splits></_>
        <_>
          <depth>1</depth>
          <sample_count>2805</sample_count>
          <value>-7.6625192523576746e-002</value>
          <norm_class_idx>0</norm_class_idx>
          <Tn>0</Tn>
          <complexity>0</complexity>
          <alpha>0.</alpha>
          <node_risk>0.</node_risk>
          <tree_risk>0.</tree_risk>
          <tree_error>0.</tree_error></_>
        <_>
          <depth>1</depth>
          <sample_count>232</sample_count>
          <value>4.5660073430984666e-001</value>
          <norm_class_idx>1</norm_class_idx>
          <Tn>0</Tn>
          <complexity>0</complexity>
          <alpha>0.</alpha>
          <node_risk>0.</node_risk>
          <tree_risk>0.</tree_risk>
          <tree_error>0.</tree_error></_></nodes></_>
    <_>
      <best_tree_idx>-1</best_tree_idx>
      <nodes>
        <_>
          <depth>0</depth>
          <sample_count>3037</sample_count>
          <value>-7.4940054162198634e-015</value>
          <norm_class_idx>0</norm_class_idx>
          <Tn>0</Tn>
          <complexity>0</complexity>
          <alpha>0.</alpha>
          <node_risk>0.</node_risk>
          <tree_risk>0.</tree_risk>
          <tree_error>0.</tree_error>
          <splits>
            <_><var>76</var>
              <quality>5.0866717100143433e-001</quality>
              <le>2.8304737806320190e-001</le></_>
            <_><var>156</var>
              <quality>4.9210664629936218e-001</quality>
              <le>4.5220863819122314e-001</le></_>
            <_><var>23</var>
              <quality>4.8817941546440125e-001</quality>
              <le>2.0022296905517578e-001</le></_>
            <_><var>3</var>
              <quality>4.8529225587844849e-001</quality>
              <le>3.0539506673812866e-001</le></_>
            <_><var>60</var>
              <quality>4.8507148027420044e-001</quality>
              <le>6.8262600898742676e-001</le></_>
            <_><var>173</var>
              <quality>4.8504680395126343e-001</quality>
              <le>6.1385887861251831e-001</le></_>
            <_><var>193</var>
              <quality>4.8474538326263428e-001</quality>
              <le>3.2067954540252686e-001</le></_></splits></_>
        <_>
          <depth>1</depth>
          <sample_count>3010</sample_count>
          <value>-4.1889455668869348e-002</value>
          <norm_class_idx>0</norm_class_idx>
          <Tn>0</Tn>
          <complexity>0</complexity>
          <alpha>0.</alpha>
          <node_risk>0.</node_risk>
          <tree_risk>0.</tree_risk>
          <tree_error>0.</tree_error></_>
        <_>
          <depth>1</depth>
          <sample_count>27</sample_count>
          <value>1.1273302252169515e+000</value>
          <norm_class_idx>1</norm_class_idx>
          <Tn>0</Tn>
          <complexity>0</complexity>
          <alpha>0.</alpha>
          <node_risk>0.</node_risk>
          <tree_risk>0.</tree_risk>
          <tree_error>0.</tree_error></_></nodes></_>
    <_>
      <best_tree_idx>-1</best_tree_idx>
      <nodes>
        <_>
          <depth>0</depth>
          <sample_count>3038</sample_count>
          <value>-1.2238719268259981e-004</value>
          <norm_class_idx>0</norm_class_idx>
          <Tn>0</Tn>
          <complexity>0</complexity>
          <alpha>0.</alpha>
          <node_risk>0.</node_risk>
          <tree_risk>0.</tree_risk>
          <tree_error>0.</tree_error>
          <splits>
            <_><var>6</var>
              <quality>5.0751507282257080e-001</quality>
              <le>2.5953423976898193e-001</le></_>
            <_><var>126</var>
              <quality>4.1203209757804871e-001</quality>
              <le>2.2423315048217773e-001</le></_>
            <_><var>130</var>
              <quality>3.7889271974563599e-001</quality>
              <le>5.4496854543685913e-001</le></_>
            <_><var>100</var>
              <quality>3.7683290243148804e-001</quality>
              <le>4.9751859158277512e-002</le></_>
            <_><var>30</var>
              <quality>3.7617751955986023e-001</quality>
              <le>4.9751859158277512e-002</le></_>
            <_><var>113</var>
              <quality>3.7488934397697449e-001</quality>
              <le>1.1837843060493469e-001</le></_>
            <_><var>53</var>
              <quality>3.7342098355293274e-001</quality>
              <le>4.1780492663383484e-001</le></_>
            <_><var>106</var>
              <quality>3.7304049730300903e-001</quality>
              <le>8.5395646095275879e-001</le></_></splits></_>
        <_>
          <depth>1</depth>
          <sample_count>2262</sample_count>
          <value>-1.0662765369911367e-001</value>
          <norm_class_idx>0</norm_class_idx>
          <Tn>0</Tn>
          <complexity>0</complexity>
          <alpha>0.</alpha>
          <node_risk>0.</node_risk>
          <tree_risk>0.</tree_risk>
          <tree_error>0.</tree_error></_>
        <_>
          <depth>1</depth>
          <sample_count>776</sample_count>
          <value>3.0308087423424473e-001</value>
          <norm_class_idx>1</norm_class_idx>
          <Tn>0</Tn>
          <complexity>0</complexity>
          <alpha>0.</alpha>
          <node_risk>0.</node_risk>
          <tree_risk>0.</tree_risk>
          <tree_error>0.</tree_error></_></nodes></_>
    <_>
      <best_tree_idx>-1</best_tree_idx>
      <nodes>
        <_>
          <depth>0</depth>
          <sample_count>3043</sample_count>
          <value>1.9182896559378083e-004</value>
          <norm_class_idx>1</norm_class_idx>
          <Tn>0</Tn>
          <complexity>0</complexity>
          <alpha>0.</alpha>
          <node_risk>0.</node_risk>
          <tree_risk>0.</tree_risk>
          <tree_error>0.</tree_error>
          <splits>
            <_><var>6</var>
              <quality>5.0970995426177979e-001</quality>
              <le>9.9202787876129150e-001</le></_></splits></_>
        <_>
          <depth>1</depth>
          <sample_count>2698</sample_count>
          <value>3.4335256892437889e-002</value>
          <norm_class_idx>1</norm_class_idx>
          <Tn>0</Tn>
          <complexity>0</complexity>
          <alpha>0.</alpha>
          <node_risk>0.</node_risk>
          <tree_risk>0.</tree_risk>
          <tree_error>0.</tree_error></_>
        <_>
          <depth>1</depth>
          <sample_count>345</sample_count>
          <value>-5.7564577324601141e+000</value>
          <norm_class_idx>0</norm_class_idx>
          <Tn>0</Tn>
          <complexity>0</complexity>
          <alpha>0.</alpha>
          <node_risk>0.</node_risk>
          <tree_risk>0.</tree_risk>
          <tree_error>0.</tree_error></_></nodes></_>
    <_>
      <best_tree_idx>-1</best_tree_idx>
      <nodes>
        <_>
          <depth>0</depth>
          <sample_count>2698</sample_count>
          <value>1.3766765505351752e-014</value>
          <norm_class_idx>1</norm_class_idx>
          <Tn>0</Tn>
          <complexity>0</complexity>
          <alpha>0.</alpha>
          <node_risk>0.</node_risk>
          <tree_risk>0.</tree_risk>
          <tree_error>0.</tree_error>
          <splits>
            <_><var>0</var>
              <quality>5.0735354423522949e-001</quality>
              <le>3.0542360618710518e-002</le></_>
            <_><var>116</var>
              <quality>4.8641347885131836e-001</quality>
              <le>1.9521720707416534e-002</le></_>
            <_><var>66</var>
              <quality>4.6940645575523376e-001</quality>
              <le>4.5739549398422241e-001</le></_>
            <_><var>133</var>
              <quality>4.6925407648086548e-001</quality>
              <le>6.7163848876953125e-001</le></_>
            <_><var>83</var>
              <quality>4.6826434135437012e-001</quality>
              <le>1.3608276844024658e-001</le></_>
            <_><var>56</var>
              <quality>4.6713811159133911e-001</quality>
              <le>7.6235675811767578e-001</le></_>
            <_><var>36</var>
              <quality>4.6535450220108032e-001</quality>
              <le>5.0354623794555664e-001</le></_>
            <_><var>166</var>
              <quality>4.6401262283325195e-001</quality>
              <le>2.1748355031013489e-001</le></_>
            <_><var>156</var>
              <quality>4.6318787336349487e-001</quality>
              <le>7.3337817192077637e-001</le></_>
            <_><var>146</var>
              <quality>4.6315819025039673e-001</quality>
              <le>4.9130749702453613e-001</le></_>
            <_><var>130</var>
              <quality>4.6279650926589966e-001</quality>
              <le>6.8159639835357666e-001</le></_>
            <_><var>100</var>
              <quality>4.6250140666961670e-001</quality>
              <le>2.3927637934684753e-001</le></_>
            <_><var>150</var>
              <quality>4.6234503388404846e-001</quality>
              <le>4.3982642889022827e-001</le></_></splits></_>
        <_>
          <depth>1</depth>
          <sample_count>2638</sample_count>
          <value>-5.4551118439760585e-002</value>
          <norm_class_idx>0</norm_class_idx>
          <Tn>0</Tn>
          <complexity>0</complexity>
          <alpha>0.</alpha>
          <node_risk>0.</node_risk>
          <tree_risk>0.</tree_risk>
          <tree_error>0.</tree_error></_>
        <_>
          <depth>1</depth>
          <sample_count>60</sample_count>
          <value>6.3232652459810379e-001</value>
          <norm_class_idx>1</norm_class_idx>
          <Tn>0</Tn>
          <complexity>0</complexity>
          <alpha>0.</alpha>
          <node_risk>0.</node_risk>
          <tree_risk>0.</tree_risk>
          <tree_error>0.</tree_error></_></nodes></_>
    <_>
      <best_tree_idx>-1</best_tree_idx>
      <nodes>
        <_>
          <depth>0</depth>
          <sample_count>2698</sample_count>
          <value>-1.2638713848463112e-004</value>
          <norm_class_idx>0</norm_class_idx>
          <Tn>0</Tn>
          <complexity>0</complexity>
          <alpha>0.</alpha>
          <node_risk>0.</node_risk>
          <tree_risk>0.</tree_risk>
          <tree_error>0.</tree_error>
          <splits>
            <_><var>113</var>
              <quality>5.0770789384841919e-001</quality>
              <le>1.1837843060493469e-001</le></_>
            <_><var>123</var>
              <quality>4.9820268154144287e-001</quality>
              <le>4.5278686285018921e-001</le></_>
            <_><var>196</var>
              <quality>4.9778851866722107e-001</quality>
              <le>2.3904572427272797e-001</le></_></splits></_>
        <_>
          <depth>1</depth>
          <sample_count>2695</sample_count>
          <value>-3.0790178887051045e-002</value>
          <norm_class_idx>0</norm_class_idx>
          <Tn>0</Tn>
          <complexity>0</complexity>
          <alpha>0.</alpha>
          <node_risk>0.</node_risk>
          <tree_risk>0.</tree_risk>
          <tree_error>0.</tree_error></_>
        <_>
          <depth>1</depth>
          <sample_count>3</sample_count>
          <value>5.7564577324623896e+000</value>
          <norm_class_idx>1</norm_class_idx>
          <Tn>0</Tn>
          <complexity>0</complexity>
          <alpha>0.</alpha>
          <node_risk>0.</node_risk>
          <tree_risk>0.</tree_risk>
          <tree_error>0.</tree_error></_></nodes></_>
    <_>
      <best_tree_idx>-1</best_tree_idx>
      <nodes>
        <_>
          <depth>0</depth>
          <sample_count>2696</sample_count>
          <value>6.5151876955937149e-005</value>
          <norm_class_idx>1</norm_class_idx>
          <Tn>0</Tn>
          <complexity>0</complexity>
          <alpha>0.</alpha>
          <node_risk>0.</node_risk>
          <tree_risk>0.</tree_risk>
          <tree_error>0.</tree_error>
          <splits>
            <_><var>6</var>
              <quality>5.0557923316955566e-001</quality>
              <le>8.9771443605422974e-001</le></_></splits></_>
        <_>
          <depth>1</depth>
          <sample_count>2596</sample_count>
          <value>-4.5781316542748848e-002</value>
          <norm_class_idx>0</norm_class_idx>
          <Tn>0</Tn>
          <complexity>0</complexity>
          <alpha>0.</alpha>
          <node_risk>0.</node_risk>
          <tree_risk>0.</tree_risk>
          <tree_error>0.</tree_error></_>
        <_>
          <depth>1</depth>
          <sample_count>100</sample_count>
          <value>6.5603993916071945e-001</value>
          <norm_class_idx>1</norm_class_idx>
          <Tn>0</Tn>
          <complexity>0</complexity>
          <alpha>0.</alpha>
          <node_risk>0.</node_risk>
          <tree_risk>0.</tree_risk>
          <tree_error>0.</tree_error></_></nodes></_>
    <_>
      <best_tree_idx>-1</best_tree_idx>
      <nodes>
        <_>
          <depth>0</depth>
          <sample_count>2696</sample_count>
          <value>3.9968028886505478e-015</value>
          <norm_class_idx>1</norm_class_idx>
          <Tn>0</Tn>
          <complexity>0</complexity>
          <alpha>0.</alpha>
          <node_risk>0.</node_risk>
          <tree_risk>0.</tree_risk>
          <tree_error>0.</tree_error>
          <splits>
            <_><var>40</var>
              <quality>5.0659090280532837e-001</quality>
              <le>4.4011312723159790e-001</le></_></splits></_>
        <_>
          <depth>1</depth>
          <sample_count>2660</sample_count>
          <value>-4.1985904892259771e-002</value>
          <norm_class_idx>0</norm_class_idx>
          <Tn>0</Tn>
          <complexity>0</complexity>
          <alpha>0.</alpha>
          <node_risk>0.</node_risk>
          <tree_risk>0.</tree_risk>
          <tree_error>0.</tree_error></_>
        <_>
          <depth>1</depth>
          <sample_count>36</sample_count>
          <value>8.0912321104030593e-001</value>
          <norm_class_idx>1</norm_class_idx>
          <Tn>0</Tn>
          <complexity>0</complexity>
          <alpha>0.</alpha>
          <node_risk>0.</node_risk>
          <tree_risk>0.</tree_risk>
          <tree_error>0.</tree_error></_></nodes></_>
    <_>
      <best_tree_idx>-1</best_tree_idx>
      <nodes>
        <_>
          <depth>0</depth>
          <sample_count>2698</sample_count>
          <value>-1.3006466244819287e-005</value>
          <norm_class_idx>0</norm_class_idx>
          <Tn>0</Tn>
          <complexity>0</complexity>
          <alpha>0.</alpha>
          <node_risk>0.</node_risk>
          <tree_risk>0.</tree_risk>
          <tree_error>0.</tree_error>
          <splits>
            <_><var>163</var>
              <quality>5.0595217943191528e-001</quality>
              <le>5.5593633651733398e-001</le></_>
            <_><var>46</var>
              <quality>5.0416713953018188e-001</quality>
              <le>5.4979163408279419e-001</le></_>
            <_><var>53</var>
              <quality>4.9076601862907410e-001</quality>
              <le>5.7734429836273193e-001</le></_></splits></_>
        <_>
          <depth>1</depth>
          <sample_count>2689</sample_count>
          <value>-2.8626352530502580e-002</value>
          <norm_class_idx>0</norm_class_idx>
          <Tn>0</Tn>
          <complexity>0</complexity>
          <alpha>0.</alpha>
          <node_risk>0.</node_risk>
          <tree_risk>0.</tree_risk>
          <tree_error>0.</tree_error></_>
        <_>
          <depth>1</depth>
          <sample_count>9</sample_count>
          <value>1.5876451383313186e+000</value>
          <norm_class_idx>1</norm_class_idx>
          <Tn>0</Tn>
          <complexity>0</complexity>
          <alpha>0.</alpha>
          <node_risk>0.</node_risk>
          <tree_risk>0.</tree_risk>
          <tree_error>0.</tree_error></_></nodes></_>
    <_>
      <best_tree_idx>-1</best_tree_idx>
      <nodes>
        <_>
          <depth>0</depth>
          <sample_count>2699</sample_count>
          <value>-1.6842626151418474e-004</value>
          <norm_class_idx>0</norm_class_idx>
          <Tn>0</Tn>
          <complexity>0</complexity>
          <alpha>0.</alpha>
          <node_risk>0.</node_risk>
          <tree_risk>0.</tree_risk>
          <tree_error>0.</tree_error>
          <splits>
            <_><var>110</var>
              <quality>5.0545924901962280e-001</quality>
              <le>2.6166749000549316e-001</le></_>
            <_><var>106</var>
              <quality>4.9483731389045715e-001</quality>
              <le>3.9656203985214233e-001</le></_>
            <_><var>26</var>
              <quality>4.9308022856712341e-001</quality>
              <le>2.2381681203842163e-001</le></_>
            <_><var>160</var>
              <quality>4.9217370152473450e-001</quality>
              <le>3.4001559019088745e-001</le></_>
            <_><var>33</var>
              <quality>4.9002853035926819e-001</quality>
              <le>7.7634292840957642e-001</le></_></splits></_>
        <_>
          <depth>1</depth>
          <sample_count>2684</sample_count>
          <value>-2.8313512351830109e-002</value>
          <norm_class_idx>0</norm_class_idx>
          <Tn>0</Tn>
          <complexity>0</complexity>
          <alpha>0.</alpha>
          <node_risk>0.</node_risk>
          <tree_risk>0.</tree_risk>
          <tree_error>0.</tree_error></_>
        <_>
          <depth>1</depth>
          <sample_count>15</sample_count>
          <value>1.4384544161481183e+000</value>
          <norm_class_idx>1</norm_class_idx>
          <Tn>0</Tn>
          <complexity>0</complexity>
          <alpha>0.</alpha>
          <node_risk>0.</node_risk>
          <tree_risk>0.</tree_risk>
          <tree_error>0.</tree_error></_></nodes></_>
    <_>
      <best_tree_idx>-1</best_tree_idx>
      <nodes>
        <_>
          <depth>0</depth>
          <sample_count>2702</sample_count>
          <value>-5.0275963504446252e-004</value>
          <norm_class_idx>0</norm_class_idx>
          <Tn>0</Tn>
          <complexity>0</complexity>
          <alpha>0.</alpha>
          <node_risk>0.</node_risk>
          <tree_risk>0.</tree_risk>
          <tree_error>0.</tree_error>
          <splits>
            <_><var>73</var>
              <quality>5.0450450181961060e-001</quality>
              <le>4.6423834562301636e-001</le></_>
            <_><var>176</var>
              <quality>4.9652731418609619e-001</quality>
              <le>3.6826950311660767e-001</le></_></splits></_>
        <_>
          <depth>1</depth>
          <sample_count>2701</sample_count>
          <value>-2.3429056124016561e-002</value>
          <norm_class_idx>0</norm_class_idx>
          <Tn>0</Tn>
          <complexity>0</complexity>
          <alpha>0.</alpha>
          <node_risk>0.</node_risk>
          <tree_risk>0.</tree_risk>
          <tree_error>0.</tree_error></_>
        <_>
          <depth>1</depth>
          <sample_count>1</sample_count>
          <value>5.7564577324623896e+000</value>
          <norm_class_idx>1</norm_class_idx>
          <Tn>0</Tn>
          <complexity>0</complexity>
          <alpha>0.</alpha>
          <node_risk>0.</node_risk>
          <tree_risk>0.</tree_risk>
          <tree_error>0.</tree_error></_></nodes></_>
    <_>
      <best_tree_idx>-1</best_tree_idx>
      <nodes>
        <_>
          <depth>0</depth>
          <sample_count>2702</sample_count>
          <value>7.2464333782174022e-005</value>
          <norm_class_idx>1</norm_class_idx>
          <Tn>0</Tn>
          <complexity>0</complexity>
          <alpha>0.</alpha>
          <node_risk>0.</node_risk>
          <tree_risk>0.</tree_risk>
          <tree_error>0.</tree_error>
          <splits>
            <_><var>50</var>
              <quality>5.0584024190902710e-001</quality>
              <le>8.3435517549514771e-001</le></_>
            <_><var>100</var>
              <quality>3.8456535339355469e-001</quality>
              <le>4.9751859158277512e-002</le></_>
            <_><var>30</var>
              <quality>3.8332748413085938e-001</quality>
              <le>4.9751859158277512e-002</le></_></splits></_>
        <_>
          <depth>1</depth>
          <sample_count>2396</sample_count>
          <value>-9.2191553671737356e-002</value>
          <norm_class_idx>0</norm_class_idx>
          <Tn>0</Tn>
          <complexity>0</complexity>
          <alpha>0.</alpha>
          <node_risk>0.</node_risk>
          <tree_risk>0.</tree_risk>
          <tree_error>0.</tree_error></_>
        <_>
          <depth>1</depth>
          <sample_count>306</sample_count>
          <value>2.8633296433428324e-001</value>
          <norm_class_idx>1</norm_class_idx>
          <Tn>0</Tn>
          <complexity>0</complexity>
          <alpha>0.</alpha>
          <node_risk>0.</node_risk>
          <tree_risk>0.</tree_risk>
          <tree_error>0.</tree_error></_></nodes></_>
    <_>
      <best_tree_idx>-1</best_tree_idx>
      <nodes>
        <_>
          <depth>0</depth>
          <sample_count>2704</sample_count>
          <value>1.2512668209428132e-004</value>
          <norm_class_idx>1</norm_class_idx>
          <Tn>0</Tn>
          <complexity>0</complexity>
          <alpha>0.</alpha>
          <node_risk>0.</node_risk>
          <tree_risk>0.</tree_risk>
          <tree_error>0.</tree_error>
          <splits>
            <_><var>50</var>
              <quality>5.0585687160491943e-001</quality>
              <le>3.0656967312097549e-002</le></_>
            <_><var>100</var>
              <quality>3.4409514069557190e-001</quality>
              <le>4.9751859158277512e-002</le></_>
            <_><var>6</var>
              <quality>3.4287759661674500e-001</quality>
              <le>1.6620561480522156e-002</le></_>
            <_><var>30</var>
              <quality>3.4266388416290283e-001</quality>
              <le>4.9751859158277512e-002</le></_>
            <_><var>186</var>
              <quality>3.4230682253837585e-001</quality>
              <le>2.4626781046390533e-001</le></_>
            <_><var>90</var>
              <quality>3.4190335869789124e-001</quality>
              <le>4.6156269311904907e-001</le></_>
            <_><var>116</var>
              <quality>3.4169238805770874e-001</quality>
              <le>5.5010396242141724e-001</le></_>
            <_><var>106</var>
              <quality>3.4119439125061035e-001</quality>
              <le>5.6602525711059570e-001</le></_>
            <_><var>83</var>
              <quality>3.4094262123107910e-001</quality>
              <le>4.6201893687248230e-001</le></_>
            <_><var>126</var>
              <quality>3.4091106057167053e-001</quality>
              <le>8.2935881614685059e-001</le></_>
            <_><var>60</var>
              <quality>3.4090244770050049e-001</quality>
              <le>7.7828478813171387e-001</le></_></splits></_>
        <_>
          <depth>1</depth>
          <sample_count>2119</sample_count>
          <value>1.0948625527547309e-001</value>
          <norm_class_idx>1</norm_class_idx>
          <Tn>0</Tn>
          <complexity>0</complexity>
          <alpha>0.</alpha>
          <node_risk>0.</node_risk>
          <tree_risk>0.</tree_risk>
          <tree_error>0.</tree_error></_>
        <_>
          <depth>1</depth>
          <sample_count>585</sample_count>
          <value>-2.2877939939759775e-001</value>
          <norm_class_idx>0</norm_class_idx>
          <Tn>0</Tn>
          <complexity>0</complexity>
          <alpha>0.</alpha>
          <node_risk>0.</node_risk>
          <tree_risk>0.</tree_risk>
          <tree_error>0.</tree_error></_></nodes></_>
    <_>
      <best_tree_idx>-1</best_tree_idx>
      <nodes>
        <_>
          <depth>0</depth>
          <sample_count>2695</sample_count>
          <value>1.9891707451769863e-004</value>
          <norm_class_idx>1</norm_class_idx>
          <Tn>0</Tn>
          <complexity>0</complexity>
          <alpha>0.</alpha>
          <node_risk>0.</node_risk>
          <tree_risk>0.</tree_risk>
          <tree_error>0.</tree_error>
          <splits>
            <_><var>60</var>
              <quality>5.0395464897155762e-001</quality>
              <le>4.5323529839515686e-001</le></_>
            <_><var>103</var>
              <quality>4.8644396662712097e-001</quality>
              <le>2.7441066503524780e-001</le></_>
            <_><var>156</var>
              <quality>4.8618093132972717e-001</quality>
              <le>6.7308926582336426e-001</le></_>
            <_><var>16</var>
              <quality>4.8589491844177246e-001</quality>
              <le>7.6379251480102539e-001</le></_>
            <_><var>193</var>
              <quality>4.8525115847587585e-001</quality>
              <le>5.2769923210144043e-001</le></_></splits></_>
        <_>
          <depth>1</depth>
          <sample_count>2668</sample_count>
          <value>-2.9466336589377074e-002</value>
          <norm_class_idx>0</norm_class_idx>
          <Tn>0</Tn>
          <complexity>0</complexity>
          <alpha>0.</alpha>
          <node_risk>0.</node_risk>
          <tree_risk>0.</tree_risk>
          <tree_error>0.</tree_error></_>
        <_>
          <depth>1</depth>
          <sample_count>27</sample_count>
          <value>1.0112061940459216e+000</value>
          <norm_class_idx>1</norm_class_idx>
          <Tn>0</Tn>
          <complexity>0</complexity>
          <alpha>0.</alpha>
          <node_risk>0.</node_risk>
          <tree_risk>0.</tree_risk>
          <tree_error>0.</tree_error></_></nodes></_>
    <_>
      <best_tree_idx>-1</best_tree_idx>
      <nodes>
        <_>
          <depth>0</depth>
          <sample_count>2697</sample_count>
          <value>-1.9235358727188941e-004</value>
          <norm_class_idx>0</norm_class_idx>
          <Tn>0</Tn>
          <complexity>0</complexity>
          <alpha>0.</alpha>
          <node_risk>0.</node_risk>
          <tree_risk>0.</tree_risk>
          <tree_error>0.</tree_error>
          <splits>
            <_><var>153</var>
              <quality>5.0338399410247803e-001</quality>
              <le>2.4816116690635681e-001</le></_>
            <_><var>183</var>
              <quality>4.9684622883796692e-001</quality>
              <le>5.8681750297546387e-001</le></_>
            <_><var>190</var>
              <quality>4.9597483873367310e-001</quality>
              <le>2.9728138446807861e-001</le></_>
            <_><var>93</var>
              <quality>4.9403738975524902e-001</quality>
              <le>3.3499485254287720e-001</le></_>
            <_><var>186</var>
              <quality>4.9210941791534424e-001</quality>
              <le>1.2082683295011520e-001</le></_>
            <_><var>43</var>
              <quality>4.9203598499298096e-001</quality>
              <le>1.1166494339704514e-001</le></_>
            <_><var>10</var>
              <quality>4.9125671386718750e-001</quality>
              <le>3.0096463859081268e-002</le></_></splits></_>
        <_>
          <depth>1</depth>
          <sample_count>2682</sample_count>
          <value>-2.3630683664391802e-002</value>
          <norm_class_idx>0</norm_class_idx>
          <Tn>0</Tn>
          <complexity>0</complexity>
          <alpha>0.</alpha>
          <node_risk>0.</node_risk>
          <tree_risk>0.</tree_risk>
          <tree_error>0.</tree_error></_>
        <_>
          <depth>1</depth>
          <sample_count>15</sample_count>
          <value>1.5125124591023660e+000</value>
          <norm_class_idx>1</norm_class_idx>
          <Tn>0</Tn>
          <complexity>0</complexity>
          <alpha>0.</alpha>
          <node_risk>0.</node_risk>
          <tree_risk>0.</tree_risk>
          <tree_error>0.</tree_error></_></nodes></_>
    <_>
      <best_tree_idx>-1</best_tree_idx>
      <nodes>
        <_>
          <depth>0</depth>
          <sample_count>2695</sample_count>
          <value>-4.0515186598277866e-005</value>
          <norm_class_idx>0</norm_class_idx>
          <Tn>0</Tn>
          <complexity>0</complexity>
          <alpha>0.</alpha>
          <node_risk>0.</node_risk>
          <tree_risk>0.</tree_risk>
          <tree_error>0.</tree_error>
          <splits>
            <_><var>50</var>
              <quality>5.0425052642822266e-001</quality>
              <le>8.9498031139373779e-001</le></_>
            <_><var>100</var>
              <quality>3.9682757854461670e-001</quality>
              <le>4.9751859158277512e-002</le></_>
            <_><var>30</var>
              <quality>3.9544618129730225e-001</quality>
              <le>4.9751859158277512e-002</le></_></splits></_>
        <_>
          <depth>1</depth>
          <sample_count>2417</sample_count>
          <value>-8.1132934791220343e-002</value>
          <norm_class_idx>0</norm_class_idx>
          <Tn>0</Tn>
          <complexity>0</complexity>
          <alpha>0.</alpha>
          <node_risk>0.</node_risk>
          <tree_risk>0.</tree_risk>
          <tree_error>0.</tree_error></_>
        <_>
          <depth>1</depth>
          <sample_count>278</sample_count>
          <value>2.9157123191919287e-001</value>
          <norm_class_idx>1</norm_class_idx>
          <Tn>0</Tn>
          <complexity>0</complexity>
          <alpha>0.</alpha>
          <node_risk>0.</node_risk>
          <tree_risk>0.</tree_risk>
          <tree_error>0.</tree_error></_></nodes></_>
    <_>
      <best_tree_idx>-1</best_tree_idx>
      <nodes>
        <_>
          <depth>0</depth>
          <sample_count>2697</sample_count>
          <value>1.2700852045952936e-004</value>
          <norm_class_idx>1</norm_class_idx>
          <Tn>0</Tn>
          <complexity>0</complexity>
          <alpha>0.</alpha>
          <node_risk>0.</node_risk>
          <tree_risk>0.</tree_risk>
          <tree_error>0.</tree_error>
          <splits>
            <_><var>123</var>
              <quality>5.0445103645324707e-001</quality>
              <le>3.4752402454614639e-002</le></_>
            <_><var>20</var>
              <quality>4.8338603973388672e-001</quality>
              <le>4.5955938100814819e-001</le></_>
            <_><var>96</var>
              <quality>4.8240330815315247e-001</quality>
              <le>2.9071527719497681e-001</le></_>
            <_><var>196</var>
              <quality>4.7882491350173950e-001</quality>
              <le>2.3904572427272797e-001</le></_>
            <_><var>180</var>
              <quality>4.7882029414176941e-001</quality>
              <le>1.7376200854778290e-001</le></_>
            <_><var>30</var>
              <quality>4.7821035981178284e-001</quality>
              <le>3.0101129412651062e-001</le></_>
            <_><var>66</var>
              <quality>4.7745513916015625e-001</quality>
              <le>6.7453444004058838e-001</le></_>
            <_><var>36</var>
              <quality>4.7683191299438477e-001</quality>
              <le>7.1264576911926270e-001</le></_>
            <_><var>56</var>
              <quality>4.7677186131477356e-001</quality>
              <le>8.7346422672271729e-001</le></_>
            <_><var>70</var>
              <quality>4.7667539119720459e-001</quality>
              <le>5.0190919637680054e-001</le></_>
            <_><var>113</var>
              <quality>4.7661036252975464e-001</quality>
              <le>4.1718557476997375e-001</le></_></splits></_>
        <_>
          <depth>1</depth>
          <sample_count>2667</sample_count>
          <value>-3.5993081332277757e-002</value>
          <norm_class_idx>0</norm_class_idx>
          <Tn>0</Tn>
          <complexity>0</complexity>
          <alpha>0.</alpha>
          <node_risk>0.</node_risk>
          <tree_risk>0.</tree_risk>
          <tree_error>0.</tree_error></_>
        <_>
          <depth>1</depth>
          <sample_count>30</sample_count>
          <value>7.2083414339645457e-001</value>
          <norm_class_idx>1</norm_class_idx>
          <Tn>0</Tn>
          <complexity>0</complexity>
          <alpha>0.</alpha>
          <node_risk>0.</node_risk>
          <tree_risk>0.</tree_risk>
          <tree_error>0.</tree_error></_></nodes></_>
    <_>
      <best_tree_idx>-1</best_tree_idx>
      <nodes>
        <_>
          <depth>0</depth>
          <sample_count>2696</sample_count>
          <value>-3.2562071395393969e-005</value>
          <norm_class_idx>0</norm_class_idx>
          <Tn>0</Tn>
          <complexity>0</complexity>
          <alpha>0.</alpha>
          <node_risk>0.</node_risk>
          <tree_risk>0.</tree_risk>
          <tree_error>0.</tree_error>
          <splits>
            <_><var>143</var>
              <quality>5.0233453512191772e-001</quality>
              <le>4.6996289491653442e-001</le></_></splits></_>
        <_>
          <depth>1</depth>
          <sample_count>2495</sample_count>
          <value>1.7696925520069455e-002</value>
          <norm_class_idx>1</norm_class_idx>
          <Tn>0</Tn>
          <complexity>0</complexity>
          <alpha>0.</alpha>
          <node_risk>0.</node_risk>
          <tree_risk>0.</tree_risk>
          <tree_error>0.</tree_error></_>
        <_>
          <depth>1</depth>
          <sample_count>201</sample_count>
          <value>-5.7564577324601141e+000</value>
          <norm_class_idx>0</norm_class_idx>
          <Tn>0</Tn>
          <complexity>0</complexity>
          <alpha>0.</alpha>
          <node_risk>0.</node_risk>
          <tree_risk>0.</tree_risk>
          <tree_error>0.</tree_error></_></nodes></_>
    <_>
      <best_tree_idx>-1</best_tree_idx>
      <nodes>
        <_>
          <depth>0</depth>
          <sample_count>2495</sample_count>
          <value>-1.8318679906315118e-015</value>
          <norm_class_idx>0</norm_class_idx>
          <Tn>0</Tn>
          <complexity>0</complexity>
          <alpha>0.</alpha>
          <node_risk>0.</node_risk>
          <tree_risk>0.</tree_risk>
          <tree_error>0.</tree_error>
          <splits>
            <_><var>120</var>
              <quality>5.0281035900115967e-001</quality>
              <le>1.3556414842605591e-001</le></_>
            <_><var>123</var>
              <quality>4.6641591191291809e-001</quality>
              <le>7.3677346110343933e-002</le></_>
            <_><var>20</var>
              <quality>4.6366068720817566e-001</quality>
              <le>1.6142022609710693e-001</le></_>
            <_><var>176</var>
              <quality>4.6031376719474792e-001</quality>
              <le>7.2855341434478760e-001</le></_>
            <_><var>143</var>
              <quality>4.5916548371315002e-001</quality>
              <le>4.6039414405822754e-001</le></_>
            <_><var>156</var>
              <quality>4.5886930823326111e-001</quality>
              <le>4.3079209327697754e-001</le></_>
            <_><var>173</var>
              <quality>4.5853269100189209e-001</quality>
              <le>2.8683167695999146e-001</le></_>
            <_><var>193</var>
              <quality>4.5804628729820251e-001</quality>
              <le>2.8607422113418579e-001</le></_>
            <_><var>23</var>
              <quality>4.5764315128326416e-001</quality>
              <le>6.8318808078765869e-001</le></_>
            <_><var>56</var>
              <quality>4.5737510919570923e-001</quality>
              <le>7.6805102825164795e-001</le></_>
            <_><var>170</var>
              <quality>4.5669779181480408e-001</quality>
              <le>2.7870306372642517e-001</le></_>
            <_><var>90</var>
              <quality>4.5625931024551392e-001</quality>
              <le>7.3367547988891602e-001</le></_>
            <_><var>36</var>
              <quality>4.5618396997451782e-001</quality>
              <le>7.1264576911926270e-001</le></_></splits></_>
        <_>
          <depth>1</depth>
          <sample_count>2283</sample_count>
          <value>4.1402352736681990e-002</value>
          <norm_class_idx>1</norm_class_idx>
          <Tn>0</Tn>
          <complexity>0</complexity>
          <alpha>0.</alpha>
          <node_risk>0.</node_risk>
          <tree_risk>0.</tree_risk>
          <tree_error>0.</tree_error></_>
        <_>
          <depth>1</depth>
          <sample_count>212</sample_count>
          <value>-4.2799836486328735e-001</value>
          <norm_class_idx>0</norm_class_idx>
          <Tn>0</Tn>
          <complexity>0</complexity>
          <alpha>0.</alpha>
          <node_risk>0.</node_risk>
          <tree_risk>0.</tree_risk>
          <tree_error>0.</tree_error></_></nodes></_>
    <_>
      <best_tree_idx>-1</best_tree_idx>
      <nodes>
        <_>
          <depth>0</depth>
          <sample_count>2380</sample_count>
          <value>4.5076364108291994e-003</value>
          <norm_class_idx>1</norm_class_idx>
          <Tn>0</Tn>
          <complexity>0</complexity>
          <alpha>0.</alpha>
          <node_risk>0.</node_risk>
          <tree_risk>0.</tree_risk>
          <tree_error>0.</tree_error>
          <splits>
            <_><var>16</var>
              <quality>4.9960330128669739e-001</quality>
              <le>7.8691497445106506e-002</le></_>
            <_><var>60</var>
              <quality>4.4017669558525085e-001</quality>
              <le>5.9753265231847763e-002</le></_>
            <_><var>140</var>
              <quality>4.2838305234909058e-001</quality>
              <le>3.0096463859081268e-002</le></_>
            <_><var>183</var>
              <quality>4.2541098594665527e-001</quality>
              <le>4.9937732517719269e-002</le></_>
            <_><var>190</var>
              <quality>4.2373281717300415e-001</quality>
              <le>6.7924767732620239e-002</le></_>
            <_><var>46</var>
              <quality>4.1815817356109619e-001</quality>
              <le>1.6165938973426819e-001</le></_>
            <_><var>86</var>
              <quality>4.1815140843391418e-001</quality>
              <le>7.7734604477882385e-002</le></_>
            <_><var>153</var>
              <quality>4.1805878281593323e-001</quality>
              <le>1.0135495662689209e-001</le></_>
            <_><var>26</var>
              <quality>4.1536110639572144e-001</quality>
              <le>7.5921094417572021e-001</le></_>
            <_><var>40</var>
              <quality>4.1447934508323669e-001</quality>
              <le>3.3450293540954590e-001</le></_>
            <_><var>193</var>
              <quality>4.1447088122367859e-001</quality>
              <le>2.5867968797683716e-001</le></_>
            <_><var>146</var>
              <quality>4.1410085558891296e-001</quality>
              <le>1.0459122061729431e-001</le></_>
            <_><var>156</var>
              <quality>4.1359522938728333e-001</quality>
              <le>3.6122158169746399e-001</le></_>
            <_><var>163</var>
              <quality>4.1236317157745361e-001</quality>
              <le>6.0490286350250244e-001</le></_>
            <_><var>43</var>
              <quality>4.1182589530944824e-001</quality>
              <le>5.1031038165092468e-002</le></_>
            <_><var>93</var>
              <quality>4.1167259216308594e-001</quality>
              <le>2.9451447725296021e-001</le></_>
            <_><var>53</var>
              <quality>4.1155844926834106e-001</quality>
              <le>4.4821321964263916e-001</le></_>
            <_><var>23</var>
              <quality>4.1093575954437256e-001</quality>
              <le>6.8318808078765869e-001</le></_>
            <_><var>103</var>
              <quality>4.1088443994522095e-001</quality>
              <le>2.7441066503524780e-001</le></_>
            <_><var>186</var>
              <quality>4.1072845458984375e-001</quality>
              <le>2.6673668622970581e-001</le></_></splits></_>
        <_>
          <depth>1</depth>
          <sample_count>2231</sample_count>
          <value>6.1199085278601982e-002</value>
          <norm_class_idx>1</norm_class_idx>
          <Tn>0</Tn>
          <complexity>0</complexity>
          <alpha>0.</alpha>
          <node_risk>0.</node_risk>
          <tree_risk>0.</tree_risk>
          <tree_error>0.</tree_error></_>
        <_>
          <depth>1</depth>
          <sample_count>149</sample_count>
          <value>-2.6156828335997512e-001</value>
          <norm_class_idx>0</norm_class_idx>
          <Tn>0</Tn>
          <complexity>0</complexity>
          <alpha>0.</alpha>
          <node_risk>0.</node_risk>
          <tree_risk>0.</tree_risk>
          <tree_error>0.</tree_error></_></nodes></_>
    <_>
      <best_tree_idx>-1</best_tree_idx>
      <nodes>
        <_>
          <depth>0</depth>
          <sample_count>2374</sample_count>
          <value>2.5279538643701411e-004</value>
          <norm_class_idx>1</norm_class_idx>
          <Tn>0</Tn>
          <complexity>0</complexity>
          <alpha>0.</alpha>
          <node_risk>0.</node_risk>
          <tree_risk>0.</tree_risk>
          <tree_error>0.</tree_error>
          <splits>
            <_><var>50</var>
              <quality>5.0147527456283569e-001</quality>
              <le>3.0656967312097549e-002</le></_>
            <_><var>100</var>
              <quality>3.3839818835258484e-001</quality>
              <le>4.9751859158277512e-002</le></_>
            <_><var>30</var>
              <quality>3.3778822422027588e-001</quality>
              <le>4.9751859158277512e-002</le></_>
            <_><var>186</var>
              <quality>3.3711010217666626e-001</quality>
              <le>2.4626781046390533e-001</le></_>
            <_><var>116</var>
              <quality>3.3572340011596680e-001</quality>
              <le>5.5010396242141724e-001</le></_>
            <_><var>106</var>
              <quality>3.3555498719215393e-001</quality>
              <le>5.6602525711059570e-001</le></_>
            <_><var>60</var>
              <quality>3.3528488874435425e-001</quality>
              <le>7.7828478813171387e-001</le></_>
            <_><var>83</var>
              <quality>3.3525747060775757e-001</quality>
              <le>4.6201893687248230e-001</le></_></splits></_>
        <_>
          <depth>1</depth>
          <sample_count>1800</sample_count>
          <value>1.0030408195898094e-001</value>
          <norm_class_idx>1</norm_class_idx>
          <Tn>0</Tn>
          <complexity>0</complexity>
          <alpha>0.</alpha>
          <node_risk>0.</node_risk>
          <tree_risk>0.</tree_risk>
          <tree_error>0.</tree_error></_>
        <_>
          <depth>1</depth>
          <sample_count>574</sample_count>
          <value>-2.0348862796906975e-001</value>
          <norm_class_idx>0</norm_class_idx>
          <Tn>0</Tn>
          <complexity>0</complexity>
          <alpha>0.</alpha>
          <node_risk>0.</node_risk>
          <tree_risk>0.</tree_risk>
          <tree_error>0.</tree_error></_></nodes></_>
    <_>
      <best_tree_idx>-1</best_tree_idx>
      <nodes>
        <_>
          <depth>0</depth>
          <sample_count>2283</sample_count>
          <value>5.2536800997841507e-003</value>
          <norm_class_idx>1</norm_class_idx>
          <Tn>0</Tn>
          <complexity>0</complexity>
          <alpha>0.</alpha>
          <node_risk>0.</node_risk>
          <tree_risk>0.</tree_risk>
          <tree_error>0.</tree_error>
          <splits>
            <_><var>90</var>
              <quality>4.9558171629905701e-001</quality>
              <le>4.7305858135223389e-001</le></_>
            <_><var>116</var>
              <quality>4.8812764883041382e-001</quality>
              <le>5.5010396242141724e-001</le></_></splits></_>
        <_>
          <depth>1</depth>
          <sample_count>2249</sample_count>
          <value>2.0844587099955073e-002</value>
          <norm_class_idx>1</norm_class_idx>
          <Tn>0</Tn>
          <complexity>0</complexity>
          <alpha>0.</alpha>
          <node_risk>0.</node_risk>
          <tree_risk>0.</tree_risk>
          <tree_error>0.</tree_error></_>
        <_>
          <depth>1</depth>
          <sample_count>34</sample_count>
          <value>-2.2278416768858547e+000</value>
          <norm_class_idx>0</norm_class_idx>
          <Tn>0</Tn>
          <complexity>0</complexity>
          <alpha>0.</alpha>
          <node_risk>0.</node_risk>
          <tree_risk>0.</tree_risk>
          <tree_error>0.</tree_error></_></nodes></_>
    <_>
      <best_tree_idx>-1</best_tree_idx>
      <nodes>
        <_>
          <depth>0</depth>
          <sample_count>2255</sample_count>
          <value>5.4754316368324724e-004</value>
          <norm_class_idx>1</norm_class_idx>
          <Tn>0</Tn>
          <complexity>0</complexity>
          <alpha>0.</alpha>
          <node_risk>0.</node_risk>
          <tree_risk>0.</tree_risk>
          <tree_error>0.</tree_error>
          <splits>
            <_><var>170</var>
              <quality>4.9462920427322388e-001</quality>
              <le>4.2425870895385742e-001</le></_></splits></_>
        <_>
          <depth>1</depth>
          <sample_count>2169</sample_count>
          <value>1.5094462192229466e-002</value>
          <norm_class_idx>1</norm_class_idx>
          <Tn>0</Tn>
          <complexity>0</complexity>
          <alpha>0.</alpha>
          <node_risk>0.</node_risk>
          <tree_risk>0.</tree_risk>
          <tree_error>0.</tree_error></_>
        <_>
          <depth>1</depth>
          <sample_count>86</sample_count>
          <value>-5.7564577324601141e+000</value>
          <norm_class_idx>0</norm_class_idx>
          <Tn>0</Tn>
          <complexity>0</complexity>
          <alpha>0.</alpha>
          <node_risk>0.</node_risk>
          <tree_risk>0.</tree_risk>
          <tree_error>0.</tree_error></_></nodes></_>
    <_>
      <best_tree_idx>-1</best_tree_idx>
      <nodes>
        <_>
          <depth>0</depth>
          <sample_count>2168</sample_count>
          <value>-7.6733423463528646e-005</value>
          <norm_class_idx>0</norm_class_idx>
          <Tn>0</Tn>
          <complexity>0</complexity>
          <alpha>0.</alpha>
          <node_risk>0.</node_risk>
          <tree_risk>0.</tree_risk>
          <tree_error>0.</tree_error>
          <splits>
            <_><var>26</var>
              <quality>4.9513098597526550e-001</quality>
              <le>2.9020255804061890e-001</le></_>
            <_><var>106</var>
              <quality>4.8654511570930481e-001</quality>
              <le>3.0961591005325317e-001</le></_>
            <_><var>110</var>
              <quality>4.8154816031455994e-001</quality>
              <le>5.8040511608123779e-001</le></_>
            <_><var>90</var>
              <quality>4.8139953613281250e-001</quality>
              <le>5.7151782512664795e-001</le></_></splits></_>
        <_>
          <depth>1</depth>
          <sample_count>2147</sample_count>
          <value>-1.9490663272912472e-002</value>
          <norm_class_idx>0</norm_class_idx>
          <Tn>0</Tn>
          <complexity>0</complexity>
          <alpha>0.</alpha>
          <node_risk>0.</node_risk>
          <tree_risk>0.</tree_risk>
          <tree_error>0.</tree_error></_>
        <_>
          <depth>1</depth>
          <sample_count>21</sample_count>
          <value>8.2300245364403901e-001</value>
          <norm_class_idx>1</norm_class_idx>
          <Tn>0</Tn>
          <complexity>0</complexity>
          <alpha>0.</alpha>
          <node_risk>0.</node_risk>
          <tree_risk>0.</tree_risk>
          <tree_error>0.</tree_error></_></nodes></_>
    <_>
      <best_tree_idx>-1</best_tree_idx>
      <nodes>
        <_>
          <depth>0</depth>
          <sample_count>2172</sample_count>
          <value>-1.7218606960985630e-004</value>
          <norm_class_idx>0</norm_class_idx>
          <Tn>0</Tn>
          <complexity>0</complexity>
          <alpha>0.</alpha>
          <node_risk>0.</node_risk>
          <tree_risk>0.</tree_risk>
          <tree_error>0.</tree_error>
          <splits>
            <_><var>36</var>
              <quality>4.9538150429725647e-001</quality>
              <le>1.9499489665031433e-001</le></_>
            <_><var>56</var>
              <quality>4.6987399458885193e-001</quality>
              <le>1.8952897191047668e-001</le></_>
            <_><var>176</var>
              <quality>4.6909376978874207e-001</quality>
              <le>7.2855341434478760e-001</le></_>
            <_><var>120</var>
              <quality>4.6878787875175476e-001</quality>
              <le>4.9253562092781067e-001</le></_>
            <_><var>66</var>
              <quality>4.6638190746307373e-001</quality>
