<?xml version="1.0"?>
<opencv_storage>
<boost type_id="opencv-ml-boost-tree">
  <boosting_type>RealAdaboost</boosting_type>
  <splitting_criteria>Gini</splitting_criteria>
  <ntrees>100</ntrees>
  <weight_trimming_rate>9.4999999999999996e-001</weight_trimming_rate>
  <is_classifier>1</is_classifier>
  <var_all>200</var_all>
  <var_count>200</var_count>
  <ord_var_count>200</ord_var_count>
  <cat_var_count>0</cat_var_count>
  <training_params>
    <use_surrogates>1</use_surrogates>
    <max_categories>10</max_categories>
    <max_depth>1</max_depth>
    <min_sample_count>10</min_sample_count>
    <cross_validation_folds>0</cross_validation_folds>
    <priors type_id="opencv-matrix">
      <rows>1</rows>
      <cols>2</cols>
      <dt>d</dt>
      <data>
        1. 1.</data></priors></training_params>
  <var_type>
    0 0 0 0 0 0 0 0 0 0 0 0 0 0 0 0 0 0 0 0 0 0 0 0 0 0 0 0 0 0 0 0 0 0
    0 0 0 0 0 0 0 0 0 0 0 0 0 0 0 0 0 0 0 0 0 0 0 0 0 0 0 0 0 0 0 0 0 0
    0 0 0 0 0 0 0 0 0 0 0 0 0 0 0 0 0 0 0 0 0 0 0 0 0 0 0 0 0 0 0 0 0 0
    0 0 0 0 0 0 0 0 0 0 0 0 0 0 0 0 0 0 0 0 0 0 0 0 0 0 0 0 0 0 0 0 0 0
    0 0 0 0 0 0 0 0 0 0 0 0 0 0 0 0 0 0 0 0 0 0 0 0 0 0 0 0 0 0 0 0 0 0
    0 0 0 0 0 0 0 0 0 0 0 0 0 0 0 0 0 0 0 0 0 0 0 0 0 0 0 0 0 0</var_type>
  <cat_count type_id="opencv-matrix">
    <rows>1</rows>
    <cols>1</cols>
    <dt>i</dt>
    <data>
      2</data></cat_count>
  <cat_map type_id="opencv-matrix">
    <rows>1</rows>
    <cols>2</cols>
    <dt>i</dt>
    <data>
      -1 1</data></cat_map>
  <trees>
    <_>
      <best_tree_idx>-1</best_tree_idx>
      <nodes>
        <_>
          <depth>0</depth>
          <sample_count>1694</sample_count>
          <value>-1.5501695402936584e+000</value>
          <norm_class_idx>0</norm_class_idx>
          <Tn>0</Tn>
          <complexity>0</complexity>
          <alpha>0.</alpha>
          <node_risk>0.</node_risk>
          <tree_risk>0.</tree_risk>
          <tree_error>0.</tree_error>
          <splits>
            <_><var>91</var>
              <quality>9.3293952941894531e-001</quality>
              <le>1.3171584345400333e-002</le></_>
            <_><var>76</var>
              <quality>9.1311317682266235e-001</quality>
              <le>6.4754381775856018e-002</le></_>
            <_><var>141</var>
              <quality>9.1035956144332886e-001</quality>
              <le>1.4097096398472786e-002</le></_>
            <_><var>100</var>
              <quality>9.0870732069015503e-001</quality>
              <le>3.6786444485187531e-002</le></_>
            <_><var>73</var>
              <quality>9.0760582685470581e-001</quality>
              <le>1.2121830880641937e-001</le></_>
            <_><var>95</var>
              <quality>9.0705513954162598e-001</quality>
              <le>3.0743278563022614e-002</le></_>
            <_><var>93</var>
              <quality>9.0705513954162598e-001</quality>
              <le>3.0096473172307014e-002</le></_>
            <_><var>16</var>
              <quality>9.0705513954162598e-001</quality>
              <le>1.7231088876724243e-001</le></_>
            <_><var>158</var>
              <quality>9.0650445222854614e-001</quality>
              <le>1.4065861701965332e-001</le></_>
            <_><var>96</var>
              <quality>9.0650445222854614e-001</quality>
              <le>6.7271932959556580e-002</le></_>
            <_><var>43</var>
              <quality>9.0650445222854614e-001</quality>
              <le>7.3547750711441040e-002</le></_>
            <_><var>160</var>
              <quality>9.0595370531082153e-001</quality>
              <le>1.4867525547742844e-002</le></_>
            <_><var>151</var>
              <quality>9.0595370531082153e-001</quality>
              <le>1.4065861701965332e-001</le></_>
            <_><var>138</var>
              <quality>9.0595370531082153e-001</quality>
              <le>2.1246957778930664e-001</le></_>
            <_><var>83</var>
              <quality>9.0595370531082153e-001</quality>
              <le>1.1530598998069763e-001</le></_>
            <_><var>136</var>
              <quality>9.0540295839309692e-001</quality>
              <le>2.0871937274932861e-001</le></_>
            <_><var>26</var>
              <quality>9.0485221147537231e-001</quality>
              <le>7.0209249854087830e-002</le></_>
            <_><var>106</var>
              <quality>9.0430146455764771e-001</quality>
              <le>1.6070608049631119e-002</le></_>
            <_><var>5</var>
              <quality>9.0430146455764771e-001</quality>
              <le>1.8037194013595581e-001</le></_>
            <_><var>191</var>
              <quality>9.0375077724456787e-001</quality>
              <le>4.1296809911727905e-001</le></_>
            <_><var>153</var>
              <quality>9.0375077724456787e-001</quality>
              <le>1.5682949125766754e-001</le></_>
            <_><var>140</var>
              <quality>9.0375077724456787e-001</quality>
              <le>2.2690942883491516e-001</le></_>
            <_><var>148</var>
              <quality>9.0320003032684326e-001</quality>
              <le>3.7662211060523987e-001</le></_>
            <_><var>143</var>
              <quality>9.0320003032684326e-001</quality>
              <le>1.3625171780586243e-001</le></_>
            <_><var>110</var>
              <quality>9.0320003032684326e-001</quality>
              <le>7.2249066829681396e-001</le></_>
            <_><var>86</var>
              <quality>9.0320003032684326e-001</quality>
              <le>4.4443762302398682e-001</le></_>
            <_><var>46</var>
              <quality>9.0320003032684326e-001</quality>
              <le>6.1687506735324860e-002</le></_>
            <_><var>30</var>
              <quality>9.0320003032684326e-001</quality>
              <le>3.1229853630065918e-001</le></_>
            <_><var>190</var>
              <quality>9.0264928340911865e-001</quality>
              <le>8.7197637557983398e-001</le></_>
            <_><var>165</var>
              <quality>9.0264928340911865e-001</quality>
              <le>4.3357795476913452e-001</le></_>
            <_><var>125</var>
              <quality>9.0264928340911865e-001</quality>
              <le>9.4260476529598236e-002</le></_>
            <_><var>123</var>
              <quality>9.0264928340911865e-001</quality>
              <le>1.2840424478054047e-001</le></_>
            <_><var>116</var>
              <quality>9.0264928340911865e-001</quality>
              <le>4.6012604236602783e-001</le></_>
            <_><var>111</var>
              <quality>9.0264928340911865e-001</quality>
              <le>2.1509939432144165e-001</le></_>
            <_><var>66</var>
              <quality>9.0264928340911865e-001</quality>
              <le>7.5364106893539429e-001</le></_>
            <_><var>21</var>
              <quality>9.0264928340911865e-001</quality>
              <le>1.4097096398472786e-002</le></_>
            <_><var>20</var>
              <quality>9.0264928340911865e-001</quality>
              <le>7.6499342918395996e-001</le></_>
            <_><var>198</var>
              <quality>9.0209853649139404e-001</quality>
              <le>7.4763071537017822e-001</le></_>
            <_><var>146</var>
              <quality>9.0209853649139404e-001</quality>
              <le>5.1352310180664063e-001</le></_>
            <_><var>81</var>
              <quality>9.0209853649139404e-001</quality>
              <le>1.9346353411674500e-001</le></_>
            <_><var>45</var>
              <quality>9.0209853649139404e-001</quality>
              <le>3.7798297405242920e-001</le></_>
            <_><var>8</var>
              <quality>9.0209853649139404e-001</quality>
              <le>6.2447774410247803e-001</le></_>
            <_><var>1</var>
              <quality>9.0209853649139404e-001</quality>
              <le>4.4694787263870239e-001</le></_></splits></_>
        <_>
          <depth>1</depth>
          <sample_count>1638</sample_count>
          <value>-1.7949061127159642e+000</value>
          <norm_class_idx>0</norm_class_idx>
          <Tn>0</Tn>
          <complexity>0</complexity>
          <alpha>0.</alpha>
          <node_risk>0.</node_risk>
          <tree_risk>0.</tree_risk>
          <tree_error>0.</tree_error></_>
        <_>
          <depth>1</depth>
          <sample_count>56</sample_count>
          <value>3.5729481991072523e-002</value>
          <norm_class_idx>1</norm_class_idx>
          <Tn>0</Tn>
          <complexity>0</complexity>
          <alpha>0.</alpha>
          <node_risk>0.</node_risk>
          <tree_risk>0.</tree_risk>
          <tree_error>0.</tree_error></_></nodes></_>
    <_>
      <best_tree_idx>-1</best_tree_idx>
      <nodes>
        <_>
          <depth>0</depth>
          <sample_count>1694</sample_count>
          <value>2.0428103653102464e-014</value>
          <norm_class_idx>1</norm_class_idx>
          <Tn>0</Tn>
          <complexity>0</complexity>
          <alpha>0.</alpha>
          <node_risk>0.</node_risk>
          <tree_risk>0.</tree_risk>
          <tree_error>0.</tree_error>
          <splits>
            <_><var>66</var>
              <quality>5.7932925224304199e-001</quality>
              <le>9.0372925624251366e-003</le></_>
            <_><var>136</var>
              <quality>4.8341134190559387e-001</quality>
              <le>2.6957280933856964e-002</le></_>
            <_><var>146</var>
              <quality>4.7197601199150085e-001</quality>
              <le>3.0344944447278976e-002</le></_>
            <_><var>0</var>
              <quality>4.6050962805747986e-001</quality>
              <le>2.3891067132353783e-002</le></_>
            <_><var>131</var>
              <quality>4.5457786321640015e-001</quality>
              <le>3.9778463542461395e-002</le></_>
            <_><var>115</var>
              <quality>4.4964197278022766e-001</quality>
              <le>2.7439486235380173e-002</le></_>
            <_><var>58</var>
              <quality>4.4909435510635376e-001</quality>
              <le>2.4876400828361511e-002</le></_>
            <_><var>6</var>
              <quality>4.4875460863113403e-001</quality>
              <le>2.6316389441490173e-002</le></_>
            <_><var>101</var>
              <quality>4.4498535990715027e-001</quality>
              <le>3.1940918415784836e-002</le></_>
            <_><var>196</var>
              <quality>4.4460842013359070e-001</quality>
              <le>1.1262868344783783e-001</le></_>
            <_><var>133</var>
              <quality>4.4402855634689331e-001</quality>
              <le>3.5164654254913330e-002</le></_>
            <_><var>126</var>
              <quality>4.4382521510124207e-001</quality>
              <le>1.5285446308553219e-002</le></_>
            <_><var>18</var>
              <quality>4.3658259510993958e-001</quality>
              <le>1.5285446308553219e-002</le></_>
            <_><var>16</var>
              <quality>4.3087890744209290e-001</quality>
              <le>2.9350515455007553e-002</le></_>
            <_><var>63</var>
              <quality>4.3051064014434814e-001</quality>
              <le>7.6472893357276917e-002</le></_>
            <_><var>118</var>
              <quality>4.2716199159622192e-001</quality>
              <le>1.9805806875228882e-001</le></_>
            <_><var>20</var>
              <quality>4.2678669095039368e-001</quality>
              <le>1.0570612549781799e-001</le></_>
            <_><var>83</var>
              <quality>4.2623156309127808e-001</quality>
              <le>5.2306909114122391e-002</le></_>
            <_><var>33</var>
              <quality>4.2533168196678162e-001</quality>
              <le>8.2770340144634247e-002</le></_>
            <_><var>138</var>
              <quality>4.2099684476852417e-001</quality>
              <le>3.1208228319883347e-002</le></_>
            <_><var>163</var>
              <quality>4.2038661241531372e-001</quality>
              <le>2.3955309763550758e-002</le></_>
            <_><var>145</var>
              <quality>4.1764432191848755e-001</quality>
              <le>8.0108247697353363e-002</le></_>
            <_><var>28</var>
              <quality>4.1760867834091187e-001</quality>
              <le>2.0429445430636406e-002</le></_>
            <_><var>40</var>
              <quality>4.1519150137901306e-001</quality>
              <le>3.1386040151119232e-002</le></_>
            <_><var>148</var>
              <quality>4.1374340653419495e-001</quality>
              <le>7.0991724729537964e-002</le></_>
            <_><var>105</var>
              <quality>4.1307103633880615e-001</quality>
              <le>2.0227834582328796e-002</le></_>
            <_><var>110</var>
              <quality>4.1227287054061890e-001</quality>
              <le>3.3957952260971069e-001</le></_>
            <_><var>60</var>
              <quality>4.1199243068695068e-001</quality>
              <le>3.8237486034631729e-002</le></_>
            <_><var>93</var>
              <quality>4.1168606281280518e-001</quality>
              <le>2.9138516634702682e-002</le></_>
            <_><var>65</var>
              <quality>4.0940865874290466e-001</quality>
              <le>2.9446717351675034e-002</le></_>
            <_><var>91</var>
              <quality>4.0915924310684204e-001</quality>
              <le>1.1133141815662384e-001</le></_>
            <_><var>30</var>
              <quality>4.0706977248191833e-001</quality>
              <le>2.5286281108856201e-001</le></_>
            <_><var>130</var>
              <quality>4.0681058168411255e-001</quality>
              <le>2.7139542624354362e-002</le></_>
            <_><var>50</var>
              <quality>4.0651467442512512e-001</quality>
              <le>1.4125195331871510e-002</le></_>
            <_><var>151</var>
              <quality>4.0544849634170532e-001</quality>
              <le>5.0079610198736191e-002</le></_>
            <_><var>140</var>
              <quality>4.0511420369148254e-001</quality>
              <le>1.7117199301719666e-001</le></_>
            <_><var>76</var>
              <quality>4.0431588888168335e-001</quality>
              <le>1.0398447513580322e-001</le></_>
            <_><var>43</var>
              <quality>4.0419811010360718e-001</quality>
              <le>1.4789274893701077e-002</le></_>
            <_><var>10</var>
              <quality>4.0388497710227966e-001</quality>
              <le>2.4135634303092957e-001</le></_>
            <_><var>8</var>
              <quality>4.0316605567932129e-001</quality>
              <le>3.4481298923492432e-001</le></_>
            <_><var>111</var>
              <quality>4.0230515599250793e-001</quality>
              <le>1.6213610768318176e-002</le></_>
            <_><var>75</var>
              <quality>4.0226489305496216e-001</quality>
              <le>7.1913652122020721e-002</le></_>
            <_><var>85</var>
              <quality>4.0143057703971863e-001</quality>
              <le>8.1683725118637085e-002</le></_>
            <_><var>78</var>
              <quality>4.0127995610237122e-001</quality>
              <le>3.9760559797286987e-002</le></_>
            <_><var>108</var>
              <quality>4.0072482824325562e-001</quality>
              <le>6.7506361007690430e-001</le></_>
            <_><var>48</var>
              <quality>4.0072482824325562e-001</quality>
              <le>3.9760559797286987e-002</le></_>
            <_><var>73</var>
              <quality>4.0063923597335815e-001</quality>
              <le>1.4596372842788696e-001</le></_>
            <_><var>41</var>
              <quality>4.0056049823760986e-001</quality>
              <le>1.6054336726665497e-001</le></_>
            <_><var>100</var>
              <quality>4.0049782395362854e-001</quality>
              <le>1.4208078384399414e-001</le></_>
            <_><var>11</var>
              <quality>4.0039613842964172e-001</quality>
              <le>2.6068723201751709e-001</le></_>
            <_><var>190</var>
              <quality>4.0036454796791077e-001</quality>
              <le>7.4312001466751099e-002</le></_>
            <_><var>5</var>
              <quality>4.0016910433769226e-001</quality>
              <le>1.4867525547742844e-002</le></_>
            <_><var>23</var>
              <quality>3.9978402853012085e-001</quality>
              <le>7.9984143376350403e-002</le></_>
            <_><var>116</var>
              <quality>3.9957383275032043e-001</quality>
              <le>1.8333975970745087e-001</le></_>
            <_><var>45</var>
              <quality>3.9936104416847229e-001</quality>
              <le>1.4867525547742844e-002</le></_>
            <_><var>158</var>
              <quality>3.9922261238098145e-001</quality>
              <le>1.3694229722023010e-001</le></_>
            <_><var>35</var>
              <quality>3.9907205104827881e-001</quality>
              <le>3.4348040819168091e-002</le></_>
            <_><var>176</var>
              <quality>3.9891692996025085e-001</quality>
              <le>1.2169227004051208e-001</le></_>
            <_><var>106</var>
              <quality>3.9786931872367859e-001</quality>
              <le>1.6070608049631119e-002</le></_>
            <_><var>141</var>
              <quality>3.9707848429679871e-001</quality>
              <le>2.8964621946215630e-002</le></_>
            <_><var>143</var>
              <quality>3.9684405922889709e-001</quality>
              <le>8.9412949979305267e-002</le></_>
            <_><var>128</var>
              <quality>3.9678722620010376e-001</quality>
              <le>1.5285446308553219e-002</le></_>
            <_><var>125</var>
              <quality>3.9635100960731506e-001</quality>
              <le>1.6213610768318176e-002</le></_>
            <_><var>21</var>
              <quality>3.9635100960731506e-001</quality>
              <le>3.2174631953239441e-002</le></_>
            <_><var>155</var>
              <quality>3.9602228999137878e-001</quality>
              <le>1.7327135801315308e-001</le></_>
            <_><var>1</var>
              <quality>3.9584124088287354e-001</quality>
              <le>1.6213610768318176e-002</le></_>
            <_><var>95</var>
              <quality>3.9574816823005676e-001</quality>
              <le>1.5361133217811584e-001</le></_>
            <_><var>123</var>
              <quality>3.9572519063949585e-001</quality>
              <le>1.2840424478054047e-001</le></_>
            <_><var>46</var>
              <quality>3.9572519063949585e-001</quality>
              <le>9.6523903310298920e-002</le></_>
            <_><var>53</var>
              <quality>3.9569360017776489e-001</quality>
              <le>2.4518820643424988e-001</le></_>
            <_><var>198</var>
              <quality>3.9563155174255371e-001</quality>
              <le>7.1628659963607788e-001</le></_>
            <_><var>3</var>
              <quality>3.9509940147399902e-001</quality>
              <le>8.4984922409057617e-001</le></_>
            <_><var>80</var>
              <quality>3.9493504166603088e-001</quality>
              <le>1.9429862499237061e-001</le></_>
            <_><var>15</var>
              <quality>3.9493504166603088e-001</quality>
              <le>1.4125195331871510e-002</le></_>
            <_><var>156</var>
              <quality>3.9488047361373901e-001</quality>
              <le>4.4695794582366943e-001</le></_>
            <_><var>193</var>
              <quality>3.9477065205574036e-001</quality>
              <le>9.1215860843658447e-001</le></_></splits></_>
        <_>
          <depth>1</depth>
          <sample_count>1469</sample_count>
          <value>-2.7939968508395735e-001</value>
          <norm_class_idx>0</norm_class_idx>
          <Tn>0</Tn>
          <complexity>0</complexity>
          <alpha>0.</alpha>
          <node_risk>0.</node_risk>
          <tree_risk>0.</tree_risk>
          <tree_error>0.</tree_error></_>
        <_>
          <depth>1</depth>
          <sample_count>225</sample_count>
          <value>6.6632178751634186e-001</value>
          <norm_class_idx>1</norm_class_idx>
          <Tn>0</Tn>
          <complexity>0</complexity>
          <alpha>0.</alpha>
          <node_risk>0.</node_risk>
          <tree_risk>0.</tree_risk>
          <tree_error>0.</tree_error></_></nodes></_>
    <_>
      <best_tree_idx>-1</best_tree_idx>
      <nodes>
        <_>
          <depth>0</depth>
          <sample_count>1694</sample_count>
          <value>-4.4964032497319045e-015</value>
          <norm_class_idx>0</norm_class_idx>
          <Tn>0</Tn>
          <complexity>0</complexity>
          <alpha>0.</alpha>
          <node_risk>0.</node_risk>
          <tree_risk>0.</tree_risk>
          <tree_error>0.</tree_error>
          <splits>
            <_><var>38</var>
              <quality>5.8455675840377808e-001</quality>
              <le>6.6963605582714081e-002</le></_>
            <_><var>86</var>
              <quality>5.6148898601531982e-001</quality>
              <le>1.3479096814990044e-002</le></_>
            <_><var>31</var>
              <quality>5.6101077795028687e-001</quality>
              <le>1.0689136385917664e-001</le></_>
            <_><var>11</var>
              <quality>5.5938422679901123e-001</quality>
              <le>1.6961337998509407e-002</le></_>
            <_><var>113</var>
              <quality>5.5418986082077026e-001</quality>
              <le>4.9041360616683960e-002</le></_>
            <_><var>165</var>
              <quality>5.4567354917526245e-001</quality>
              <le>4.9916997551918030e-002</le></_>
            <_><var>1</var>
              <quality>5.4462760686874390e-001</quality>
              <le>6.0398392379283905e-002</le></_>
            <_><var>176</var>
              <quality>5.4457861185073853e-001</quality>
              <le>1.3479096814990044e-002</le></_>
            <_><var>78</var>
              <quality>5.4435282945632935e-001</quality>
              <le>3.5544726997613907e-002</le></_>
            <_><var>108</var>
              <quality>5.4365801811218262e-001</quality>
              <le>1.5803487971425056e-002</le></_>
            <_><var>103</var>
              <quality>5.3957891464233398e-001</quality>
              <le>1.5803487971425056e-002</le></_>
            <_><var>128</var>
              <quality>5.3546029329299927e-001</quality>
              <le>5.1885321736335754e-002</le></_>
            <_><var>61</var>
              <quality>5.3458005189895630e-001</quality>
              <le>1.0149559378623962e-001</le></_>
            <_><var>116</var>
              <quality>5.3356093168258667e-001</quality>
              <le>1.3479096814990044e-002</le></_>
            <_><var>48</var>
              <quality>5.3346180915832520e-001</quality>
              <le>1.3479096814990044e-002</le></_>
            <_><var>153</var>
              <quality>5.2441310882568359e-001</quality>
              <le>3.0179042369127274e-002</le></_>
            <_><var>30</var>
              <quality>5.2374392747879028e-001</quality>
              <le>2.0977020263671875e-001</le></_>
            <_><var>158</var>
              <quality>5.2157855033874512e-001</quality>
              <le>5.8719247579574585e-002</le></_>
            <_><var>35</var>
              <quality>5.2060419321060181e-001</quality>
              <le>1.5803487971425056e-002</le></_>
            <_><var>10</var>
              <quality>5.1893657445907593e-001</quality>
              <le>1.5389226377010345e-001</le></_>
            <_><var>96</var>
              <quality>5.1782482862472534e-001</quality>
              <le>3.3088557422161102e-002</le></_>
            <_><var>138</var>
              <quality>5.0776821374893188e-001</quality>
              <le>1.0759919881820679e-001</le></_>
            <_><var>161</var>
              <quality>5.0775629281997681e-001</quality>
              <le>1.7633641138672829e-002</le></_>
            <_><var>68</var>
              <quality>5.0637578964233398e-001</quality>
              <le>1.6618552803993225e-001</le></_>
            <_><var>126</var>
              <quality>5.0458174943923950e-001</quality>
              <le>3.7009546160697937e-001</le></_>
            <_><var>155</var>
              <quality>5.0149959325790405e-001</quality>
              <le>1.1563415080308914e-001</le></_>
            <_><var>160</var>
              <quality>5.0123298168182373e-001</quality>
              <le>4.4177323579788208e-002</le></_>
            <_><var>98</var>
              <quality>5.0065559148788452e-001</quality>
              <le>1.7393830418586731e-001</le></_>
            <_><var>56</var>
              <quality>5.0065559148788452e-001</quality>
              <le>2.6563596725463867e-001</le></_>
            <_><var>51</var>
              <quality>5.0065559148788452e-001</quality>
              <le>1.2626907229423523e-001</le></_>
            <_><var>90</var>
              <quality>5.0051844120025635e-001</quality>
              <le>8.4806688129901886e-002</le></_>
            <_><var>15</var>
              <quality>5.0030255317687988e-001</quality>
              <le>1.1078077554702759e-001</le></_>
            <_><var>141</var>
              <quality>5.0011473894119263e-001</quality>
              <le>2.3473429679870605e-001</le></_>
            <_><var>33</var>
              <quality>4.9943819642066956e-001</quality>
              <le>7.7010482549667358e-002</le></_>
            <_><var>26</var>
              <quality>4.9846950173377991e-001</quality>
              <le>2.8127197176218033e-002</le></_>
            <_><var>105</var>
              <quality>4.9714475870132446e-001</quality>
              <le>2.3901596665382385e-001</le></_>
            <_><var>156</var>
              <quality>4.9699398875236511e-001</quality>
              <le>1.6093865036964417e-001</le></_>
            <_><var>186</var>
              <quality>4.9687701463699341e-001</quality>
              <le>2.9030259698629379e-002</le></_>
            <_><var>145</var>
              <quality>4.9469017982482910e-001</quality>
              <le>2.0237019658088684e-001</le></_>
            <_><var>81</var>
              <quality>4.9466446042060852e-001</quality>
              <le>1.4888867735862732e-001</le></_>
            <_><var>28</var>
              <quality>4.9448105692863464e-001</quality>
              <le>9.8844453692436218e-002</le></_>
            <_><var>148</var>
              <quality>4.9418705701828003e-001</quality>
              <le>2.2998897731304169e-001</le></_>
            <_><var>151</var>
              <quality>4.9392873048782349e-001</quality>
              <le>1.3382923603057861e-001</le></_>
            <_><var>95</var>
              <quality>4.9391165375709534e-001</quality>
              <le>1.4592847228050232e-001</le></_>
            <_><var>18</var>
              <quality>4.9368456006050110e-001</quality>
              <le>1.9217582046985626e-001</le></_>
            <_><var>191</var>
              <quality>4.9353703856468201e-001</quality>
              <le>1.9022041559219360e-001</le></_>
            <_><var>140</var>
              <quality>4.9251019954681396e-001</quality>
              <le>3.8903862237930298e-001</le></_>
            <_><var>123</var>
              <quality>4.9251019954681396e-001</quality>
              <le>1.2840424478054047e-001</le></_>
            <_><var>195</var>
              <quality>4.9249887466430664e-001</quality>
              <le>5.5323611944913864e-002</le></_>
            <_><var>21</var>
              <quality>4.9237304925918579e-001</quality>
              <le>1.8247511982917786e-001</le></_>
            <_><var>188</var>
              <quality>4.9210643768310547e-001</quality>
              <le>8.2428169250488281e-001</le></_>
            <_><var>180</var>
              <quality>4.9210643768310547e-001</quality>
              <le>4.8942559957504272e-001</le></_>
            <_><var>55</var>
              <quality>4.9196934700012207e-001</quality>
              <le>2.3503597080707550e-001</le></_></splits></_>
        <_>
          <depth>1</depth>
          <sample_count>1659</sample_count>
          <value>-1.8033017685142078e-001</value>
          <norm_class_idx>0</norm_class_idx>
          <Tn>0</Tn>
          <complexity>0</complexity>
          <alpha>0.</alpha>
          <node_risk>0.</node_risk>
          <tree_risk>0.</tree_risk>
          <tree_error>0.</tree_error></_>
        <_>
          <depth>1</depth>
          <sample_count>35</sample_count>
          <value>1.8110958104156545e+000</value>
          <norm_class_idx>1</norm_class_idx>
          <Tn>0</Tn>
          <complexity>0</complexity>
          <alpha>0.</alpha>
          <node_risk>0.</node_risk>
          <tree_risk>0.</tree_risk>
          <tree_error>0.</tree_error></_></nodes></_>
    <_>
      <best_tree_idx>-1</best_tree_idx>
      <nodes>
        <_>
          <depth>0</depth>
          <sample_count>1691</sample_count>
          <value>-5.1675035859410478e-004</value>
          <norm_class_idx>0</norm_class_idx>
          <Tn>0</Tn>
          <complexity>0</complexity>
          <alpha>0.</alpha>
          <node_risk>0.</node_risk>
          <tree_risk>0.</tree_risk>
          <tree_error>0.</tree_error>
          <splits>
            <_><var>168</var>
              <quality>5.6228673458099365e-001</quality>
              <le>6.0584568977355957e-001</le></_>
            <_><var>190</var>
              <quality>4.9972665309906006e-001</quality>
              <le>1.7183664441108704e-001</le></_>
            <_><var>53</var>
              <quality>4.9968439340591431e-001</quality>
              <le>4.3038898706436157e-001</le></_></splits></_>
        <_>
          <depth>1</depth>
          <sample_count>1236</sample_count>
          <value>1.2535476768428486e-001</value>
          <norm_class_idx>1</norm_class_idx>
          <Tn>0</Tn>
          <complexity>0</complexity>
          <alpha>0.</alpha>
          <node_risk>0.</node_risk>
          <tree_risk>0.</tree_risk>
          <tree_error>0.</tree_error></_>
        <_>
          <depth>1</depth>
          <sample_count>455</sample_count>
          <value>-5.7564577324601141e+000</value>
          <norm_class_idx>0</norm_class_idx>
          <Tn>0</Tn>
          <complexity>0</complexity>
          <alpha>0.</alpha>
          <node_risk>0.</node_risk>
          <tree_risk>0.</tree_risk>
          <tree_error>0.</tree_error></_></nodes></_>
    <_>
      <best_tree_idx>-1</best_tree_idx>
      <nodes>
        <_>
          <depth>0</depth>
          <sample_count>1236</sample_count>
          <value>1.0214051826551336e-014</value>
          <norm_class_idx>1</norm_class_idx>
          <Tn>0</Tn>
          <complexity>0</complexity>
          <alpha>0.</alpha>
          <node_risk>0.</node_risk>
          <tree_risk>0.</tree_risk>
          <tree_error>0.</tree_error>
          <splits>
            <_><var>170</var>
              <quality>5.8673667907714844e-001</quality>
              <le>4.0979318320751190e-002</le></_>
            <_><var>183</var>
              <quality>5.3736168146133423e-001</quality>
              <le>7.8330472111701965e-002</le></_>
            <_><var>88</var>
              <quality>5.1061576604843140e-001</quality>
              <le>3.9578624069690704e-002</le></_>
            <_><var>71</var>
              <quality>5.0344532728195190e-001</quality>
              <le>4.7592099756002426e-002</le></_>
            <_><var>186</var>
              <quality>4.9451798200607300e-001</quality>
              <le>1.0044045001268387e-001</le></_>
            <_><var>85</var>
              <quality>4.9445208907127380e-001</quality>
              <le>1.3917809724807739e-001</le></_>
            <_><var>173</var>
              <quality>4.9334165453910828e-001</quality>
              <le>2.3087855428457260e-002</le></_>
            <_><var>60</var>
              <quality>4.9177429080009460e-001</quality>
              <le>1.5483963489532471e-001</le></_>
            <_><var>195</var>
              <quality>4.9005180597305298e-001</quality>
              <le>4.9584843218326569e-002</le></_>
            <_><var>171</var>
              <quality>4.8765873908996582e-001</quality>
              <le>6.7440986633300781e-002</le></_>
            <_><var>135</var>
              <quality>4.8762729763984680e-001</quality>
              <le>6.2875360250473022e-002</le></_>
            <_><var>126</var>
              <quality>4.8636853694915771e-001</quality>
              <le>1.4480230212211609e-001</le></_>
            <_><var>188</var>
              <quality>4.8392507433891296e-001</quality>
              <le>6.1725456267595291e-002</le></_>
            <_><var>145</var>
              <quality>4.8324322700500488e-001</quality>
              <le>3.1326299905776978e-001</le></_>
            <_><var>68</var>
              <quality>4.8248851299285889e-001</quality>
              <le>5.6160636246204376e-002</le></_>
            <_><var>10</var>
              <quality>4.8168656229972839e-001</quality>
              <le>7.7419817447662354e-002</le></_>
            <_><var>18</var>
              <quality>4.8143878579139709e-001</quality>
              <le>3.9280629158020020e-001</le></_>
            <_><var>33</var>
              <quality>4.8100557923316956e-001</quality>
              <le>3.8600963354110718e-001</le></_>
            <_><var>86</var>
              <quality>4.8096126317977905e-001</quality>
              <le>1.5500995516777039e-001</le></_>
            <_><var>176</var>
              <quality>4.8069423437118530e-001</quality>
              <le>7.7753767371177673e-002</le></_>
            <_><var>180</var>
              <quality>4.8066931962966919e-001</quality>
              <le>3.1243225932121277e-001</le></_>
            <_><var>98</var>
              <quality>4.7861012816429138e-001</quality>
              <le>1.1631163954734802e-001</le></_>
            <_><var>161</var>
              <quality>4.7844189405441284e-001</quality>
              <le>3.3291590213775635e-001</le></_>
            <_><var>56</var>
              <quality>4.7844189405441284e-001</quality>
              <le>2.6563596725463867e-001</le></_>
            <_><var>55</var>
              <quality>4.7838705778121948e-001</quality>
              <le>2.1827578544616699e-001</le></_>
            <_><var>181</var>
              <quality>4.7810909152030945e-001</quality>
              <le>4.9358047544956207e-002</le></_>
            <_><var>178</var>
              <quality>4.7803568840026855e-001</quality>
              <le>3.2173037528991699e-001</le></_>
            <_><var>26</var>
              <quality>4.7786745429039001e-001</quality>
              <le>1.5767824649810791e-001</le></_>
            <_><var>193</var>
              <quality>4.7773534059524536e-001</quality>
              <le>6.0689789056777954e-001</le></_>
            <_><var>155</var>
              <quality>4.7770109772682190e-001</quality>
              <le>1.6645795106887817e-001</le></_>
            <_><var>81</var>
              <quality>4.7753092646598816e-001</quality>
              <le>2.3833137750625610e-001</le></_>
            <_><var>75</var>
              <quality>4.7732266783714294e-001</quality>
              <le>1.5604279935359955e-001</le></_>
            <_><var>78</var>
              <quality>4.7725108265876770e-001</quality>
              <le>5.1297926902770996e-001</le></_>
            <_><var>61</var>
              <quality>4.7715440392494202e-001</quality>
              <le>2.3921225965023041e-001</le></_>
            <_><var>165</var>
              <quality>4.7707822918891907e-001</quality>
              <le>4.3357795476913452e-001</le></_>
            <_><var>90</var>
              <quality>4.7698614001274109e-001</quality>
              <le>2.5110420584678650e-001</le></_>
            <_><var>31</var>
              <quality>4.7698614001274109e-001</quality>
              <le>6.2359690666198730e-001</le></_>
            <_><var>108</var>
              <quality>4.7682589292526245e-001</quality>
              <le>1.1886759102344513e-001</le></_>
            <_><var>150</var>
              <quality>4.7681787610054016e-001</quality>
              <le>5.3926122188568115e-001</le></_>
            <_><var>65</var>
              <quality>4.7681787610054016e-001</quality>
              <le>2.2997963428497314e-001</le></_>
            <_><var>58</var>
              <quality>4.7681787610054016e-001</quality>
              <le>3.2806771993637085e-001</le></_>
            <_><var>35</var>
              <quality>4.7681787610054016e-001</quality>
              <le>4.0690094232559204e-001</le></_>
            <_><var>21</var>
              <quality>4.7681787610054016e-001</quality>
              <le>1.0585840046405792e-001</le></_></splits></_>
        <_>
          <depth>1</depth>
          <sample_count>740</sample_count>
          <value>2.0335135225104267e-001</value>
          <norm_class_idx>1</norm_class_idx>
          <Tn>0</Tn>
          <complexity>0</complexity>
          <alpha>0.</alpha>
          <node_risk>0.</node_risk>
          <tree_risk>0.</tree_risk>
          <tree_error>0.</tree_error></_>
        <_>
          <depth>1</depth>
          <sample_count>496</sample_count>
          <value>-1.3337325879824835e+000</value>
          <norm_class_idx>0</norm_class_idx>
          <Tn>0</Tn>
          <complexity>0</complexity>
          <alpha>0.</alpha>
          <node_risk>0.</node_risk>
          <tree_risk>0.</tree_risk>
          <tree_error>0.</tree_error></_></nodes></_>
    <_>
      <best_tree_idx>-1</best_tree_idx>
      <nodes>
        <_>
          <depth>0</depth>
          <sample_count>754</sample_count>
          <value>4.8051232194704002e-002</value>
          <norm_class_idx>1</norm_class_idx>
          <Tn>0</Tn>
          <complexity>0</complexity>
          <alpha>0.</alpha>
          <node_risk>0.</node_risk>
          <tree_risk>0.</tree_risk>
          <tree_error>0.</tree_error>
          <splits>
            <_><var>175</var>
              <quality>5.4094743728637695e-001</quality>
              <le>5.2514016628265381e-001</le></_>
            <_><var>43</var>
              <quality>4.8623815178871155e-001</quality>
              <le>3.4074974060058594e-001</le></_>
            <_><var>80</var>
              <quality>4.8321393132209778e-001</quality>
              <le>1.9429862499237061e-001</le></_>
            <_><var>53</var>
              <quality>4.8311856389045715e-001</quality>
              <le>3.3998721837997437e-001</le></_>
            <_><var>196</var>
              <quality>4.8273193836212158e-001</quality>
              <le>3.8218259811401367e-001</le></_></splits></_>
        <_>
          <depth>1</depth>
          <sample_count>561</sample_count>
          <value>1.7644102354705715e-001</value>
          <norm_class_idx>1</norm_class_idx>
          <Tn>0</Tn>
          <complexity>0</complexity>
          <alpha>0.</alpha>
          <node_risk>0.</node_risk>
          <tree_risk>0.</tree_risk>
          <tree_error>0.</tree_error></_>
        <_>
          <depth>1</depth>
          <sample_count>193</sample_count>
          <value>-5.7564577324601141e+000</value>
          <norm_class_idx>0</norm_class_idx>
          <Tn>0</Tn>
          <complexity>0</complexity>
          <alpha>0.</alpha>
          <node_risk>0.</node_risk>
          <tree_risk>0.</tree_risk>
          <tree_error>0.</tree_error></_></nodes></_>
    <_>
      <best_tree_idx>-1</best_tree_idx>
      <nodes>
        <_>
          <depth>0</depth>
          <sample_count>598</sample_count>
          <value>-1.0010166654625554e-002</value>
          <norm_class_idx>0</norm_class_idx>
          <Tn>0</Tn>
          <complexity>0</complexity>
          <alpha>0.</alpha>
          <node_risk>0.</node_risk>
          <tree_risk>0.</tree_risk>
          <tree_error>0.</tree_error>
          <splits>
            <_><var>185</var>
              <quality>5.4106825590133667e-001</quality>
              <le>4.4389821588993073e-002</le></_>
            <_><var>193</var>
              <quality>4.5494958758354187e-001</quality>
              <le>2.4666260182857513e-001</le></_>
            <_><var>135</var>
              <quality>4.3902862071990967e-001</quality>
              <le>8.9444868266582489e-002</le></_>
            <_><var>166</var>
              <quality>4.3216255307197571e-001</quality>
              <le>2.7217033505439758e-001</le></_>
            <_><var>183</var>
              <quality>4.2801848053932190e-001</quality>
              <le>4.5384280383586884e-002</le></_>
            <_><var>88</var>
              <quality>4.2584332823753357e-001</quality>
              <le>3.5445403307676315e-002</le></_>
            <_><var>171</var>
              <quality>4.2429551482200623e-001</quality>
              <le>8.9499615132808685e-002</le></_>
            <_><var>156</var>
              <quality>4.2131662368774414e-001</quality>
              <le>1.2176822125911713e-001</le></_>
            <_><var>71</var>
              <quality>4.1881173849105835e-001</quality>
              <le>1.5662541985511780e-001</le></_>
            <_><var>40</var>
              <quality>4.1838172078132629e-001</quality>
              <le>1.7939925193786621e-001</le></_>
            <_><var>168</var>
              <quality>4.1443935036659241e-001</quality>
              <le>6.0280001163482666e-001</le></_>
            <_><var>186</var>
              <quality>4.1307881474494934e-001</quality>
              <le>3.0501261353492737e-001</le></_>
            <_><var>138</var>
              <quality>4.1157454252243042e-001</quality>
              <le>1.8601745367050171e-001</le></_>
            <_><var>8</var>
              <quality>4.0886414051055908e-001</quality>
              <le>4.5388481020927429e-001</le></_>
            <_><var>43</var>
              <quality>4.0863358974456787e-001</quality>
              <le>1.6733239591121674e-001</le></_>
            <_><var>63</var>
              <quality>4.0834408998489380e-001</quality>
              <le>6.0191571712493896e-001</le></_>
            <_><var>30</var>
              <quality>4.0833407640457153e-001</quality>
              <le>1.3353672623634338e-001</le></_>
            <_><var>163</var>
              <quality>4.0728035569190979e-001</quality>
              <le>1.3304191827774048e-001</le></_>
            <_><var>196</var>
              <quality>4.0693464875221252e-001</quality>
              <le>3.1723725795745850e-001</le></_>
            <_><var>75</var>
              <quality>4.0668025612831116e-001</quality>
              <le>1.3913822174072266e-001</le></_>
            <_><var>153</var>
              <quality>4.0665370225906372e-001</quality>
              <le>5.2148658037185669e-001</le></_>
            <_><var>170</var>
              <quality>4.0651917457580566e-001</quality>
              <le>1.3096533715724945e-001</le></_>
            <_><var>6</var>
              <quality>4.0560334920883179e-001</quality>
              <le>4.6071809530258179e-001</le></_>
            <_><var>128</var>
              <quality>4.0537703037261963e-001</quality>
              <le>3.0306407809257507e-001</le></_>
            <_><var>85</var>
              <quality>4.0524902939796448e-001</quality>
              <le>3.6315298080444336e-001</le></_>
            <_><var>136</var>
              <quality>4.0513196587562561e-001</quality>
              <le>2.8920194506645203e-001</le></_>
            <_><var>80</var>
              <quality>4.0507575869560242e-001</quality>
              <le>1.7344278097152710e-001</le></_>
            <_><var>35</var>
              <quality>4.0507575869560242e-001</quality>
              <le>3.6548739671707153e-001</le></_>
            <_><var>180</var>
              <quality>4.0494778752326965e-001</quality>
              <le>4.4335535168647766e-001</le></_>
            <_><var>55</var>
              <quality>4.0494778752326965e-001</quality>
              <le>2.2757869958877563e-001</le></_>
            <_><var>151</var>
              <quality>4.0479210019111633e-001</quality>
              <le>5.0004160404205322e-001</le></_>
            <_><var>181</var>
              <quality>4.0477451682090759e-001</quality>
              <le>3.5915213823318481e-001</le></_>
            <_><var>60</var>
              <quality>4.0477451682090759e-001</quality>
              <le>8.9693754911422729e-001</le></_>
            <_><var>45</var>
              <quality>4.0477451682090759e-001</quality>
              <le>3.8069468736648560e-001</le></_>
            <_><var>78</var>
              <quality>4.0464001893997192e-001</quality>
              <le>5.1297926902770996e-001</le></_>
            <_><var>150</var>
              <quality>4.0447324514389038e-001</quality>
              <le>6.4721584320068359e-001</le></_>
            <_><var>28</var>
              <quality>4.0447324514389038e-001</quality>
              <le>5.3499472141265869e-001</le></_></splits></_>
        <_>
          <depth>1</depth>
          <sample_count>350</sample_count>
          <value>2.0963985564893908e-001</value>
          <norm_class_idx>1</norm_class_idx>
          <Tn>0</Tn>
          <complexity>0</complexity>
          <alpha>0.</alpha>
          <node_risk>0.</node_risk>
          <tree_risk>0.</tree_risk>
          <tree_error>0.</tree_error></_>
        <_>
          <depth>1</depth>
          <sample_count>248</sample_count>
          <value>-7.7786655798181037e-001</value>
          <norm_class_idx>0</norm_class_idx>
          <Tn>0</Tn>
          <complexity>0</complexity>
          <alpha>0.</alpha>
          <node_risk>0.</node_risk>
          <tree_risk>0.</tree_risk>
          <tree_error>0.</tree_error></_></nodes></_>
    <_>
      <best_tree_idx>-1</best_tree_idx>
      <nodes>
        <_>
          <depth>0</depth>
          <sample_count>783</sample_count>
          <value>-2.9776040772096397e-002</value>
          <norm_class_idx>0</norm_class_idx>
          <Tn>0</Tn>
          <complexity>0</complexity>
          <alpha>0.</alpha>
          <node_risk>0.</node_risk>
          <tree_risk>0.</tree_risk>
          <tree_error>0.</tree_error>
          <splits>
            <_><var>18</var>
              <quality>5.4258018732070923e-001</quality>
              <le>7.2850942611694336e-002</le></_>
            <_><var>28</var>
              <quality>5.0864970684051514e-001</quality>
              <le>6.0321070253849030e-002</le></_>
            <_><var>131</var>
              <quality>5.0402754545211792e-001</quality>
              <le>1.3466832041740417e-001</le></_>
            <_><var>60</var>
              <quality>4.9649959802627563e-001</quality>
              <le>1.4086383581161499e-001</le></_>
            <_><var>33</var>
              <quality>4.9541160464286804e-001</quality>
              <le>9.9568158388137817e-002</le></_>
            <_><var>10</var>
              <quality>4.9406075477600098e-001</quality>
              <le>3.0331049114465714e-002</le></_>
            <_><var>126</var>
              <quality>4.8974880576133728e-001</quality>
              <le>6.0004301369190216e-002</le></_>
            <_><var>115</var>
              <quality>4.8507422208786011e-001</quality>
              <le>1.7703679203987122e-001</le></_>
            <_><var>145</var>
              <quality>4.8505499958992004e-001</quality>
              <le>2.5120806694030762e-001</le></_>
            <_><var>35</var>
              <quality>4.8472785949707031e-001</quality>
              <le>3.6819756031036377e-002</le></_>
            <_><var>88</var>
              <quality>4.8393195867538452e-001</quality>
              <le>3.7942981719970703e-001</le></_>
            <_><var>186</var>
              <quality>4.7976672649383545e-001</quality>
              <le>3.7742218375205994e-001</le></_>
            <_><var>193</var>
              <quality>4.7810259461402893e-001</quality>
              <le>4.5078545808792114e-001</le></_>
            <_><var>171</var>
              <quality>4.7802767157554626e-001</quality>
              <le>3.7724816799163818e-001</le></_>
            <_><var>63</var>
              <quality>4.7724568843841553e-001</quality>
              <le>6.0191571712493896e-001</le></_>
            <_><var>185</var>
              <quality>4.7668194770812988e-001</quality>
              <le>2.2775760293006897e-001</le></_>
            <_><var>176</var>
              <quality>4.7610145807266235e-001</quality>
              <le>1.2777465581893921e-001</le></_>
            <_><var>165</var>
              <quality>4.7448167204856873e-001</quality>
              <le>3.8720972836017609e-002</le></_>
            <_><var>86</var>
              <quality>4.7390192747116089e-001</quality>
              <le>3.2867178320884705e-002</le></_>
            <_><var>166</var>
              <quality>4.7254425287246704e-001</quality>
              <le>3.0358004570007324e-001</le></_>
            <_><var>56</var>
              <quality>4.7183275222778320e-001</quality>
              <le>1.7143985629081726e-001</le></_>
            <_><var>41</var>
              <quality>4.7127532958984375e-001</quality>
              <le>1.6054336726665497e-001</le></_>
            <_><var>15</var>
              <quality>4.7052878141403198e-001</quality>
              <le>1.1078077554702759e-001</le></_>
            <_><var>183</var>
              <quality>4.7038245201110840e-001</quality>
              <le>7.4383944272994995e-002</le></_>
            <_><var>160</var>
              <quality>4.6951955556869507e-001</quality>
              <le>2.6384794712066650e-001</le></_>
            <_><var>103</var>
              <quality>4.6951955556869507e-001</quality>
              <le>3.3374324440956116e-001</le></_>
            <_><var>0</var>
              <quality>4.6943798661231995e-001</quality>
              <le>4.2737718671560287e-002</le></_>
            <_><var>61</var>
              <quality>4.6943530440330505e-001</quality>
              <le>3.4274321794509888e-001</le></_>
            <_><var>141</var>
              <quality>4.6898868680000305e-001</quality>
              <le>2.3473429679870605e-001</le></_>
            <_><var>148</var>
              <quality>4.6883410215377808e-001</quality>
              <le>6.1707317829132080e-001</le></_>
            <_><var>26</var>
              <quality>4.6874773502349854e-001</quality>
              <le>1.8012949824333191e-001</le></_>
            <_><var>128</var>
              <quality>4.6868959069252014e-001</quality>
              <le>2.6777106523513794e-001</le></_>
            <_><var>68</var>
              <quality>4.6861490607261658e-001</quality>
              <le>1.9804218411445618e-001</le></_>
            <_><var>31</var>
              <quality>4.6844002604484558e-001</quality>
              <le>6.2359690666198730e-001</le></_>
            <_><var>6</var>
              <quality>4.6841624379158020e-001</quality>
              <le>4.7281363606452942e-001</le></_></splits></_>
        <_>
          <depth>1</depth>
          <sample_count>760</sample_count>
          <value>-1.5946229696463549e-001</value>
          <norm_class_idx>0</norm_class_idx>
          <Tn>0</Tn>
          <complexity>0</complexity>
          <alpha>0.</alpha>
          <node_risk>0.</node_risk>
          <tree_risk>0.</tree_risk>
          <tree_error>0.</tree_error></_>
        <_>
          <depth>1</depth>
          <sample_count>23</sample_count>
          <value>1.0457921847917577e+000</value>
          <norm_class_idx>1</norm_class_idx>
          <Tn>0</Tn>
          <complexity>0</complexity>
          <alpha>0.</alpha>
          <node_risk>0.</node_risk>
          <tree_risk>0.</tree_risk>
          <tree_error>0.</tree_error></_></nodes></_>
    <_>
      <best_tree_idx>-1</best_tree_idx>
      <nodes>
        <_>
          <depth>0</depth>
          <sample_count>573</sample_count>
          <value>2.9906649619974513e-002</value>
          <norm_class_idx>1</norm_class_idx>
          <Tn>0</Tn>
          <complexity>0</complexity>
          <alpha>0.</alpha>
          <node_risk>0.</node_risk>
          <tree_risk>0.</tree_risk>
          <tree_error>0.</tree_error>
          <splits>
            <_><var>25</var>
              <quality>5.2295595407485962e-001</quality>
              <le>7.2834050655364990e-001</le></_>
            <_><var>168</var>
              <quality>4.4817683100700378e-001</quality>
              <le>5.9897404909133911e-001</le></_>
            <_><var>198</var>
              <quality>4.3327972292900085e-001</quality>
              <le>6.6143298149108887e-001</le></_></splits></_>
        <_>
          <depth>1</depth>
          <sample_count>521</sample_count>
          <value>-1.2390239242190929e-001</value>
          <norm_class_idx>0</norm_class_idx>
          <Tn>0</Tn>
          <complexity>0</complexity>
          <alpha>0.</alpha>
          <node_risk>0.</node_risk>
          <tree_risk>0.</tree_risk>
          <tree_error>0.</tree_error></_>
        <_>
          <depth>1</depth>
          <sample_count>52</sample_count>
          <value>7.7584609253776393e-001</value>
          <norm_class_idx>1</norm_class_idx>
          <Tn>0</Tn>
          <complexity>0</complexity>
          <alpha>0.</alpha>
          <node_risk>0.</node_risk>
          <tree_risk>0.</tree_risk>
          <tree_error>0.</tree_error></_></nodes></_>
    <_>
      <best_tree_idx>-1</best_tree_idx>
      <nodes>
        <_>
          <depth>0</depth>
          <sample_count>573</sample_count>
          <value>-3.1641356201817060e-015</value>
          <norm_class_idx>0</norm_class_idx>
          <Tn>0</Tn>
          <complexity>0</complexity>
          <alpha>0.</alpha>
          <node_risk>0.</node_risk>
          <tree_risk>0.</tree_risk>
          <tree_error>0.</tree_error>
          <splits>
            <_><var>121</var>
              <quality>5.2801728248596191e-001</quality>
              <le>1.8105950951576233e-001</le></_>
            <_><var>13</var>
              <quality>5.2661561965942383e-001</quality>
              <le>1.3136132061481476e-001</le></_>
            <_><var>53</var>
              <quality>5.1622688770294189e-001</quality>
              <le>1.4999642968177795e-001</le></_>
            <_><var>55</var>
              <quality>5.1558494567871094e-001</quality>
              <le>1.4195558428764343e-001</le></_>
            <_><var>130</var>
              <quality>5.1182693243026733e-001</quality>
              <le>2.1745723485946655e-001</le></_>
            <_><var>45</var>
              <quality>5.0280737876892090e-001</quality>
              <le>8.5312388837337494e-002</le></_>
            <_><var>120</var>
              <quality>4.9798527359962463e-001</quality>
              <le>3.3367514610290527e-001</le></_>
            <_><var>150</var>
              <quality>4.9405547976493835e-001</quality>
              <le>2.9509788751602173e-001</le></_>
            <_><var>146</var>
              <quality>4.9225267767906189e-001</quality>
              <le>3.3199113607406616e-001</le></_>
            <_><var>20</var>
              <quality>4.9090960621833801e-001</quality>
              <le>2.8123492002487183e-001</le></_>
            <_><var>80</var>
              <quality>4.9049323797225952e-001</quality>
              <le>1.1603762954473495e-001</le></_>
            <_><var>6</var>
              <quality>4.8184353113174438e-001</quality>
              <le>3.9066827297210693e-001</le></_>
            <_><var>190</var>
              <quality>4.7799786925315857e-001</quality>
              <le>8.7582454085350037e-002</le></_>
            <_><var>143</var>
              <quality>4.7703975439071655e-001</quality>
              <le>2.1297921240329742e-001</le></_>
            <_><var>5</var>
              <quality>4.7703975439071655e-001</quality>
              <le>3.1941103935241699e-001</le></_>
            <_><var>28</var>
              <quality>4.7637096047401428e-001</quality>
              <le>2.8341284394264221e-001</le></_></splits></_>
        <_>
          <depth>1</depth>
          <sample_count>564</sample_count>
          <value>-1.0636825685844765e-001</value>
          <norm_class_idx>0</norm_class_idx>
          <Tn>0</Tn>
          <complexity>0</complexity>
          <alpha>0.</alpha>
          <node_risk>0.</node_risk>
          <tree_risk>0.</tree_risk>
          <tree_error>0.</tree_error></_>
        <_>
          <depth>1</depth>
          <sample_count>9</sample_count>
          <value>2.1800462515161163e+000</value>
          <norm_class_idx>1</norm_class_idx>
          <Tn>0</Tn>
          <complexity>0</complexity>
          <alpha>0.</alpha>
          <node_risk>0.</node_risk>
          <tree_risk>0.</tree_risk>
          <tree_error>0.</tree_error></_></nodes></_>
    <_>
      <best_tree_idx>-1</best_tree_idx>
      <nodes>
        <_>
          <depth>0</depth>
          <sample_count>577</sample_count>
          <value>-1.9633991290089726e-003</value>
          <norm_class_idx>0</norm_class_idx>
          <Tn>0</Tn>
          <complexity>0</complexity>
          <alpha>0.</alpha>
          <node_risk>0.</node_risk>
          <tree_risk>0.</tree_risk>
          <tree_error>0.</tree_error>
          <splits>
            <_><var>133</var>
              <quality>5.1686561107635498e-001</quality>
              <le>9.1865882277488708e-002</le></_>
            <_><var>70</var>
              <quality>4.5859929919242859e-001</quality>
              <le>4.7086954116821289e-001</le></_>
            <_><var>101</var>
              <quality>4.4753596186637878e-001</quality>
              <le>3.5446357727050781e-001</le></_>
            <_><var>150</var>
              <quality>4.4709035754203796e-001</quality>
              <le>8.5244745016098022e-002</le></_>
            <_><var>0</var>
              <quality>4.4708946347236633e-001</quality>
              <le>1.1027696728706360e-001</le></_>
            <_><var>8</var>
              <quality>4.4535100460052490e-001</quality>
              <le>2.4911534786224365e-001</le></_>
            <_><var>120</var>
              <quality>4.4485279917716980e-001</quality>
              <le>1.5068719163537025e-002</le></_>
            <_><var>66</var>
              <quality>4.4299763441085815e-001</quality>
              <le>3.1843894720077515e-001</le></_>
            <_><var>41</var>
              <quality>4.4217252731323242e-001</quality>
              <le>3.2141216099262238e-002</le></_>
            <_><var>83</var>
              <quality>4.4204151630401611e-001</quality>
              <le>1.4286141097545624e-001</le></_>
            <_><var>148</var>
              <quality>4.4185298681259155e-001</quality>
              <le>8.2600645720958710e-002</le></_>
            <_><var>118</var>
              <quality>4.4104060530662537e-001</quality>
              <le>1.3665419816970825e-001</le></_>
            <_><var>58</var>
              <quality>4.4061863422393799e-001</quality>
              <le>2.4876400828361511e-002</le></_>
            <_><var>166</var>
              <quality>4.3793213367462158e-001</quality>
              <le>2.0168742537498474e-001</le></_>
            <_><var>105</var>
              <quality>4.3406859040260315e-001</quality>
              <le>2.8795948624610901e-001</le></_>
            <_><var>50</var>
              <quality>4.3406859040260315e-001</quality>
              <le>1.1948764324188232e-001</le></_>
            <_><var>65</var>
              <quality>4.3375003337860107e-001</quality>
              <le>2.0976307988166809e-001</le></_>
            <_><var>6</var>
              <quality>4.3102669715881348e-001</quality>
              <le>4.7281363606452942e-001</le></_>
            <_><var>163</var>
              <quality>4.3093815445899963e-001</quality>
              <le>1.7467814683914185e-001</le></_>
            <_><var>68</var>
              <quality>4.2969006299972534e-001</quality>
              <le>3.8827782869338989e-001</le></_>
            <_><var>26</var>
              <quality>4.2926394939422607e-001</quality>
              <le>1.8012949824333191e-001</le></_>
            <_><var>106</var>
              <quality>4.2914140224456787e-001</quality>
              <le>9.6523903310298920e-002</le></_>
            <_><var>46</var>
              <quality>4.2914140224456787e-001</quality>
              <le>9.6523903310298920e-002</le></_>
            <_><var>146</var>
              <quality>4.2895591259002686e-001</quality>
              <le>2.1523764729499817e-001</le></_>
            <_><var>111</var>
              <quality>4.2895245552062988e-001</quality>
              <le>1.8959870934486389e-001</le></_>
            <_><var>155</var>
              <quality>4.2894542217254639e-001</quality>
              <le>1.9317409396171570e-001</le></_>
            <_><var>75</var>
              <quality>4.2874181270599365e-001</quality>
              <le>7.9347550868988037e-002</le></_>
            <_><var>21</var>
              <quality>4.2869445681571960e-001</quality>
              <le>3.2174631953239441e-002</le></_>
            <_><var>40</var>
              <quality>4.2863798141479492e-001</quality>
              <le>7.8464829921722412e-001</le></_>
            <_><var>160</var>
              <quality>4.2852354049682617e-001</quality>
              <le>6.8429931998252869e-002</le></_>
            <_><var>176</var>
              <quality>4.2851930856704712e-001</quality>
              <le>6.6775685548782349e-001</le></_>
            <_><var>30</var>
              <quality>4.2837634682655334e-001</quality>
              <le>2.5286281108856201e-001</le></_>
            <_><var>153</var>
              <quality>4.2831939458847046e-001</quality>
              <le>5.7733118534088135e-001</le></_>
            <_><var>63</var>
              <quality>4.2821016907691956e-001</quality>
              <le>4.6955779194831848e-001</le></_></splits></_>
        <_>
          <depth>1</depth>
          <sample_count>525</sample_count>
          <value>-1.3017752136934807e-001</value>
          <norm_class_idx>0</norm_class_idx>
          <Tn>0</Tn>
          <complexity>0</complexity>
          <alpha>0.</alpha>
          <node_risk>0.</node_risk>
          <tree_risk>0.</tree_risk>
          <tree_error>0.</tree_error></_>
        <_>
          <depth>1</depth>
          <sample_count>52</sample_count>
          <value>7.1485188273036693e-001</value>
          <norm_class_idx>1</norm_class_idx>
          <Tn>0</Tn>
          <complexity>0</complexity>
          <alpha>0.</alpha>
          <node_risk>0.</node_risk>
          <tree_risk>0.</tree_risk>
          <tree_error>0.</tree_error></_></nodes></_>
    <_>
      <best_tree_idx>-1</best_tree_idx>
      <nodes>
        <_>
          <depth>0</depth>
          <sample_count>583</sample_count>
          <value>-1.1584077247056301e-003</value>
          <norm_class_idx>0</norm_class_idx>
          <Tn>0</Tn>
          <complexity>0</complexity>
          <alpha>0.</alpha>
          <node_risk>0.</node_risk>
          <tree_risk>0.</tree_risk>
          <tree_error>0.</tree_error>
          <splits>
            <_><var>3</var>
              <quality>5.2250909805297852e-001</quality>
              <le>4.7911834716796875e-001</le></_>
            <_><var>175</var>
              <quality>4.8342186212539673e-001</quality>
              <le>3.8312619924545288e-001</le></_>
            <_><var>110</var>
              <quality>4.7372356057167053e-001</quality>
              <le>6.3019281625747681e-001</le></_>
            <_><var>63</var>
              <quality>4.6994540095329285e-001</quality>
              <le>4.3965965509414673e-001</le></_>
            <_><var>56</var>
              <quality>4.6338999271392822e-001</quality>
              <le>4.6439848840236664e-002</le></_></splits></_>
        <_>
          <depth>1</depth>
          <sample_count>568</sample_count>
          <value>-1.0730029701659362e-001</value>
          <norm_class_idx>0</norm_class_idx>
          <Tn>0</Tn>
          <complexity>0</complexity>
          <alpha>0.</alpha>
          <node_risk>0.</node_risk>
          <tree_risk>0.</tree_risk>
          <tree_error>0.</tree_error></_>
        <_>
          <depth>1</depth>
          <sample_count>15</sample_count>
          <value>1.1349512919981948e+000</value>
          <norm_class_idx>1</norm_class_idx>
          <Tn>0</Tn>
          <complexity>0</complexity>
          <alpha>0.</alpha>
          <node_risk>0.</node_risk>
          <tree_risk>0.</tree_risk>
          <tree_error>0.</tree_error></_></nodes></_>
    <_>
      <best_tree_idx>-1</best_tree_idx>
      <nodes>
        <_>
          <depth>0</depth>
          <sample_count>585</sample_count>
          <value>-7.9692048123328413e-004</value>
          <norm_class_idx>0</norm_class_idx>
          <Tn>0</Tn>
          <complexity>0</complexity>
          <alpha>0.</alpha>
          <node_risk>0.</node_risk>
          <tree_risk>0.</tree_risk>
          <tree_error>0.</tree_error>
          <splits>
            <_><var>10</var>
              <quality>5.2532517910003662e-001</quality>
              <le>1.5137621201574802e-002</le></_>
            <_><var>61</var>
              <quality>4.9448794126510620e-001</quality>
              <le>6.9022968411445618e-002</le></_>
            <_><var>186</var>
              <quality>4.8823106288909912e-001</quality>
              <le>1.1403280496597290e-001</le></_>
            <_><var>126</var>
              <quality>4.8567563295364380e-001</quality>
              <le>1.3167291879653931e-001</le></_>
            <_><var>176</var>
              <quality>4.8556816577911377e-001</quality>
              <le>3.0440434813499451e-002</le></_>
            <_><var>60</var>
              <quality>4.8325669765472412e-001</quality>
              <le>5.0296485424041748e-002</le></_>
            <_><var>170</var>
              <quality>4.8183605074882507e-001</quality>
              <le>4.0397521108388901e-002</le></_>
            <_><var>86</var>
              <quality>4.7915709018707275e-001</quality>
              <le>7.7830106019973755e-002</le></_>
            <_><var>113</var>
              <quality>4.7626399993896484e-001</quality>
              <le>7.8330472111701965e-002</le></_>
            <_><var>28</var>
              <quality>4.7177559137344360e-001</quality>
              <le>2.0429445430636406e-002</le></_>
            <_><var>11</var>
              <quality>4.6882709860801697e-001</quality>
              <le>7.6244533061981201e-002</le></_>
            <_><var>88</var>
              <quality>4.6876290440559387e-001</quality>
              <le>3.1174775958061218e-001</le></_>
            <_><var>145</var>
              <quality>4.6790021657943726e-001</quality>
              <le>1.0993720591068268e-001</le></_>
            <_><var>31</var>
              <quality>4.6709817647933960e-001</quality>
              <le>1.0625439882278442e-001</le></_>
            <_><var>128</var>
              <quality>4.6584540605545044e-001</quality>
              <le>1.6012814640998840e-001</le></_>
            <_><var>161</var>
              <quality>4.6514192223548889e-001</quality>
              <le>2.4421676993370056e-001</le></_>
            <_><var>98</var>
              <quality>4.6495392918586731e-001</quality>
              <le>1.6739091277122498e-001</le></_>
            <_><var>56</var>
              <quality>4.6495392918586731e-001</quality>
              <le>2.6563596725463867e-001</le></_>
            <_><var>71</var>
              <quality>4.6487364172935486e-001</quality>
              <le>1.0088402032852173e-001</le></_>
            <_><var>131</var>
              <quality>4.6444818377494812e-001</quality>
              <le>3.6159336566925049e-001</le></_>
            <_><var>85</var>
              <quality>4.6311947703361511e-001</quality>
              <le>1.4532828330993652e-001</le></_>
            <_><var>18</var>
              <quality>4.6294701099395752e-001</quality>
              <le>3.9280629158020020e-001</le></_>
            <_><var>38</var>
              <quality>4.6245750784873962e-001</quality>
              <le>9.4910010695457458e-002</le></_>
            <_><var>33</var>
              <quality>4.6243685483932495e-001</quality>
              <le>1.3246852159500122e-001</le></_>
            <_><var>183</var>
              <quality>4.6214517951011658e-001</quality>
              <le>7.4383944272994995e-002</le></_>
            <_><var>155</var>
              <quality>4.6144086122512817e-001</quality>
              <le>1.1563415080308914e-001</le></_>
            <_><var>171</var>
              <quality>4.6066677570343018e-001</quality>
              <le>3.7724816799163818e-001</le></_>
            <_><var>48</var>
              <quality>4.6034666895866394e-001</quality>
              <le>2.8616718947887421e-002</le></_>
            <_><var>135</var>
              <quality>4.5958277583122253e-001</quality>
              <le>8.8432326912879944e-002</le></_>
            <_><var>103</var>
              <quality>4.5881739258766174e-001</quality>
              <le>3.2764825969934464e-002</le></_>
            <_><var>26</var>
              <quality>4.5858812332153320e-001</quality>
              <le>2.8127197176218033e-002</le></_>
            <_><var>115</var>
              <quality>4.5709940791130066e-001</quality>
              <le>1.7703679203987122e-001</le></_>
            <_><var>108</var>
              <quality>4.5462426543235779e-001</quality>
              <le>3.6964759230613708e-002</le></_>
            <_><var>173</var>
              <quality>4.5357695221900940e-001</quality>
              <le>2.8127197176218033e-002</le></_>
            <_><var>41</var>
              <quality>4.5355844497680664e-001</quality>
              <le>1.6054336726665497e-001</le></_>
            <_><var>165</var>
              <quality>4.5352670550346375e-001</quality>
              <le>4.3357795476913452e-001</le></_>
            <_><var>116</var>
              <quality>4.5293530821800232e-001</quality>
              <le>4.3412429094314575e-001</le></_>
            <_><var>35</var>
              <quality>4.5159313082695007e-001</quality>
              <le>3.6217948794364929e-001</le></_></splits></_>
        <_>
          <depth>1</depth>
          <sample_count>552</sample_count>
          <value>-1.2291038766999370e-001</value>
          <norm_class_idx>0</norm_class_idx>
          <Tn>0</Tn>
          <complexity>0</complexity>
          <alpha>0.</alpha>
          <node_risk>0.</node_risk>
          <tree_risk>0.</tree_risk>
          <tree_error>0.</tree_error></_>
        <_>
          <depth>1</depth>
          <sample_count>33</sample_count>
          <value>9.5147735459044303e-001</value>
          <norm_class_idx>1</norm_class_idx>
          <Tn>0</Tn>
          <complexity>0</complexity>
          <alpha>0.</alpha>
          <node_risk>0.</node_risk>
          <tree_risk>0.</tree_risk>
          <tree_error>0.</tree_error></_></nodes></_>
    <_>
      <best_tree_idx>-1</best_tree_idx>
      <nodes>
        <_>
          <depth>0</depth>
          <sample_count>598</sample_count>
          <value>-4.0715075940536720e-003</value>
          <norm_class_idx>0</norm_class_idx>
          <Tn>0</Tn>
          <complexity>0</complexity>
          <alpha>0.</alpha>
          <node_risk>0.</node_risk>
          <tree_risk>0.</tree_risk>
          <tree_error>0.</tree_error>
          <splits>
            <_><var>25</var>
              <quality>5.1404166221618652e-001</quality>
              <le>6.4403825998306274e-001</le></_>
            <_><var>168</var>
              <quality>4.4614344835281372e-001</quality>
              <le>9.4017997384071350e-002</le></_>
            <_><var>198</var>
              <quality>4.2371663451194763e-001</quality>
              <le>3.0974519252777100e-001</le></_>
            <_><var>15</var>
              <quality>3.9318481087684631e-001</quality>
              <le>1.4125195331871510e-002</le></_>
            <_><var>50</var>
              <quality>3.9157056808471680e-001</quality>
              <le>1.4125195331871510e-002</le></_>
            <_><var>163</var>
              <quality>3.8644722104072571e-001</quality>
              <le>2.0470520853996277e-001</le></_></splits></_>
        <_>
          <depth>1</depth>
          <sample_count>533</sample_count>
          <value>-1.4923179836666550e-001</value>
          <norm_class_idx>0</norm_class_idx>
          <Tn>0</Tn>
          <complexity>0</complexity>
          <alpha>0.</alpha>
          <node_risk>0.</node_risk>
          <tree_risk>0.</tree_risk>
          <tree_error>0.</tree_error></_>
        <_>
          <depth>1</depth>
          <sample_count>65</sample_count>
          <value>4.6042792687724104e-001</value>
          <norm_class_idx>1</norm_class_idx>
          <Tn>0</Tn>
          <complexity>0</complexity>
          <alpha>0.</alpha>
          <node_risk>0.</node_risk>
          <tree_risk>0.</tree_risk>
          <tree_error>0.</tree_error></_></nodes></_>
    <_>
      <best_tree_idx>-1</best_tree_idx>
      <nodes>
        <_>
          <depth>0</depth>
          <sample_count>598</sample_count>
          <value>4.4408920985006242e-016</value>
          <norm_class_idx>1</norm_class_idx>
          <Tn>0</Tn>
          <complexity>0</complexity>
          <alpha>0.</alpha>
          <node_risk>0.</node_risk>
          <tree_risk>0.</tree_risk>
          <tree_error>0.</tree_error>
          <splits>
            <_><var>83</var>
              <quality>5.1641911268234253e-001</quality>
              <le>7.4208810925483704e-002</le></_>
            <_><var>16</var>
              <quality>4.9503493309020996e-001</quality>
              <le>2.7748140692710876e-001</le></_>
            <_><var>0</var>
              <quality>4.9389839172363281e-001</quality>
              <le>2.0658448338508606e-001</le></_>
            <_><var>136</var>
              <quality>4.9013301730155945e-001</quality>
              <le>3.3401942253112793e-001</le></_>
            <_><var>73</var>
              <quality>4.8990428447723389e-001</quality>
              <le>5.0682705640792847e-001</le></_>
            <_><var>50</var>
              <quality>4.8930430412292480e-001</quality>
              <le>1.1948764324188232e-001</le></_>
            <_><var>100</var>
              <quality>4.8821496963500977e-001</quality>
              <le>1.4208078384399414e-001</le></_>
            <_><var>93</var>
              <quality>4.8803266882896423e-001</quality>
              <le>2.4055895209312439e-001</le></_>
            <_><var>58</var>
              <quality>4.8674991726875305e-001</quality>
              <le>2.0029470324516296e-001</le></_>
            <_><var>143</var>
              <quality>4.8635125160217285e-001</quality>
              <le>1.3625171780586243e-001</le></_>
            <_><var>158</var>
              <quality>4.8616105318069458e-001</quality>
              <le>2.9001474380493164e-001</le></_>
            <_><var>140</var>
              <quality>4.8616105318069458e-001</quality>
              <le>3.1024271249771118e-001</le></_>
            <_><var>125</var>
              <quality>4.8616105318069458e-001</quality>
              <le>9.4260476529598236e-002</le></_>
            <_><var>95</var>
              <quality>4.8616105318069458e-001</quality>
              <le>5.3980237245559692e-001</le></_>
            <_><var>75</var>
              <quality>4.8553684353828430e-001</quality>
              <le>1.1772160232067108e-001</le></_>
            <_><var>148</var>
              <quality>4.8509335517883301e-001</quality>
              <le>6.4269983768463135e-001</le></_>
            <_><var>5</var>
              <quality>4.8449295759201050e-001</quality>
              <le>7.0322588086128235e-002</le></_>
            <_><var>138</var>
              <quality>4.8428940773010254e-001</quality>
              <le>2.6180785894393921e-001</le></_>
            <_><var>133</var>
              <quality>4.8428940773010254e-001</quality>
              <le>6.0937380790710449e-001</le></_>
            <_><var>76</var>
              <quality>4.8428940773010254e-001</quality>
              <le>1.9007918238639832e-001</le></_></splits></_>
        <_>
          <depth>1</depth>
          <sample_count>582</sample_count>
          <value>-6.5139564281221612e-002</value>
          <norm_class_idx>0</norm_class_idx>
          <Tn>0</Tn>
          <complexity>0</complexity>
          <alpha>0.</alpha>
          <node_risk>0.</node_risk>
          <tree_risk>0.</tree_risk>
          <tree_error>0.</tree_error></_>
        <_>
          <depth>1</depth>
          <sample_count>16</sample_count>
          <value>2.3092828815741062e+000</value>
          <norm_class_idx>1</norm_class_idx>
          <Tn>0</Tn>
          <complexity>0</complexity>
          <alpha>0.</alpha>
          <node_risk>0.</node_risk>
          <tree_risk>0.</tree_risk>
          <tree_error>0.</tree_error></_></nodes></_>
    <_>
      <best_tree_idx>-1</best_tree_idx>
      <nodes>
        <_>
          <depth>0</depth>
          <sample_count>598</sample_count>
          <value>1.2826153801221557e-004</value>
          <norm_class_idx>1</norm_class_idx>
          <Tn>0</Tn>
          <complexity>0</complexity>
          <alpha>0.</alpha>
          <node_risk>0.</node_risk>
          <tree_risk>0.</tree_risk>
          <tree_error>0.</tree_error>
          <splits>
            <_><var>30</var>
              <quality>5.1946777105331421e-001</quality>
              <le>4.9573659896850586e-002</le></_>
            <_><var>151</var>
              <quality>4.2692080140113831e-001</quality>
              <le>2.8240304440259933e-002</le></_>
            <_><var>138</var>
              <quality>4.2644852399826050e-001</quality>
              <le>1.5068719163537025e-002</le></_>
            <_><var>8</var>
              <quality>4.2397677898406982e-001</quality>
              <le>6.2875360250473022e-002</le></_>
            <_><var>1</var>
              <quality>4.2290565371513367e-001</quality>
              <le>1.6213610768318176e-002</le></_>
            <_><var>101</var>
              <quality>4.1960862278938293e-001</quality>
              <le>4.9177698791027069e-002</le></_>
            <_><var>70</var>
              <quality>4.1806769371032715e-001</quality>
              <le>1.6389434039592743e-001</le></_>
            <_><var>158</var>
              <quality>4.1103866696357727e-001</quality>
              <le>5.8469437062740326e-002</le></_>
            <_><var>96</var>
              <quality>4.0963149070739746e-001</quality>
              <le>9.0867415070533752e-002</le></_>
            <_><var>150</var>
              <quality>4.0328493714332581e-001</quality>
              <le>6.2887534499168396e-002</le></_>
            <_><var>168</var>
              <quality>4.0304577350616455e-001</quality>
              <le>6.0280001163482666e-001</le></_>
            <_><var>153</var>
              <quality>4.0238684415817261e-001</quality>
              <le>3.0179042369127274e-002</le></_>
            <_><var>78</var>
              <quality>4.0126588940620422e-001</quality>
              <le>1.4703583717346191e-001</le></_>
            <_><var>38</var>
              <quality>4.0034270286560059e-001</quality>
              <le>2.2813369333744049e-001</le></_>
            <_><var>156</var>
              <quality>3.9889317750930786e-001</quality>
              <le>1.5546494722366333e-001</le></_>
            <_><var>43</var>
              <quality>3.9834809303283691e-001</quality>
              <le>6.1027541756629944e-002</le></_>
            <_><var>165</var>
              <quality>3.9807781577110291e-001</quality>
              <le>1.2812870740890503e-001</le></_>
            <_><var>118</var>
              <quality>3.9793530106544495e-001</quality>
              <le>1.3907986879348755e-001</le></_>
            <_><var>41</var>
              <quality>3.9588910341262817e-001</quality>
              <le>1.0748481005430222e-001</le></_>
            <_><var>65</var>
              <quality>3.9472103118896484e-001</quality>
              <le>9.5833748579025269e-002</le></_>
            <_><var>166</var>
              <quality>3.9461916685104370e-001</quality>
              <le>2.2404959797859192e-001</le></_>
            <_><var>141</var>
              <quality>3.9416289329528809e-001</quality>
              <le>5.9138018637895584e-002</le></_>
            <_><var>63</var>
              <quality>3.9348194003105164e-001</quality>
              <le>6.0191571712493896e-001</le></_>
            <_><var>20</var>
              <quality>3.9148733019828796e-001</quality>
              <le>5.9341564774513245e-002</le></_>
            <_><var>140</var>
              <quality>3.9101114869117737e-001</quality>
              <le>1.8311342597007751e-001</le></_>
            <_><var>103</var>
              <quality>3.9031848311424255e-001</quality>
              <le>6.9121941924095154e-002</le></_>
            <_><var>120</var>
              <quality>3.8960707187652588e-001</quality>
              <le>9.7317010164260864e-002</le></_>
            <_><var>136</var>
              <quality>3.8916093111038208e-001</quality>
              <le>2.0505036413669586e-001</le></_>
            <_><var>93</var>
              <quality>3.8889694213867188e-001</quality>
              <le>1.1521549522876740e-001</le></_>
            <_><var>76</var>
              <quality>3.8885492086410522e-001</quality>
              <le>9.2043146491050720e-002</le></_>
            <_><var>105</var>
              <quality>3.8872027397155762e-001</quality>
              <le>2.0227834582328796e-002</le></_>
            <_><var>31</var>
              <quality>3.8860154151916504e-001</quality>
              <le>3.9754235744476318e-001</le></_>
            <_><var>128</var>
              <quality>3.8794288039207458e-001</quality>
              <le>3.2672148197889328e-002</le></_>
            <_><var>16</var>
              <quality>3.8786602020263672e-001</quality>
              <le>1.7231088876724243e-001</le></_>
            <_><var>91</var>
              <quality>3.8760745525360107e-001</quality>
              <le>3.3598804473876953e-001</le></_>
            <_><var>113</var>
              <quality>3.8749775290489197e-001</quality>
              <le>1.8407250940799713e-001</le></_>
            <_><var>5</var>
              <quality>3.8689032196998596e-001</quality>
              <le>1.8037194013595581e-001</le></_>
            <_><var>108</var>
              <quality>3.8687875866889954e-001</quality>
              <le>5.5328458547592163e-001</le></_>
            <_><var>48</var>
              <quality>3.8673791289329529e-001</quality>
              <le>1.3479096814990044e-002</le></_>
            <_><var>111</var>
              <quality>3.8650038838386536e-001</quality>
              <le>2.1509939432144165e-001</le></_>
            <_><var>0</var>
              <quality>3.8633334636688232e-001</quality>
              <le>1.8487140536308289e-001</le></_>
            <_><var>178</var>
              <quality>3.8624757528305054e-001</quality>
              <le>2.7011346817016602e-001</le></_>
            <_><var>95</var>
              <quality>3.8623473048210144e-001</quality>
              <le>9.8426789045333862e-002</le></_>
            <_><var>56</var>
              <quality>3.8610255718231201e-001</quality>
              <le>1.7143985629081726e-001</le></_>
            <_><var>58</var>
              <quality>3.8523995876312256e-001</quality>
              <le>7.2094202041625977e-002</le></_>
            <_><var>160</var>
              <quality>3.8515138626098633e-001</quality>
              <le>6.8429931998252869e-002</le></_>
            <_><var>53</var>
              <quality>3.8508608937263489e-001</quality>
              <le>5.2274447679519653e-001</le></_>
            <_><var>106</var>
              <quality>3.8458120822906494e-001</quality>
              <le>4.6960711479187012e-002</le></_>
            <_><var>125</var>
              <quality>3.8441306352615356e-001</quality>
              <le>1.6213610768318176e-002</le></_>
            <_><var>185</var>
              <quality>3.8440456986427307e-001</quality>
              <le>7.0630528032779694e-002</le></_>
            <_><var>35</var>
              <quality>3.8433185219764709e-001</quality>
              <le>7.7753767371177673e-002</le></_>
            <_><var>143</var>
              <quality>3.8430351018905640e-001</quality>
              <le>3.1686212867498398e-002</le></_>
            <_><var>21</var>
              <quality>3.8427600264549255e-001</quality>
              <le>3.2174631953239441e-002</le></_>
            <_><var>51</var>
              <quality>3.8424107432365417e-001</quality>
              <le>1.2626907229423523e-001</le></_>
            <_><var>73</var>
              <quality>3.8410365581512451e-001</quality>
              <le>3.2606852054595947e-001</le></_>
            <_><var>161</var>
              <quality>3.8407900929450989e-001</quality>
              <le>1.7633641138672829e-002</le></_>
            <_><var>46</var>
              <quality>3.8375934958457947e-001</quality>
              <le>9.6523903310298920e-002</le></_>
            <_><var>116</var>
              <quality>3.8359385728836060e-001</quality>
              <le>4.6012604236602783e-001</le></_>
            <_><var>75</var>
              <quality>3.8346949219703674e-001</quality>
              <le>1.3913822174072266e-001</le></_>
            <_><var>50</var>
              <quality>3.8337752223014832e-001</quality>
              <le>1.1948764324188232e-001</le></_>
            <_><var>123</var>
              <quality>3.8336569070816040e-001</quality>
              <le>3.3709991723299026e-002</le></_>
            <_><var>71</var>
              <quality>3.8331362605094910e-001</quality>
              <le>3.8851332664489746e-001</le></_>
            <_><var>61</var>
              <quality>3.8318130373954773e-001</quality>
              <le>3.4274321794509888e-001</le></_>
            <_><var>155</var>
              <quality>3.8307642936706543e-001</quality>
              <le>3.3444976806640625e-001</le></_></splits></_>
        <_>
          <depth>1</depth>
          <sample_count>541</sample_count>
          <value>-1.5876143992561853e-001</value>
          <norm_class_idx>0</norm_class_idx>
          <Tn>0</Tn>
          <complexity>0</complexity>
          <alpha>0.</alpha>
          <node_risk>0.</node_risk>
          <tree_risk>0.</tree_risk>
          <tree_error>0.</tree_error></_>
        <_>
          <depth>1</depth>
          <sample_count>57</sample_count>
          <value>4.7432482412652821e-001</value>
          <norm_class_idx>1</norm_class_idx>
          <Tn>0</Tn>
          <complexity>0</complexity>
          <alpha>0.</alpha>
          <node_risk>0.</node_risk>
          <tree_risk>0.</tree_risk>
          <tree_error>0.</tree_error></_></nodes></_>
    <_>
      <best_tree_idx>-1</best_tree_idx>
      <nodes>
        <_>
          <depth>0</depth>
          <sample_count>433</sample_count>
          <value>2.4385174715798628e-002</value>
          <norm_class_idx>1</norm_class_idx>
          <Tn>0</Tn>
          <complexity>0</complexity>
          <alpha>0.</alpha>
          <node_risk>0.</node_risk>
          <tree_risk>0.</tree_risk>
          <tree_error>0.</tree_error>
          <splits>
            <_><var>43</var>
              <quality>5.0585192441940308e-001</quality>
              <le>5.7496219873428345e-002</le></_>
            <_><var>141</var>
              <quality>4.7225040197372437e-001</quality>
              <le>3.2645478844642639e-002</le></_>
            <_><var>16</var>
              <quality>4.6547317504882813e-001</quality>
              <le>1.6994342207908630e-001</le></_>
            <_><var>93</var>
              <quality>4.6431693434715271e-001</quality>
              <le>1.3409036397933960e-001</le></_>
            <_><var>140</var>
              <quality>4.6166130900382996e-001</quality>
              <le>1.6907805204391479e-001</le></_>
            <_><var>76</var>
              <quality>4.6163690090179443e-001</quality>
              <le>1.1669910699129105e-001</le></_>
            <_><var>58</var>
              <quality>4.5631852746009827e-001</quality>
              <le>7.2094202041625977e-002</le></_>
            <_><var>91</var>
              <quality>4.5629036426544189e-001</quality>
              <le>3.9488725364208221e-002</le></_>
            <_><var>30</var>
              <quality>4.5617657899856567e-001</quality>
              <le>2.0434218645095825e-001</le></_>
            <_><var>96</var>
              <quality>4.5613786578178406e-001</quality>
              <le>1.8083851039409637e-001</le></_>
            <_><var>111</var>
              <quality>4.5604971051216125e-001</quality>
              <le>2.1509939432144165e-001</le></_>
            <_><var>138</var>
              <quality>4.5554724335670471e-001</quality>
              <le>2.3302471637725830e-001</le></_>
            <_><var>73</var>
              <quality>4.5526325702667236e-001</quality>
              <le>3.2606852054595947e-001</le></_>
            <_><var>156</var>
              <quality>4.5426836609840393e-001</quality>
              <le>5.9138017892837524e-001</le></_>
            <_><var>0</var>
              <quality>4.5385295152664185e-001</quality>
              <le>1.8487140536308289e-001</le></_>
            <_><var>95</var>
              <quality>4.5382431149482727e-001</quality>
              <le>1.1601281911134720e-001</le></_>
            <_><var>23</var>
              <quality>4.5371332764625549e-001</quality>
              <le>3.6632543802261353e-001</le></_>
            <_><var>105</var>
              <quality>4.5346364378929138e-001</quality>
              <le>6.0404170304536819e-002</le></_>
            <_><var>81</var>
              <quality>4.5312914252281189e-001</quality>
              <le>2.2989977896213531e-001</le></_>
            <_><var>198</var>
              <quality>4.5299673080444336e-001</quality>
              <le>7.4763071537017822e-001</le></_>
            <_><var>20</var>
              <quality>4.5254337787628174e-001</quality>
              <le>7.6499342918395996e-001</le></_>
            <_><var>158</var>
              <quality>4.5246315002441406e-001</quality>
              <le>2.5297066569328308e-001</le></_>
            <_><var>5</var>
              <quality>4.5246315002441406e-001</quality>
              <le>1.8037194013595581e-001</le></_>
            <_><var>65</var>
              <quality>4.5232954621315002e-001</quality>
              <le>9.5833748579025269e-002</le></_>
            <_><var>75</var>
              <quality>4.5183354616165161e-001</quality>
              <le>8.6046397686004639e-002</le></_>
            <_><var>188</var>
              <quality>4.5175859332084656e-001</quality>
              <le>8.1946742534637451e-001</le></_>
            <_><var>190</var>
              <quality>4.5147773623466492e-001</quality>
              <le>3.8014296442270279e-002</le></_>
            <_><var>153</var>
              <quality>4.5117738842964172e-001</quality>
              <le>5.2148658037185669e-001</le></_>
            <_><var>180</var>
              <quality>4.5023512840270996e-001</quality>
              <le>2.2580081224441528e-001</le></_>
            <_><var>125</var>
              <quality>4.5020034909248352e-001</quality>
              <le>1.6213610768318176e-002</le></_>
            <_><var>178</var>
              <quality>4.5019799470901489e-001</quality>
              <le>2.7011346817016602e-001</le></_>
            <_><var>181</var>
              <quality>4.5003488659858704e-001</quality>
              <le>1.5360452234745026e-001</le></_></splits></_>
        <_>
          <depth>1</depth>
          <sample_count>409</sample_count>
          <value>1.1444002635111838e-001</value>
          <norm_class_idx>1</norm_class_idx>
          <Tn>0</Tn>
          <complexity>0</complexity>
          <alpha>0.</alpha>
          <node_risk>0.</node_risk>
          <tree_risk>0.</tree_risk>
          <tree_error>0.</tree_error></_>
        <_>
          <depth>1</depth>
          <sample_count>24</sample_count>
          <value>-8.6102122464072939e-001</value>
          <norm_class_idx>0</norm_class_idx>
          <Tn>0</Tn>
          <complexity>0</complexity>
          <alpha>0.</alpha>
          <node_risk>0.</node_risk>
          <tree_risk>0.</tree_risk>
          <tree_error>0.</tree_error></_></nodes></_>
    <_>
      <best_tree_idx>-1</best_tree_idx>
      <nodes>
        <_>
          <depth>0</depth>
          <sample_count>597</sample_count>
          <value>-2.7111481691738094e-002</value>
          <norm_class_idx>0</norm_class_idx>
          <Tn>0</Tn>
          <complexity>0</complexity>
          <alpha>0.</alpha>
          <node_risk>0.</node_risk>
          <tree_risk>0.</tree_risk>
          <tree_error>0.</tree_error>
          <splits>
            <_><var>56</var>
              <quality>5.1212745904922485e-001</quality>
              <le>4.6439848840236664e-002</le></_>
            <_><var>98</var>
              <quality>4.9501422047615051e-001</quality>
              <le>1.6739091277122498e-001</le></_>
            <_><var>61</var>
              <quality>4.9459019303321838e-001</quality>
              <le>2.8749257326126099e-001</le></_>
            <_><var>161</var>
              <quality>4.9458080530166626e-001</quality>
              <le>3.3291590213775635e-001</le></_>
            <_><var>63</var>
              <quality>4.9314132332801819e-001</quality>
              <le>4.3965965509414673e-001</le></_>
            <_><var>155</var>
              <quality>4.9204421043395996e-001</quality>
              <le>1.6645795106887817e-001</le></_>
            <_><var>86</var>
              <quality>4.9168723821640015e-001</quality>
              <le>2.7632668614387512e-001</le></_>
            <_><var>3</var>
              <quality>4.9076858162879944e-001</quality>
              <le>8.2853686809539795e-001</le></_>
            <_><var>128</var>
              <quality>4.9036595225334167e-001</quality>
              <le>1.6549229621887207e-001</le></_>
            <_><var>85</var>
              <quality>4.9024799466133118e-001</quality>
              <le>1.6695387661457062e-001</le></_>
            <_><var>173</var>
              <quality>4.8730739951133728e-001</quality>
              <le>2.8127197176218033e-002</le></_></splits></_>
        <_>
          <depth>1</depth>
          <sample_count>594</sample_count>
          <value>-8.0601108425962645e-002</value>
          <norm_class_idx>0</norm_class_idx>
          <Tn>0</Tn>
          <complexity>0</complexity>
          <alpha>0.</alpha>
          <node_risk>0.</node_risk>
          <tree_risk>0.</tree_risk>
          <tree_error>0.</tree_error></_>
        <_>
          <depth>1</depth>
          <sample_count>3</sample_count>
          <value>5.7564577324623896e+000</value>
          <norm_class_idx>1</norm_class_idx>
          <Tn>0</Tn>
          <complexity>0</complexity>
          <alpha>0.</alpha>
          <node_risk>0.</node_risk>
          <tree_risk>0.</tree_risk>
          <tree_error>0.</tree_error></_></nodes></_>
    <_>
      <best_tree_idx>-1</best_tree_idx>
      <nodes>
        <_>
          <depth>0</depth>
          <sample_count>594</sample_count>
          <value>-2.2204460492503182e-015</value>
          <norm_class_idx>0</norm_class_idx>
          <Tn>0</Tn>
          <complexity>0</complexity>
          <alpha>0.</alpha>
          <node_risk>0.</node_risk>
          <tree_risk>0.</tree_risk>
          <tree_error>0.</tree_error>
          <splits>
            <_><var>40</var>
              <quality>5.0665754079818726e-001</quality>
              <le>1.3816642761230469e-001</le></_>
            <_><var>161</var>
              <quality>4.8536202311515808e-001</quality>
              <le>1.0990688949823380e-001</le></_>
            <_><var>135</var>
              <quality>4.8451513051986694e-001</quality>
              <le>2.8776666522026062e-001</le></_>
            <_><var>45</var>
              <quality>4.8412930965423584e-001</quality>
              <le>3.6297053098678589e-001</le></_>
            <_><var>191</var>
              <quality>4.8365038633346558e-001</quality>
              <le>5.4138398170471191e-001</le></_>
            <_><var>156</var>
              <quality>4.8358222842216492e-001</quality>
              <le>5.9138017892837524e-001</le></_>
            <_><var>180</var>
              <quality>4.8322147130966187e-001</quality>
              <le>2.6511108875274658e-001</le></_>
            <_><var>23</var>
              <quality>4.8292097449302673e-001</quality>
              <le>4.9264499545097351e-001</le></_>
            <_><var>153</var>
              <quality>4.8249694705009460e-001</quality>
              <le>5.2148658037185669e-001</le></_>
            <_><var>43</var>
              <quality>4.8246189951896667e-001</quality>
              <le>3.0745503306388855e-001</le></_>
            <_><var>193</var>
              <quality>4.8239773511886597e-001</quality>
              <le>9.0889680385589600e-001</le></_>
